{"learner":{"attributes":{"best_iteration":"38","best_score":"0.3957894736842105"},"feature_names":[],"feature_types":[],"gradient_booster":{"model":{"cats":{"enc":[],"feature_segments":[],"sorted_idx":[]},"gbtree_model_param":{"num_parallel_tree":"1","num_trees":"198"},"iteration_indptr":[0,2,4,6,8,10,12,14,16,18,20,22,24,26,28,30,32,34,36,38,40,42,44,46,48,50,52,54,56,58,60,62,64,66,68,70,72,74,76,78,80,82,84,86,88,90,92,94,96,98,100,102,104,106,108,110,112,114,116,118,120,122,124,126,128,130,132,134,136,138,140,142,144,146,148,150,152,154,156,158,160,162,164,166,168,170,172,174,176,178,180,182,184,186,188,190,192,194,196,198],"tree_info":[0,1,0,1,0,1,0,1,0,1,0,1,0,1,0,1,0,1,0,1,0,1,0,1,0,1,0,1,0,1,0,1,0,1,0,1,0,1,0,1,0,1,0,1,0,1,0,1,0,1,0,1,0,1,0,1,0,1,0,1,0,1,0,1,0,1,0,1,0,1,0,1,0,1,0,1,0,1,0,1,0,1,0,1,0,1,0,1,0,1,0,1,0,1,0,1,0,1,0,1,0,1,0,1,0,1,0,1,0,1,0,1,0,1,0,1,0,1,0,1,0,1,0,1,0,1,0,1,0,1,0,1,0,1,0,1,0,1,0,1,0,1,0,1,0,1,0,1,0,1,0,1,0,1,0,1,0,1,0,1,0,1,0,1,0,1,0,1,0,1,0,1,0,1,0,1,0,1,0,1,0,1,0,1,0,1,0,1,0,1,0,1,0,1,0,1,0,1],"trees":[{"base_weights":[1.475867E-2,-8.168162E-2,2.2759065E-1,4.9988978E-2,-2.775E-1,2.7594703E-1,-6.951103E-2,1.0466761E-1,-1.4437683E-1,-1.1282942E-1,-3.9110932E-1,2.0381139E-1,1.5232806E-2,2.4252834E-3,-4.717757E-1,-5.952436E-2,1.8265879E-1,-7.4463408E-3,9.105132E-2,-8.682653E-3,8.151142E-2,-2.1329504E-2,-3.2471687E-1,-2.5614824E-3,2.4694568E-1,3.8892734E-3,-2.4859406E-2,1.7256306E-2,-1.03735715E-1,2.8668094E-1,8.136222E-2,-3.430352E-3,1.6657103E-2,5.6664937E-4,2.1198137E-2,-1.7410826E-2,-7.442079E-3,3.7276903E-1,5.2764122E-3,-2.364564E-2,-2.3724954E-3,-1.6135087E-3,1.1416911E-2,-1.6363867E-2,3.5988814E-3,-5.594332E-3,4.268713E-1,8.404391E-3,2.114884E-2],"categories":[],"categories_nodes":[],"categories_segments":[],"categories_sizes":[],"default_left":[0,0,0,1,1,0,0,0,0,0,1,0,0,0,0,0,0,0,0,0,1,0,0,0,0,0,0,0,0,0,0,0,0,0,0,0,0,0,0,0,0,0,0,0,0,0,0,0,0],"id":0,"left_children":[1,3,5,7,9,11,13,15,17,19,21,23,-1,-1,25,27,29,-1,31,-1,33,-1,35,-1,37,-1,-1,-1,39,41,43,-1,-1,-1,-1,-1,-1,45,-1,-1,-1,-1,-1,-1,-1,-1,47,-1,-1],"loss_changes":[6.773996E1,5.8595306E1,1.4845821E1,1.4495879E1,1.6982101E1,1.1657288E1,8.5294485E0,1.3647111E1,5.796468E0,1.1070741E1,8.687096E0,7.856844E0,0E0,0E0,6.6862116E0,9.005865E0,7.5439453E0,0E0,6.5045314E0,0E0,5.9784946E0,0E0,8.448902E0,0E0,5.9723396E0,0E0,0E0,0E0,6.185342E0,7.1236897E0,6.052576E0,0E0,0E0,0E0,0E0,0E0,0E0,6.8283634E0,0E0,0E0,0E0,0E0,0E0,0E0,0E0,0E0,7.238678E0,0E0,0E0],"parents":[2147483647,0,0,1,1,2,2,3,3,4,4,5,5,6,6,7,7,8,8,9,9,10,10,11,11,14,14,15,15,16,16,18,18,20,20,22,22,24,24,28,28,29,29,30,30,37,37,46,46],"right_children":[2,4,6,8,10,12,14,16,18,20,22,24,-1,-1,26,28,30,-1,32,-1,34,-1,36,-1,38,-1,-1,-1,40,42,44,-1,-1,-1,-1,-1,-1,46,-1,-1,-1,-1,-1,-1,-1,-1,48,-1,-1],"split_conditions":[4.75E0,4.43E0,4.8271604E0,1.85E-1,4.296296E0,4.906832E0,5.43E0,3.13E-1,9.6081324E-2,4.03E-1,3.84E-1,8E0,1.5232806E-2,2.4252834E-3,3.05E0,8.13E1,3.55E0,-7.4463408E-3,1.5666667E0,-8.682653E-3,1.54E0,-2.1329504E-2,5.6E0,-2.5614824E-3,3.86E0,3.8892734E-3,-2.4859406E-2,1.7256306E-2,1.36E0,2.85E0,9.7E-1,-3.430352E-3,1.6657103E-2,5.6664937E-4,2.1198137E-2,-1.7410826E-2,-7.442079E-3,6.81E-1,5.2764122E-3,-2.364564E-2,-2.3724954E-3,-1.6135087E-3,1.1416911E-2,-1.6363867E-2,3.5988814E-3,-5.594332E-3,4.17E0,8.404391E-3,2.114884E-2],"split_indices":[54,66,14,5,14,38,66,28,36,29,29,76,0,0,59,4,66,0,10,0,21,0,53,0,66,0,0,0,59,20,55,0,0,0,0,0,0,24,0,0,0,0,0,0,0,0,18,0,0],"split_type":[0,0,0,0,0,0,0,0,0,0,0,0,0,0,0,0,0,0,0,0,0,0,0,0,0,0,0,0,0,0,0,0,0,0,0,0,0,0,0,0,0,0,0,0,0,0,0,0,0],"sum_hessian":[3.2940024E3,2.2675864E3,1.0264161E3,1.356687E3,9.1089935E2,8.830425E2,1.4337369E2,1.059848E3,2.96839E2,3.7388474E2,5.3701465E2,6.395562E2,2.4348624E2,1.069978E2,3.637589E1,3.4123843E2,7.1860956E2,2.2089732E2,7.594168E1,2.1055032E2,1.6333441E2,1.0666417E2,4.303505E2,8.458182E1,5.549744E2,1.210744E1,2.426845E1,2.2292404E1,3.18946E2,3.5225958E2,3.6634998E2,5.264547E1,2.3296207E1,1.4866322E2,1.4671185E1,1.3794414E2,2.9240634E2,2.2368756E2,3.3128687E2,1.3311738E1,3.0563428E2,5.283085E1,2.9942874E2,1.4971927E1,3.5137805E2,1.9767113E1,2.0392046E2,1.1585489E2,8.806557E1],"tree_param":{"num_deleted":"0","num_feature":"80","num_nodes":"49","size_leaf_vector":"1"}},{"base_weights":[5.9519326E-3,-1.532756E-1,1.3174818E-1,-8.358017E-5,-3.3615047E-1,2.3171316E-1,-5.3414218E-2,-2.2574406E-2,1.4904333E-2,-1.2205964E-1,-4.1438055E-1,4.7480106E-2,3.2167658E-1,2.0525193E-2,-3.1557077E-1,7.3404983E-3,-7.078447E-2,-8.2201185E-3,7.5429226E-3,-1.0769558E-3,-1.4783971E-2,-9.677088E-3,4.107997E-3,-3.463348E-3,3.585001E-1,7.1747504E-2,-1.1899407E-2,1.0657514E-4,-2.0382566E-2,-5.4119728E-3,3.8554717E-2,1.6600417E-2,2.9352367E-1,-2.8252334E-3,1.5793262E-1,3.1209574E-3,-1.19311195E-2,8.0523E-3,1.888434E-2,-2.4554474E-2,1.1972522E-2,-4.359772E-3,1.0039891E-2],"categories":[],"categories_nodes":[],"categories_segments":[],"categories_sizes":[],"default_left":[0,0,0,0,0,1,1,0,0,0,0,1,0,0,0,0,0,0,0,0,0,0,0,0,0,1,0,0,0,0,0,0,1,0,1,0,0,0,0,0,0,0,0],"id":1,"left_children":[1,3,5,7,9,11,13,15,-1,17,19,21,23,25,27,-1,29,-1,-1,-1,-1,-1,-1,-1,31,33,-1,-1,-1,-1,35,-1,37,-1,39,-1,-1,-1,-1,41,-1,-1,-1],"loss_changes":[6.524417E1,4.025276E1,3.3723648E1,8.020725E0,1.0846619E1,1.9549095E1,1.2456045E1,8.908379E0,0E0,8.123543E0,6.09655E0,1.0363784E1,1.25800705E1,9.860898E0,1.3652121E1,0E0,6.437647E0,0E0,0E0,0E0,0E0,0E0,0E0,0E0,6.5469437E0,6.0655513E0,0E0,0E0,0E0,0E0,6.6216693E0,0E0,6.740692E0,0E0,1.0812883E1,0E0,0E0,0E0,0E0,5.571899E0,0E0,0E0,0E0],"parents":[2147483647,0,0,1,1,2,2,3,3,4,4,5,5,6,6,7,7,9,9,10,10,11,11,12,12,13,13,14,14,16,16,24,24,25,25,30,30,32,32,34,34,39,39],"right_children":[2,4,6,8,10,12,14,16,-1,18,20,22,24,26,28,-1,30,-1,-1,-1,-1,-1,-1,-1,32,34,-1,-1,-1,-1,36,-1,38,-1,40,-1,-1,-1,-1,42,-1,-1,-1],"split_conditions":[3.98E0,4.31E0,4.5E0,5.314815E0,8.296036E-2,8.306602E-2,4.906832E0,4.111111E0,1.4904333E-2,1.23E0,8.71E1,7.03E-1,3.8148148E0,7.04E0,5.41E0,7.3404983E-3,1.15E0,-8.2201185E-3,7.5429226E-3,-1.0769558E-3,-1.4783971E-2,-9.677088E-3,4.107997E-3,-3.463348E-3,6.95E-1,1.0555556E0,-1.1899407E-2,1.0657514E-4,-2.0382566E-2,-5.4119728E-3,1.4E0,1.6600417E-2,1.537037E0,-2.8252334E-3,8.777169E-2,3.1209574E-3,-1.19311195E-2,8.0523E-3,1.888434E-2,5.45E0,1.1972522E-2,-4.359772E-3,1.0039891E-2],"split_indices":[66,54,56,14,23,50,38,38,0,67,31,24,14,54,54,0,67,0,0,0,0,0,0,0,30,10,0,0,0,0,21,0,10,0,50,0,0,0,0,66,0,0,0],"split_type":[0,0,0,0,0,0,0,0,0,0,0,0,0,0,0,0,0,0,0,0,0,0,0,0,0,0,0,0,0,0,0,0,0,0,0,0,0,0,0,0,0,0,0],"sum_hessian":[3.2513083E3,1.4345619E3,1.8167465E3,7.8200854E2,6.525534E2,1.17964E3,6.3710645E2,7.4704565E2,3.496287E1,1.763454E2,4.7620798E2,3.8835538E2,7.912846E2,4.983646E2,1.3874187E2,1.21305115E2,6.2574054E2,1.3003171E2,4.631368E1,3.9086555E1,4.3712143E2,7.031294E1,3.1804245E2,6.2421215E1,7.288634E2,4.410393E2,5.7325287E1,6.848249E1,7.025938E1,3.3743323E2,2.883073E2,2.2108136E2,5.0778204E2,1.5583676E2,2.8520255E2,2.5450206E2,3.380525E1,4.3493002E2,7.285202E1,1.5173642E2,1.3346613E2,1.1546078E2,3.627564E1],"tree_param":{"num_deleted":"0","num_feature":"80","num_nodes":"43","size_leaf_vector":"1"}},{"base_weights":[-1.1129417E-2,-1.7444722E-1,1.2013924E-1,-1.0565699E-1,-4.208964E-1,2.5967148E-1,4.2600922E-2,-1.9846645E-1,-3.8625824E-3,-7.8090266E-3,-1.739403E-2,1.906062E-1,1.5217881E-2,-3.777363E-2,2.2775377E-1,-1.8126975E-3,-2.8866106E-1,7.7641862E-3,-5.064495E-2,1.2420138E-2,3.2820317E-3,6.0546794E-3,-7.9332165E-2,-7.0997016E-3,1.0519276E-2,-7.4667614E-3,-1.8934596E-2,6.4168596E-3,-8.848616E-3,-5.2870424E-3,1.4446708E-3,-5.6538656E-3,1.2327825E-2,-5.2412404E-3,4.093079E-3],"categories":[],"categories_nodes":[],"categories_segments":[],"categories_sizes":[],"default_left":[0,0,1,1,1,1,0,0,1,0,0,0,0,0,0,0,0,0,0,0,0,0,0,0,0,0,0,0,0,0,0,0,0,0,0],"id":2,"left_children":[1,3,5,7,9,11,13,15,17,-1,-1,19,-1,21,23,-1,25,-1,27,-1,-1,-1,29,31,-1,-1,-1,33,-1,-1,-1,-1,-1,-1,-1],"loss_changes":[6.996658E1,2.4556217E1,1.9543493E1,1.07639675E1,5.9112396E0,8.794071E0,1.739689E1,7.6743813E0,6.1575804E0,0E0,0E0,8.127735E0,0E0,7.539475E0,7.5878887E0,0E0,6.219509E0,0E0,5.7383337E0,0E0,0E0,0E0,6.881456E0,6.487135E0,0E0,0E0,0E0,7.1753597E0,0E0,0E0,0E0,0E0,0E0,0E0,0E0],"parents":[2147483647,0,0,1,1,2,2,3,3,4,4,5,5,6,6,7,7,8,8,11,11,13,13,14,14,16,16,18,18,22,22,23,23,27,27],"right_children":[2,4,6,8,10,12,14,16,18,-1,-1,20,-1,22,24,-1,26,-1,28,-1,-1,-1,30,32,-1,-1,-1,34,-1,-1,-1,-1,-1,-1,-1],"split_conditions":[3.99E0,4.87E0,3.96E0,1.1975309E0,4.28E0,1.4E0,1.41E0,8.322237E-2,3.9444444E0,-7.8090266E-3,-1.739403E-2,-1E-1,1.5217881E-2,7.65391E-2,7.965339E-2,-1.8126975E-3,4.54E0,7.7641862E-3,1.89E-1,1.2420138E-2,3.2820317E-3,6.0546794E-3,1.5E0,4.74E0,1.0519276E-2,-7.4667614E-3,-1.8934596E-2,1.6E0,-8.848616E-3,-5.2870424E-3,1.4446708E-3,-5.6538656E-3,1.2327825E-2,-5.2412404E-3,4.093079E-3],"split_indices":[54,68,42,37,44,16,16,9,14,0,0,63,0,9,36,0,68,0,5,0,0,0,75,57,0,0,0,75,0,0,0,0,0,0,0],"split_type":[0,0,0,0,0,0,0,0,0,0,0,0,0,0,0,0,0,0,0,0,0,0,0,0,0,0,0,0,0,0,0,0,0,0,0],"sum_hessian":[3.2575588E3,1.4514495E3,1.8061094E3,1.1373713E3,3.1407812E2,6.4302905E2,1.1630803E3,5.93549E2,5.438223E2,1.1768984E2,1.9638829E2,4.8231967E2,1.6070938E2,8.120292E2,3.5105118E2,2.3066936E2,3.6287964E2,8.731325E1,4.5650906E2,1.562434E2,3.260763E2,1.26986626E2,6.8504254E2,9.846683E1,2.5258434E2,3.011759E2,6.1703735E1,3.631322E2,9.337686E1,4.132775E2,2.7176505E2,6.9743935E1,2.8722887E1,1.5047067E2,2.1266154E2],"tree_param":{"num_deleted":"0","num_feature":"80","num_nodes":"35","size_leaf_vector":"1"}},{"base_weights":[6.00498E-3,-2.1799839E-1,6.870326E-2,-1.3369647E-1,-1.6056972E-2,2.1019037E-1,-2.0026857E-2,-2.756656E-1,1.149089E-2,7.840024E-2,3.4472215E-1,5.9090555E-2,-2.0938653E-1,-4.8310305E-3,-1.4611282E-2,-5.6241665E-2,1.4041535E-2,-1.4737889E-3,6.158446E-3,1.5768679E-3,1.2950267E-2,-8.8373415E-2,1.1983047E-1,-8.473918E-3,4.674726E-3,1.9500796E-2,-1.5682956E-2,-8.1506754E-5,-1.1573166E-2,1.0735922E-2,7.504766E-2,3.7807005E-3,-1.5167989E-2,7.944287E-3,1.2017514E-2,1.7122494E-1,-2.3374392E-3,8.2065035E-3,-1.0304791E-2],"categories":[],"categories_nodes":[],"categories_segments":[],"categories_sizes":[],"default_left":[0,1,0,0,0,1,1,0,1,0,0,0,1,0,0,1,0,0,0,0,0,0,0,0,0,0,0,0,0,0,0,0,0,0,1,0,0,0,0],"id":3,"left_children":[1,3,5,7,-1,9,11,13,15,17,19,21,23,-1,-1,25,-1,-1,-1,-1,-1,27,29,-1,-1,31,-1,-1,-1,-1,33,-1,-1,-1,35,37,-1,-1,-1],"loss_changes":[4.6541107E1,1.6265553E1,3.2526882E1,1.1466691E1,0E0,1.7632126E1,2.391833E1,5.92082E0,7.868694E0,6.799469E0,6.9336243E0,1.01144905E1,7.932598E0,0E0,0E0,7.684005E0,0E0,0E0,0E0,0E0,0E0,7.4244576E0,7.297365E0,0E0,0E0,9.475211E0,0E0,0E0,0E0,0E0,6.8729935E0,0E0,0E0,0E0,6.3818145E0,6.3927507E0,0E0,0E0,0E0],"parents":[2147483647,0,0,1,1,2,2,3,3,5,5,6,6,7,7,8,8,9,9,10,10,11,11,12,12,15,15,21,21,22,22,25,25,30,30,34,34,35,35],"right_children":[2,4,6,8,-1,10,12,14,16,18,20,22,24,-1,-1,26,-1,-1,-1,-1,-1,28,30,-1,-1,32,-1,-1,-1,-1,34,-1,-1,-1,36,38,-1,-1,-1],"split_conditions":[1E-1,4.906832E0,8E-1,1.29E0,-1.6056972E-2,4.25E0,4.52E0,5.99E0,1.06E2,7.24E-1,7.5898126E-2,1.24E0,4.24E0,-4.8310305E-3,-1.4611282E-2,9.7301714E-2,1.4041535E-2,-1.4737889E-3,6.158446E-3,1.5768679E-3,1.2950267E-2,4.983333E0,1.05E0,-8.473918E-3,4.674726E-3,6.92E0,-1.5682956E-2,-8.1506754E-5,-1.1573166E-2,1.0735922E-2,4.216049E0,3.7807005E-3,-1.5167989E-2,7.944287E-3,4.691358E-1,1.36E0,-2.3374392E-3,8.2065035E-3,-1.0304791E-2],"split_indices":[63,38,75,67,0,44,15,54,31,24,9,43,45,0,0,23,0,0,0,0,0,38,55,0,0,54,0,0,0,0,38,0,0,0,12,67,0,0,0],"split_type":[0,0,0,0,0,0,0,0,0,0,0,0,0,0,0,0,0,0,0,0,0,0,0,0,0,0,0,0,0,0,0,0,0,0,0,0,0,0,0],"sum_hessian":[3.307549E3,7.2192444E2,2.5856245E3,5.5216693E2,1.6975752E2,9.956323E2,1.5899923E3,2.7837317E2,2.737938E2,5.0492386E2,4.9070844E2,1.1222968E3,4.6769556E2,1.5951346E2,1.18859695E2,2.3682487E2,3.696891E1,2.366397E2,2.6828415E2,6.876288E1,4.2194556E2,3.2684167E2,7.95455E2,4.1269827E2,5.4997272E1,2.0224095E2,3.4583923E1,2.4806976E2,7.877191E1,1.3960208E2,6.5585297E2,1.7026028E2,3.198066E1,1.7875021E2,4.7710272E2,1.6273903E2,3.143637E2,1.4128973E2,2.1449297E1],"tree_param":{"num_deleted":"0","num_feature":"80","num_nodes":"39","size_leaf_vector":"1"}},{"base_weights":[-1.7143922E-3,-9.421245E-2,1.7197596E-1,2.2597449E-2,-2.5386098E-1,-1.1462643E-1,2.3219284E-1,-2.0216627E-1,7.6398425E-2,-3.841189E-1,-1.5033665E-1,-1.6308891E-3,-1.9263254E-2,1.1455521E-2,9.124321E-2,-2.833787E-1,3.997386E-3,5.211145E-2,1.9290728E-2,-5.7747006E-1,-2.8329614E-1,-5.0795055E-4,-1.0861773E-2,1.9355286E-2,1.5186904E-2,1.1509064E-2,-1.0971968E-2,1.2940791E-1,-5.709591E-2,-2.0997133E-2,4.1143754E-3,-1.2230843E-3,-4.0397903E-1,1.2402543E-2,-5.2746102E-2,9.849325E-3,5.723632E-2,2.4664058E-7,-4.0669376E-1,-9.358784E-4,-1.6109563E-2,-1.2050534E-2,1.4874823E-3,1.839746E-2,8.034595E-4,-2.2300445E-2,2.2977747E-5],"categories":[],"categories_nodes":[],"categories_segments":[],"categories_sizes":[],"default_left":[0,0,0,0,0,0,0,0,0,0,0,0,0,0,0,0,0,0,0,0,0,0,0,0,0,0,0,0,0,0,0,0,0,0,0,0,0,0,0,0,0,0,0,0,0,0,0],"id":4,"left_children":[1,3,5,7,9,11,13,15,17,19,21,-1,-1,-1,23,25,-1,27,-1,29,31,-1,-1,33,-1,-1,-1,35,37,-1,-1,-1,39,-1,41,-1,43,-1,45,-1,-1,-1,-1,-1,-1,-1,-1],"loss_changes":[5.340031E1,4.047596E1,2.0005596E1,1.5217469E1,1.2231369E1,6.1299806E0,1.5401321E1,6.477008E0,1.246964E1,7.5219765E0,1.2407424E1,0E0,0E0,0E0,1.1461319E1,6.3484373E0,0E0,8.221843E0,0E0,5.8559303E0,7.987644E0,0E0,0E0,9.469452E0,0E0,0E0,0E0,6.9093285E0,8.111381E0,0E0,0E0,0E0,5.677534E0,0E0,9.408914E0,0E0,6.6052203E0,0E0,6.2927504E0,0E0,0E0,0E0,0E0,0E0,0E0,0E0,0E0],"parents":[2147483647,0,0,1,1,2,2,3,3,4,4,5,5,6,6,7,7,8,8,9,9,10,10,14,14,15,15,17,17,19,19,20,20,23,23,27,27,28,28,32,32,34,34,36,36,38,38],"right_children":[2,4,6,8,10,12,14,16,18,20,22,-1,-1,-1,24,26,-1,28,-1,30,32,-1,-1,34,-1,-1,-1,36,38,-1,-1,-1,40,-1,42,-1,44,-1,46,-1,-1,-1,-1,-1,-1,-1,-1],"split_conditions":[4.51E0,4.28E0,3.86E0,6.96E-1,1.9E1,6.48E0,4.35E0,4.75E0,1.6E0,2.86E-1,4.765432E0,-1.6308891E-3,-1.9263254E-2,1.1455521E-2,2.2E0,-6.9E0,3.997386E-3,4.04E0,1.9290728E-2,5.89E0,4.58E0,-5.0795055E-4,-1.0861773E-2,3.691358E0,1.5186904E-2,1.1509064E-2,-1.0971968E-2,9E-1,5.154321E0,-2.0997133E-2,4.1143754E-3,-1.2230843E-3,4.26E0,1.2402543E-2,9.04E1,9.849325E-3,2.25E0,2.4664058E-7,4.814815E0,-9.358784E-4,-1.6109563E-2,-1.2050534E-2,1.4874823E-3,1.839746E-2,8.034595E-4,-2.2300445E-2,2.2977747E-5],"split_indices":[15,42,54,30,76,66,66,54,55,6,11,0,0,0,60,13,0,68,0,54,66,0,0,14,0,0,0,63,11,0,0,0,44,0,31,0,66,0,41,0,0,0,0,0,0,0,0],"split_type":[0,0,0,0,0,0,0,0,0,0,0,0,0,0,0,0,0,0,0,0,0,0,0,0,0,0,0,0,0,0,0,0,0,0,0,0,0,0,0,0,0,0,0,0,0,0,0],"sum_hessian":[3.3177524E3,2.1657393E3,1.1520132E3,1.2515538E3,9.1418536E2,1.9950723E2,9.525059E2,2.4033717E2,1.0112167E3,4.019243E2,5.122611E2,1.7741754E2,2.2089693E1,5.2256866E2,4.299373E2,1.9244724E2,4.7889935E1,9.675313E2,4.3685383E1,1.3397551E2,2.6794876E2,2.9351694E2,2.1874416E2,3.6191486E2,6.802242E1,1.2824283E1,1.7962296E2,5.666066E2,4.0092468E2,1.2387726E2,1.009825E1,8.923931E1,1.7870946E2,5.9447464E1,3.0246738E2,1.6718494E2,3.994217E2,3.4639124E2,5.4533455E1,3.3404606E1,1.4530486E2,7.0817665E1,2.3164972E2,2.2352064E1,3.770696E2,3.204591E1,2.2487545E1],"tree_param":{"num_deleted":"0","num_feature":"80","num_nodes":"47","size_leaf_vector":"1"}},{"base_weights":[2.5110235E-3,1.6427064E-1,-1.2926869E-1,6.835309E-2,3.997873E-1,-2.0564553E-1,6.7577705E-2,9.128032E-3,-5.466144E-3,5.516398E-3,4.8088035E-1,-2.9869726E-1,-9.640466E-2,1.5234245E-1,-7.824086E-3,5.4279085E-2,-1.9906592E-1,6.188167E-3,1.7931549E-2,-1.0781924E-1,-1.26488535E-2,-6.1603174E-2,-1.3745203E-2,6.1596874E-3,-1.0859693E-2,2.6672771E-3,3.3427954E-1,1.1003818E-2,-2.63483E-1,9.925618E-3,-1.387345E-2,-3.947797E-3,1.8257765E-1,1.760118E-3,-8.1685865E-3,1.610889E-2,-2.7008585E-3,1.881085E-3,-1.2309879E-2,-7.861861E-3,4.958369E-3,1.9215807E-2,1.6129332E-3],"categories":[],"categories_nodes":[],"categories_segments":[],"categories_sizes":[],"default_left":[0,1,1,0,0,0,0,0,1,0,0,0,1,0,0,0,0,0,0,1,0,1,0,0,0,0,0,0,0,0,0,0,0,0,0,0,0,0,0,0,0,0,0],"id":5,"left_children":[1,3,5,7,9,11,13,-1,15,-1,17,19,21,23,-1,25,27,-1,-1,29,-1,31,-1,-1,-1,33,35,-1,37,39,-1,-1,41,-1,-1,-1,-1,-1,-1,-1,-1,-1,-1],"loss_changes":[7.0189285E1,3.332774E1,2.7318867E1,1.623141E1,7.867981E0,1.3223644E1,1.3242014E1,0E0,9.074662E0,0E0,5.5468674E0,1.1286362E1,6.6991086E0,6.768941E0,0E0,8.639132E0,6.564602E0,0E0,0E0,8.158842E0,0E0,7.8432016E0,0E0,0E0,0E0,6.475127E0,6.07839E0,0E0,5.9110527E0,5.7482276E0,0E0,0E0,5.6172657E0,0E0,0E0,0E0,0E0,0E0,0E0,0E0,0E0,0E0,0E0],"parents":[2147483647,0,0,1,1,2,2,3,3,4,4,5,5,6,6,8,8,10,10,11,11,12,12,13,13,15,15,16,16,19,19,21,21,25,25,26,26,28,28,29,29,32,32],"right_children":[2,4,6,8,10,12,14,-1,16,-1,18,20,22,24,-1,26,28,-1,-1,30,-1,32,-1,-1,-1,34,36,-1,38,40,-1,-1,42,-1,-1,-1,-1,-1,-1,-1,-1,-1,-1],"split_conditions":[3.99E0,4.37E0,4.37E0,5E-1,4.3E0,3.98E0,5.99E0,9.128032E-3,4.962963E0,5.516398E-3,3.12E-1,3.17E0,4.45E0,1.031154E-1,-7.824086E-3,5.117284E0,7.05E-1,6.188167E-3,1.7931549E-2,4.9814816E0,-1.26488535E-2,4.883333E0,-1.3745203E-2,6.1596874E-3,-1.0859693E-2,6.2E0,3.64E0,1.1003818E-2,2E1,6E-1,-1.387345E-2,-3.947797E-3,4.116667E0,1.760118E-3,-8.1685865E-3,1.610889E-2,-2.7008585E-3,1.881085E-3,-1.2309879E-2,-7.861861E-3,4.958369E-3,1.9215807E-2,1.6129332E-3],"split_indices":[54,44,44,75,66,66,54,0,38,0,1,20,18,23,0,11,24,0,0,38,0,11,0,0,0,65,54,0,76,13,0,0,41,0,0,0,0,0,0,0,0,0,0],"split_type":[0,0,0,0,0,0,0,0,0,0,0,0,0,0,0,0,0,0,0,0,0,0,0,0,0,0,0,0,0,0,0,0,0,0,0,0,0,0,0,0,0,0,0],"sum_hessian":[3.2866255E3,1.4754281E3,1.8111974E3,1.0506368E3,4.247912E2,1.305034E3,5.0616324E2,2.735388E2,7.770981E2,1.11743744E2,3.1304745E2,7.023829E2,6.0265125E2,3.9701114E2,1.091521E2,5.9482745E2,1.8227065E2,5.6742058E1,2.563054E2,2.1753304E2,4.8484985E2,5.4610504E2,5.65462E1,3.7195764E2,2.5053513E1,5.0430643E2,9.052103E1,1.8575775E1,1.6369487E2,1.5944084E2,5.8092182E1,4.4232877E2,1.0377624E2,4.2101257E2,8.329383E1,6.590041E1,2.4620607E1,4.184666E1,1.2184821E2,5.6887566E1,1.0255328E2,2.4040758E1,7.973548E1],"tree_param":{"num_deleted":"0","num_feature":"80","num_nodes":"43","size_leaf_vector":"1"}},{"base_weights":[2.296424E-3,-1.4981385E-1,1.3445795E-1,-3.2745272E-2,-3.0109367E-1,2.6086393E-1,1.1699556E-2,-2.3148227E-1,3.1093452E-2,2.7533916E-3,-1.1178063E-2,1.0942534E-1,3.285972E-1,-6.395174E-2,6.3711936E-3,1.9017042E-3,-1.14628365E-2,-1.2360494E-2,1.7586991E-3,8.39241E-3,-1.0942796E-3,-7.159722E-3,3.4897253E-1,-2.258994E-3,-9.628395E-3,9.611315E-3,1.8592322E-2,4.6986933E-3,-1.1936825E-1,-1.9144523E-1,2.507712E-1,-1.1883376E-2,-1.4742013E-3,1.9764252E-2,-4.7154357E-3],"categories":[],"categories_nodes":[],"categories_segments":[],"categories_sizes":[],"default_left":[0,0,0,0,0,1,1,0,0,0,0,1,0,1,0,0,0,0,0,0,0,0,0,1,0,0,0,0,0,0,0,0,0,0,0],"id":6,"left_children":[1,3,5,7,9,11,13,15,17,-1,-1,19,21,23,-1,-1,-1,-1,-1,-1,-1,-1,25,27,-1,-1,-1,-1,29,31,33,-1,-1,-1,-1],"loss_changes":[6.656523E1,2.7227146E1,2.7476604E1,1.109177E1,9.807217E0,8.8628845E0,1.2427565E1,7.1856194E0,6.019191E0,0E0,0E0,5.6959076E0,6.886856E0,8.966479E0,0E0,0E0,0E0,0E0,0E0,0E0,0E0,0E0,6.8307953E0,8.60328E0,0E0,0E0,0E0,0E0,7.6074033E0,5.8007317E0,6.639311E0,0E0,0E0,0E0,0E0],"parents":[2147483647,0,0,1,1,2,2,3,3,4,4,5,5,6,6,7,7,8,8,11,11,12,12,13,13,22,22,23,23,28,28,29,29,30,30],"right_children":[2,4,6,8,10,12,14,16,18,-1,-1,20,22,24,-1,-1,-1,-1,-1,-1,-1,-1,26,28,-1,-1,-1,-1,30,32,34,-1,-1,-1,-1],"split_conditions":[4.04E0,4.01E0,4.16E0,3.65E0,3.9074075E0,3.17E0,1.41E0,1.13E0,5E-1,2.7533916E-3,-1.1178063E-2,1.25E0,1.5E0,4.759259E0,6.3711936E-3,1.9017042E-3,-1.14628365E-2,-1.2360494E-2,1.7586991E-3,8.39241E-3,-1.0942796E-3,-7.159722E-3,3.05E-1,4E0,-9.628395E-3,9.611315E-3,1.8592322E-2,4.6986933E-3,5.99E0,5.4320985E-1,4.11E0,-1.1883376E-2,-1.4742013E-3,1.9764252E-2,-4.7154357E-3],"split_indices":[54,45,66,18,14,20,16,67,60,0,0,43,53,14,0,0,0,0,0,0,0,0,33,45,0,0,0,0,54,12,59,0,0,0,0],"split_type":[0,0,0,0,0,0,0,0,0,0,0,0,0,0,0,0,0,0,0,0,0,0,0,0,0,0,0,0,0,0,0,0,0,0,0],"sum_hessian":[3.305196E3,1.5362878E3,1.7689081E3,8.6780304E2,6.6848486E2,8.7005066E2,8.988575E2,2.0979199E2,6.5801105E2,5.9271576E1,6.0921326E2,2.7093066E2,5.9911993E2,6.350943E2,2.637632E2,6.021615E1,1.4957585E2,3.2193493E1,6.258175E2,1.337084E2,1.3722227E2,2.0699892E1,5.7842004E2,5.0173E2,1.3336426E2,4.6014343E2,1.1827665E2,2.2402957E2,2.7770047E2,2.3346103E2,4.4239426E1,1.0693897E2,1.2652206E2,2.2941032E1,2.1298395E1],"tree_param":{"num_deleted":"0","num_feature":"80","num_nodes":"35","size_leaf_vector":"1"}},{"base_weights":[-2.8870243E-3,-1.2240982E-1,1.3488425E-1,-3.7011933E-2,-2.9344204E-1,2.572398E-1,-3.359949E-2,-2.1194065E-1,2.5095435E-2,-1.2641746E-3,-3.6371088E-1,1.625546E-1,1.21393725E-2,-9.596895E-2,1.1087847E-2,-7.931756E-3,1.7886242E-2,-4.1323084E-2,5.7141534E-3,-1.0061684E-2,5.3751115E-3,8.276766E-3,-1.2700365E-2,1.1346421E-1,1.8282758E-2,-4.465254E-2,-1.5733682E-2,3.2148838E-2,-5.4775863E-3,8.502711E-4,8.776538E-3,-2.1756152E-2,-1.2453551E-2,3.2268392E-3,-1.5373762E-2,1.3810617E-1,-1.088558E-1,1.8722323E-3,1.823349E-2,-1.09574245E-2,-5.183592E-4],"categories":[],"categories_nodes":[],"categories_segments":[],"categories_sizes":[],"default_left":[0,0,0,0,0,1,0,0,0,0,0,1,0,0,0,0,0,0,0,0,0,0,0,1,0,0,0,0,0,0,0,0,0,0,0,0,0,0,0,0,0],"id":7,"left_children":[1,3,5,7,9,11,13,15,17,19,21,23,-1,25,-1,-1,-1,27,-1,-1,-1,-1,-1,29,-1,31,-1,33,-1,-1,-1,-1,35,-1,-1,37,39,-1,-1,-1,-1],"loss_changes":[5.406208E1,2.5646818E1,3.1469383E1,1.2808776E1,1.198999E1,9.12468E0,1.4925663E1,6.9476824E0,8.589096E0,5.9407377E0,6.388088E0,9.112028E0,0E0,1.075997E1,0E0,0E0,0E0,5.545197E0,0E0,0E0,0E0,0E0,0E0,5.7358456E0,0E0,9.694057E0,0E0,1.2560802E1,0E0,0E0,0E0,0E0,6.8368006E0,0E0,0E0,6.1228175E0,5.946326E0,0E0,0E0,0E0,0E0],"parents":[2147483647,0,0,1,1,2,2,3,3,4,4,5,5,6,6,7,7,8,8,9,9,10,10,11,11,13,13,17,17,23,23,25,25,27,27,32,32,35,35,36,36],"right_children":[2,4,6,8,10,12,14,16,18,20,22,24,-1,26,-1,-1,-1,28,-1,-1,-1,-1,-1,30,-1,32,-1,34,-1,-1,-1,-1,36,-1,-1,38,40,-1,-1,-1,-1],"split_conditions":[4.29E0,4.56E0,4.44E0,3.04E0,3.86E0,4.64E0,5.1049385E0,1.55E0,7.42E-1,6.4665124E-2,2.25E-1,7.57E-1,1.21393725E-2,7.04E0,1.1087847E-2,-7.931756E-3,1.7886242E-2,3.23E-1,5.7141534E-3,-1.0061684E-2,5.3751115E-3,8.276766E-3,-1.2700365E-2,8.90183E-2,1.8282758E-2,3.648148E0,-1.5733682E-2,1.49E0,-5.4775863E-3,8.502711E-4,8.776538E-3,-2.1756152E-2,9.39E1,3.2268392E-3,-1.5373762E-2,1.66E0,7.01E-1,1.8722323E-3,1.823349E-2,-1.09574245E-2,-5.183592E-4],"split_indices":[66,15,54,66,54,42,11,72,24,74,27,24,0,54,0,0,0,34,0,0,0,0,0,9,0,11,0,55,0,0,0,0,31,0,0,67,24,0,0,0,0],"split_type":[0,0,0,0,0,0,0,0,0,0,0,0,0,0,0,0,0,0,0,0,0,0,0,0,0,0,0,0,0,0,0,0,0,0,0,0,0,0,0,0,0],"sum_hessian":[3.276937E3,1.7550314E3,1.5219056E3,1.1725775E3,5.8245374E2,8.811656E2,6.4074E2,3.0607965E2,8.664979E2,1.13517075E2,4.6893668E2,4.7807956E2,4.03086E2,5.4976746E2,9.0972565E1,2.9647803E2,9.601629E0,5.990229E2,2.67475E2,3.929115E1,7.422593E1,1.4742255E1,4.5419443E2,4.274794E2,5.060017E1,4.8679785E2,6.2969597E1,3.7765918E2,2.2136372E2,2.7329953E2,1.5417986E2,2.1998415E1,4.6479944E2,3.353521E2,4.230708E1,1.8082991E2,2.839695E2,1.5337344E2,2.7456463E1,8.175585E1,2.0221367E2],"tree_param":{"num_deleted":"0","num_feature":"80","num_nodes":"41","size_leaf_vector":"1"}},{"base_weights":[3.8956224E-3,1.7442735E-1,-9.1064796E-2,5.5149037E-2,2.726255E-1,-1.9282396E-1,9.981192E-2,1.7814974E-1,-4.6330314E-2,1.0853168E-1,1.3046866E-2,-9.866968E-2,-2.9243746E-1,4.924325E-2,1.2861649E-2,7.4281204E-3,-1.176576E-2,-6.4662574E-3,5.1748413E-3,-8.406227E-3,5.5827396E-3,-4.44053E-2,-1.0403523E-2,-5.6783925E-4,-1.1104093E-2,-1.2613568E-1,1.3325712E-1,-6.632197E-3,1.1123671E-3,3.1909812E-3,-2.661602E-1,7.067792E-2,1.1667977E-2,-2.470353E-2,-5.1667634E-3,1.4489175E-2,3.08137E-4],"categories":[],"categories_nodes":[],"categories_segments":[],"categories_sizes":[],"default_left":[0,0,0,0,0,0,0,1,0,0,0,1,0,1,0,0,0,0,0,0,0,1,0,0,0,0,0,0,0,0,0,0,0,0,0,0,0],"id":8,"left_children":[1,3,5,7,9,11,13,15,17,19,-1,21,23,25,-1,-1,-1,-1,-1,-1,-1,27,-1,-1,-1,29,31,-1,-1,-1,33,35,-1,-1,-1,-1,-1],"loss_changes":[5.310754E1,1.369817E1,4.095672E1,6.691059E0,1.2841503E1,1.2822842E1,1.0723197E1,6.2793255E0,9.019947E0,6.255442E0,0E0,8.323925E0,8.057625E0,9.3007555E0,0E0,0E0,0E0,0E0,0E0,0E0,0E0,7.025434E0,0E0,0E0,0E0,6.459503E0,5.8179164E0,0E0,0E0,0E0,6.4256744E0,7.560473E0,0E0,0E0,0E0,0E0,0E0],"parents":[2147483647,0,0,1,1,2,2,3,3,4,4,5,5,6,6,7,7,8,8,9,9,11,11,12,12,13,13,21,21,25,25,26,26,30,30,31,31],"right_children":[2,4,6,8,10,12,14,16,18,20,-1,22,24,26,-1,-1,-1,-1,-1,-1,-1,28,-1,-1,-1,30,32,-1,-1,-1,34,36,-1,-1,-1,-1,-1],"split_conditions":[3.8E0,1.013E2,4.61E0,3.21E0,3.89E0,1.37E0,6.83E0,4.42E-1,1.25E0,2.81E0,1.3046866E-2,7.49E-1,8.87E1,4.2777777E0,1.2861649E-2,7.4281204E-3,-1.176576E-2,-6.4662574E-3,5.1748413E-3,-8.406227E-3,5.5827396E-3,4.234568E0,-1.0403523E-2,-5.6783925E-4,-1.1104093E-2,7.05E-1,7.44E-1,-6.632197E-3,1.1123671E-3,3.1909812E-3,3.7592592E0,5.727554E-2,1.1667977E-2,-2.470353E-2,-5.1667634E-3,1.4489175E-2,3.08137E-4],"split_indices":[68,31,54,66,18,67,54,2,60,54,0,24,4,38,0,0,0,0,0,0,0,38,0,0,0,3,51,0,0,0,38,74,0,0,0,0,0],"split_type":[0,0,0,0,0,0,0,0,0,0,0,0,0,0,0,0,0,0,0,0,0,0,0,0,0,0,0,0,0,0,0,0,0,0,0,0,0],"sum_hessian":[3.272977E3,1.170223E3,2.102754E3,5.3021893E2,6.400041E2,1.3717384E3,7.3101556E2,2.3919368E2,2.910252E2,2.7589682E2,3.6410727E2,7.077511E2,6.639873E2,6.248356E2,1.0617999E2,2.21155E2,1.8038692E1,1.6779584E2,1.2322938E2,3.83288E1,2.3756804E2,5.68316E2,1.3943512E2,9.227967E1,5.7170764E2,2.0179562E2,4.2303995E2,1.8823682E2,3.8007916E2,7.797526E1,1.2382036E2,3.3194955E2,9.10904E1,2.043178E1,1.0338858E2,4.5300644E1,2.8664893E2],"tree_param":{"num_deleted":"0","num_feature":"80","num_nodes":"37","size_leaf_vector":"1"}},{"base_weights":[4.3915915E-3,-8.97021E-2,1.5574437E-1,-4.0596303E-2,-1.0607734E-2,2.649199E-1,-4.7260787E-2,-1.2758252E-1,6.958647E-2,2.5110068E-2,3.221864E-1,3.9876617E-2,-8.084312E-3,5.615229E-3,-1.7298083E-1,1.9649751E-1,-1.90781E-3,1.3369333E-2,-8.123629E-2,5.01804E-1,8.169069E-3,9.808374E-3,-6.448529E-2,-1.413892E-3,-7.7500846E-3,1.1049871E-2,1.5566796E-3,4.8107235E-3,-9.676035E-3,-9.028352E-4,1.8380012E-2,1.3245092E-3,-1.208473E-2],"categories":[],"categories_nodes":[],"categories_segments":[],"categories_sizes":[],"default_left":[1,0,0,1,0,0,0,0,0,0,0,0,0,0,1,1,0,0,0,0,0,0,0,0,0,0,0,0,0,0,0,0,0],"id":9,"left_children":[1,3,5,7,-1,9,11,13,15,17,19,21,-1,-1,23,25,-1,-1,27,29,-1,-1,31,-1,-1,-1,-1,-1,-1,-1,-1,-1,-1],"loss_changes":[4.6994106E1,2.3123993E1,2.8080843E1,1.6148006E1,0E0,1.1270119E1,7.7089853E0,1.27994795E1,1.2060827E1,6.6591616E0,8.626648E0,8.414177E0,0E0,0E0,6.5551243E0,7.666354E0,0E0,0E0,6.289027E0,5.6969414E0,0E0,0E0,7.102057E0,0E0,0E0,0E0,0E0,0E0,0E0,0E0,0E0,0E0,0E0],"parents":[2147483647,0,0,1,1,2,2,3,3,5,5,6,6,7,7,8,8,9,9,10,10,11,11,14,14,15,15,18,18,19,19,22,22],"right_children":[2,4,6,8,-1,10,12,14,16,18,20,22,-1,-1,24,26,-1,-1,28,30,-1,-1,32,-1,-1,-1,-1,-1,-1,-1,-1,-1,-1],"split_conditions":[4.24E0,1.5E0,4.61E0,4.3209877E0,-1.0607734E-2,3.06E-1,7.14E-1,3E0,1.7E0,8.17E1,5.09E0,3.2E0,-8.084312E-3,5.615229E-3,4.154321E0,3.21E-1,-1.90781E-3,1.3369333E-2,7E-1,6.99E-1,8.169069E-3,9.808374E-3,2.14E0,-1.413892E-3,-7.7500846E-3,1.1049871E-2,1.5566796E-3,4.8107235E-3,-9.676035E-3,-9.028352E-4,1.8380012E-2,1.3245092E-3,-1.208473E-2],"split_indices":[44,55,54,14,0,7,51,54,75,31,77,20,0,0,41,28,0,0,75,24,0,0,60,0,0,0,0,0,0,0,0,0,0],"split_type":[0,0,0,0,0,0,0,0,0,0,0,0,0,0,0,0,0,0,0,0,0,0,0,0,0,0,0,0,0,0,0,0,0],"sum_hessian":[3.293248E3,2.0310789E3,1.2621692E3,1.6783436E3,3.527352E2,8.2051013E2,4.416591E2,9.3799493E2,7.403487E2,1.5897346E2,6.615367E2,3.0759174E2,1.3406735E2,1.2312154E2,8.148734E2,3.7051898E2,3.698297E2,3.351708E1,1.2545638E2,1.9020871E2,4.71328E2,8.77198E1,2.1987195E2,2.6416318E2,5.507102E2,1.9067632E2,1.7984265E2,6.0784416E1,6.467197E1,1.7982649E1,1.7222606E2,1.6454633E2,5.532562E1],"tree_param":{"num_deleted":"0","num_feature":"80","num_nodes":"33","size_leaf_vector":"1"}},{"base_weights":[-6.3977675E-3,-9.23267E-2,1.5329026E-1,2.0432683E-2,-2.6033384E-1,2.562135E-1,4.1114274E-2,-8.069364E-3,5.8986977E-2,-1.5363565E-1,-1.45572955E-2,8.939817E-3,-1.4013316E-2,9.665407E-2,-8.679017E-3,6.1989957E-3,2.7563417E-4,-2.813659E-1,7.044897E-2,1.8496338E-3,1.4183785E-2,-1.0540144E-2,1.1430186E-2,-1.0564259E-2,4.6787825E-3],"categories":[],"categories_nodes":[],"categories_segments":[],"categories_sizes":[],"default_left":[0,0,0,0,1,0,1,0,0,0,0,0,0,1,0,0,0,1,0,0,0,0,0,0,0],"id":10,"left_children":[1,3,5,7,9,11,13,-1,15,17,-1,-1,-1,19,-1,-1,-1,21,23,-1,-1,-1,-1,-1,-1],"loss_changes":[4.4736927E1,4.0183987E1,1.3135689E1,1.3024697E1,1.6279976E1,6.246788E0,9.344854E0,0E0,7.2467995E0,1.55052395E1,0E0,0E0,0E0,6.2592235E0,0E0,0E0,0E0,8.505558E0,5.6332383E0,0E0,0E0,0E0,0E0,0E0,0E0],"parents":[2147483647,0,0,1,1,2,2,3,3,4,4,5,5,6,6,8,8,9,9,13,13,17,17,18,18],"right_children":[2,4,6,8,10,12,14,-1,16,18,-1,-1,-1,20,-1,-1,-1,22,24,-1,-1,-1,-1,-1,-1],"split_conditions":[1.35E0,4.44E0,4.21E0,2.75E0,1.74E-1,5.54E0,4.8333335E0,-8.069364E-3,1.9E1,3.17E-1,-1.45572955E-2,8.939817E-3,-1.4013316E-2,5.2777777E0,-8.679017E-3,6.1989957E-3,2.7563417E-4,5.08E0,2.92E0,1.8496338E-3,1.4183785E-2,-1.0540144E-2,1.1430186E-2,-1.0564259E-2,4.6787825E-3],"split_indices":[55,66,68,54,5,66,14,0,64,28,0,0,0,38,0,0,0,15,54,0,0,0,0,0,0],"split_type":[0,0,0,0,0,0,0,0,0,0,0,0,0,0,0,0,0,0,0,0,0,0,0,0,0],"sum_hessian":[3.2540388E3,2.1164556E3,1.1375835E3,1.2674175E3,8.4903796E2,5.9151184E2,5.460716E2,1.5929234E2,1.1081251E3,5.3675775E2,3.122802E2,5.803803E2,1.1131512E1,4.6318585E2,8.288575E1,3.1054398E2,7.975812E2,3.4168527E2,1.9507248E2,4.153352E2,4.7850662E1,3.2326022E2,1.8425045E1,2.8813257E1,1.6625923E2],"tree_param":{"num_deleted":"0","num_feature":"80","num_nodes":"25","size_leaf_vector":"1"}},{"base_weights":[-1.422233E-2,-1.0448495E-1,1.3246472E-1,4.156015E-2,-1.8207148E-1,2.4450475E-1,-8.539499E-2,-1.0025219E-1,1.6561967E-1,-5.5552844E-2,-2.6723993E-1,1.1482064E-2,1.24854006E-1,-9.213979E-3,5.1365696E-2,5.0942814E-3,-5.8657774E-3,1.6686033E-2,3.0882624E-3,1.5182267E-3,-2.2981228E-1,-1.7942566E-2,-2.363919E-1,4.0141277E-2,1.2989359E-2,1.2077823E-2,-2.0736149E-3,-1.4904785E-2,-2.1068878E-3,-1.5622565E-1,-3.6077142E-1,-3.387455E-2,1.0240037E-2,-3.5110165E-3,-1.5132981E-2,-1.3405604E-2,9.870624E-3,1.811422E-2,-2.6411228E-3],"categories":[],"categories_nodes":[],"categories_segments":[],"categories_sizes":[],"default_left":[1,0,0,0,0,0,0,0,1,0,1,0,0,0,1,0,0,0,0,0,0,0,1,0,0,0,0,0,0,0,0,0,0,0,0,0,0,0,0],"id":11,"left_children":[1,3,5,7,9,11,13,15,17,19,21,-1,23,-1,25,-1,-1,-1,-1,-1,27,-1,29,31,-1,-1,-1,-1,-1,33,35,37,-1,-1,-1,-1,-1,-1,-1],"loss_changes":[4.386642E1,2.3266605E1,3.0863457E1,1.2605683E1,1.4397392E1,1.0224251E1,1.1467319E1,6.676423E0,9.248338E0,9.650921E0,6.5515594E0,0E0,8.863468E0,0E0,9.229208E0,0E0,0E0,0E0,0E0,0E0,7.309621E0,0E0,7.092125E0,6.061758E0,0E0,0E0,0E0,0E0,0E0,6.5976343E0,8.770195E0,6.5119767E0,0E0,0E0,0E0,0E0,0E0,0E0,0E0],"parents":[2147483647,0,0,1,1,2,2,3,3,4,4,5,5,6,6,7,7,8,8,9,9,10,10,12,12,14,14,20,20,22,22,23,23,29,29,30,30,31,31],"right_children":[2,4,6,8,10,12,14,16,18,20,22,-1,24,-1,26,-1,-1,-1,-1,-1,28,-1,30,32,-1,-1,-1,-1,-1,34,36,38,-1,-1,-1,-1,-1,-1,-1],"split_conditions":[4.24E0,1.21E0,4.61E0,1.21E0,1.2E0,8E-1,1.33E0,3.73E0,1.03E0,1.45E0,6E-1,1.1482064E-2,4.32E0,-9.213979E-3,3.17E0,5.0942814E-3,-5.8657774E-3,1.6686033E-2,3.0882624E-3,1.5182267E-3,1.2E1,-1.7942566E-2,1.067E2,9.624301E-2,1.2989359E-2,1.2077823E-2,-2.0736149E-3,-1.4904785E-2,-2.1068878E-3,4.84E0,1.5E0,4.8710603E-2,1.0240037E-2,-3.5110165E-3,-1.5132981E-2,-1.3405604E-2,9.870624E-3,1.811422E-2,-2.6411228E-3],"split_indices":[44,55,54,67,75,75,67,15,21,55,26,0,45,0,20,0,0,0,0,0,64,0,31,9,0,0,0,0,0,57,72,74,0,0,0,0,0,0,0],"split_type":[0,0,0,0,0,0,0,0,0,0,0,0,0,0,0,0,0,0,0,0,0,0,0,0,0,0,0,0,0,0,0,0,0,0,0,0,0,0,0],"sum_hessian":[3.3067527E3,2.047728E3,1.2590245E3,7.10536E2,1.337192E3,8.314321E2,4.2759238E2,3.3152798E2,3.79008E2,5.397356E2,7.974564E2,4.4333463E2,3.880975E2,1.761007E2,2.514917E2,7.668642E1,2.5484157E2,6.37766E1,3.1523138E2,3.4181223E2,1.979234E2,7.61552E1,7.213013E2,2.9719302E2,9.090448E1,6.580763E1,1.8568407E2,8.2912704E1,1.150107E2,4.419196E2,2.7938165E2,2.3463866E2,6.255438E1,3.8214114E2,5.977845E1,2.62236E2,1.7145664E1,1.5363635E1,2.1927502E2],"tree_param":{"num_deleted":"0","num_feature":"80","num_nodes":"39","size_leaf_vector":"1"}},{"base_weights":[-4.089847E-3,-1.4998674E-1,1.1402392E-1,5.1971063E-2,-2.5975165E-1,1.670739E-1,-1.0142369E-1,1.3689288E-2,-1.5543644E-2,-4.0366876E-1,-1.6100074E-1,-3.577451E-3,2.032886E-1,-1.7826667E-2,-1.2257323E-2,-3.1807807E-3,7.3226234E-3,-2.1511288E-2,-1.0919953E-2,-6.477229E-2,-1.0032182E-2,1.0268513E-1,2.8996795E-1,-1.7813923E-2,2.2477103E-2,-7.894649E-3,6.9236144E-2,1.1095095E-2,4.355009E-2,2.1057755E-2,2.6218292E-1,-1.0076863E-1,8.258022E-3,3.7328427E-4,1.9410668E-2,4.03797E-3,-3.7604668E-3,1.2359501E-2,5.54974E-3,-9.363644E-4,-1.877901E-2],"categories":[],"categories_nodes":[],"categories_segments":[],"categories_sizes":[],"default_left":[0,0,0,1,1,0,1,0,0,0,1,0,0,0,0,0,0,0,0,0,0,0,0,0,1,0,0,0,0,0,0,0,0,0,0,0,0,0,0,0,0],"id":12,"left_children":[1,3,5,7,9,11,13,-1,15,17,19,-1,21,23,-1,-1,-1,-1,-1,25,-1,27,29,-1,31,-1,33,-1,35,-1,37,39,-1,-1,-1,-1,-1,-1,-1,-1,-1],"loss_changes":[5.6398064E1,3.2504154E1,2.071665E1,1.2747957E1,1.3342522E1,1.45506935E1,8.084178E0,0E0,8.482736E0,6.47303E0,7.7577944E0,0E0,1.112735E1,5.9276032E0,0E0,0E0,0E0,0E0,0E0,8.065658E0,0E0,8.235116E0,6.305462E0,0E0,7.353695E0,0E0,5.8691487E0,0E0,6.0108256E0,0E0,6.6340294E0,5.717781E0,0E0,0E0,0E0,0E0,0E0,0E0,0E0,0E0,0E0],"parents":[2147483647,0,0,1,1,2,2,3,3,4,4,5,5,6,6,8,8,9,9,10,10,12,12,13,13,19,19,21,21,22,22,24,24,26,26,28,28,30,30,31,31],"right_children":[2,4,6,8,10,12,14,-1,16,18,20,-1,22,24,-1,-1,-1,-1,-1,26,-1,28,30,-1,32,-1,34,-1,36,-1,38,40,-1,-1,-1,-1,-1,-1,-1,-1,-1],"split_conditions":[3.99E0,1.21E0,1.46E0,4.0740743E0,3.7E0,3.9012346E0,4.734568E0,1.3689288E-2,3.29E-1,3.919753E0,4.3E0,-3.577451E-3,1.33E0,3.65E0,-1.2257323E-2,-3.1807807E-3,7.3226234E-3,-2.1511288E-2,-1.0919953E-2,3.12E-1,-1.0032182E-2,3.15E0,3.617284E0,-1.7813923E-2,8.78E0,-7.894649E-3,3.01E-1,1.1095095E-2,9.096806E-2,2.1057755E-2,3.78E0,7.56E0,8.258022E-3,3.7328427E-4,1.9410668E-2,4.03797E-3,-3.7604668E-3,1.2359501E-2,5.54974E-3,-9.363644E-4,-1.877901E-2],"split_indices":[54,67,67,11,18,41,14,0,34,41,44,0,16,15,0,0,0,0,0,34,0,66,11,0,19,0,25,0,9,0,68,66,0,0,0,0,0,0,0,0,0],"split_type":[0,0,0,0,0,0,0,0,0,0,0,0,0,0,0,0,0,0,0,0,0,0,0,0,0,0,0,0,0,0,0,0,0,0,0,0,0,0,0,0,0],"sum_hessian":[3.2665303E3,1.4613394E3,1.805191E3,5.147976E2,9.4654175E2,1.4491318E3,3.5605917E2,7.910019E1,4.3569742E2,3.8216995E2,5.6437177E2,1.6766591E2,1.281466E3,2.7385397E2,8.22052E1,3.261889E2,1.0950853E2,8.2419556E1,2.997504E2,3.395522E2,2.248196E2,5.9563727E2,6.858287E2,1.7765528E1,2.5608844E2,1.469318E2,1.9262039E2,1.18048615E2,4.7758868E2,4.6938934E1,6.388897E2,1.6681512E2,8.9273315E1,1.7541367E2,1.7206717E1,3.1887238E2,1.587163E2,2.8768356E2,3.5120618E2,1.4661993E2,2.019519E1],"tree_param":{"num_deleted":"0","num_feature":"80","num_nodes":"41","size_leaf_vector":"1"}},{"base_weights":[-1.03285696E-4,-9.8290384E-2,1.605901E-1,-1.5531512E-1,1.269576E-1,2.9786348E-1,4.1267976E-2,-2.1030544E-1,3.6445113E-3,6.736263E-3,-2.9165281E-3,1.41297635E-2,1.8736744E-1,5.390716E-3,-6.786512E-2,-3.565218E-1,-1.5605491E-1,1.0196845E-1,-6.7848936E-3,-1.3502418E-1,8.184581E-3,1.9310896E-1,-1.378364E-1,-5.9666596E-3,-1.5422238E-2,-2.4373983E-3,-8.414746E-3,5.2093756E-3,-7.87428E-3,-1.3208093E-2,8.2497755E-3,-5.6690266E-3,1.3872809E-2,-2.5512466E-1,4.8334464E-2,-5.6549236E-3,-2.228066E-2,-8.86455E-3,7.5397794E-3],"categories":[],"categories_nodes":[],"categories_segments":[],"categories_sizes":[],"default_left":[1,1,0,0,0,0,0,0,0,0,0,0,0,0,0,0,1,0,0,0,0,0,0,0,0,0,0,0,0,0,0,0,0,1,0,0,0,0,0],"id":13,"left_children":[1,3,5,7,9,11,13,15,17,-1,-1,-1,19,-1,21,23,25,27,-1,29,-1,31,33,-1,-1,-1,-1,-1,-1,-1,-1,-1,-1,35,37,-1,-1,-1,-1],"loss_changes":[5.1840088E1,2.6252026E1,2.037149E1,1.4250946E1,6.928706E0,8.156662E0,8.966666E0,9.479305E0,8.724263E0,0E0,0E0,0E0,6.3095264E0,0E0,6.5606894E0,6.148136E0,7.171114E0,5.5899906E0,0E0,5.5530076E0,0E0,6.5006847E0,6.195549E0,0E0,0E0,0E0,0E0,0E0,0E0,0E0,0E0,0E0,0E0,5.849368E0,6.4845686E0,0E0,0E0,0E0,0E0],"parents":[2147483647,0,0,1,1,2,2,3,3,4,4,5,5,6,6,7,7,8,8,12,12,14,14,15,15,16,16,17,17,19,19,21,21,22,22,33,33,34,34],"right_children":[2,4,6,8,10,12,14,16,18,-1,-1,-1,20,-1,22,24,26,28,-1,30,-1,32,34,-1,-1,-1,-1,-1,-1,-1,-1,-1,-1,36,38,-1,-1,-1,-1],"split_conditions":[4.24E0,7.41E-1,4.04E0,2.4E0,1.31E0,5E-1,4.48E0,3.33E0,4.962963E0,6.736263E-3,-2.9165281E-3,1.41297635E-2,2.36E-1,5.390716E-3,6.93E-1,6E0,3.37E0,3.41E0,-6.7848936E-3,3.98E0,8.184581E-3,4.47E0,5.01E0,-5.9666596E-3,-1.5422238E-2,-2.4373983E-3,-8.414746E-3,5.2093756E-3,-7.87428E-3,-1.3208093E-2,8.2497755E-3,-5.6690266E-3,1.3872809E-2,1.0087232E-1,9.023547E-2,-5.6549236E-3,-2.228066E-2,-8.86455E-3,7.5397794E-3],"split_indices":[44,24,54,63,55,75,15,69,38,0,0,0,0,0,30,40,20,59,0,66,0,66,66,0,0,0,0,0,0,0,0,0,0,23,23,0,0,0,0],"split_type":[0,0,0,0,0,0,0,0,0,0,0,0,0,0,0,0,0,0,0,0,0,0,0,0,0,0,0,0,0,0,0,0,0,0,0,0,0,0,0],"sum_hessian":[3.2795112E3,2.0364266E3,1.2430846E3,1.6257788E3,4.1064783E2,5.762977E2,6.6678687E2,1.2076521E3,4.181267E2,3.025692E2,1.0807859E2,2.6123203E2,3.150657E2,3.144206E2,3.5236627E2,3.2319644E2,8.844556E2,2.854282E2,1.3269853E2,4.9326992E1,2.657387E2,7.350431E1,2.7886194E2,1.2749351E2,1.9570294E2,4.8561533E2,3.9884027E2,2.4634645E2,3.9081738E1,2.9242706E1,2.0084286E1,2.8324076E1,4.5180237E1,1.7076753E2,1.08094406E2,1.4509418E2,2.567336E1,3.8664436E1,6.942997E1],"tree_param":{"num_deleted":"0","num_feature":"80","num_nodes":"39","size_leaf_vector":"1"}},{"base_weights":[-5.913136E-4,-8.370515E-2,1.7631386E-1,-8.961245E-3,-2.0738475E-1,1.1778432E-1,1.1677882E-2,-5.9712224E-2,1.3732937E-1,-1.2860814E-1,-1.2267828E-2,1.6632673E-1,-4.7326987E-3,3.346084E-3,-1.1019573E-1,2.627747E-1,-1.8122322E-4,3.7025474E-2,-2.3117572E-1,1.1511835E-1,1.252636E-2,-1.6725063E-2,-2.2460057E-3,1.0718061E-2,-1.4146867E-2,8.297764E-3,-9.2874676E-2,-1.1599513E-3,-1.0435386E-2,1.5895055E-1,-8.491356E-3,1.478124E-2,-1.6877642E-1,-4.531302E-2,2.2204404E-1,-1.2570417E-2,3.8538857E-3,-1.6504665E-1,1.158241E-2,1.5905337E-2,5.2518756E-3,2.661166E-3,-1.7390486E-2],"categories":[],"categories_nodes":[],"categories_segments":[],"categories_sizes":[],"default_left":[0,1,1,0,0,0,0,0,0,0,0,0,0,0,0,1,0,0,0,1,0,0,0,0,0,0,0,0,0,0,0,0,0,1,1,0,0,0,0,0,0,0,0],"id":14,"left_children":[1,3,5,7,9,11,-1,13,15,17,-1,19,-1,-1,21,23,-1,25,27,29,-1,-1,-1,-1,-1,-1,31,-1,-1,33,-1,-1,35,37,39,-1,-1,41,-1,-1,-1,-1,-1],"loss_changes":[4.857267E1,2.0767397E1,1.0883415E1,1.0451403E1,1.0854912E1,1.0184715E1,0E0,8.5298815E0,6.5138974E0,9.822998E0,0E0,7.2690907E0,0E0,0E0,1.3243321E1,8.632835E0,0E0,6.274074E0,5.9052925E0,9.041237E0,0E0,0E0,0E0,0E0,0E0,0E0,5.940409E0,0E0,0E0,6.3656645E0,0E0,0E0,7.670288E0,5.7408514E0,5.977068E0,0E0,0E0,8.33063E0,0E0,0E0,0E0,0E0,0E0],"parents":[2147483647,0,0,1,1,2,2,3,3,4,4,5,5,7,7,8,8,9,9,11,11,14,14,15,15,17,17,18,18,19,19,26,26,29,29,32,32,33,33,34,34,37,37],"right_children":[2,4,6,8,10,12,-1,14,16,18,-1,20,-1,-1,22,24,-1,26,28,30,-1,-1,-1,-1,-1,-1,32,-1,-1,34,-1,-1,36,38,40,-1,-1,42,-1,-1,-1,-1,-1],"split_conditions":[4.74E0,4.24E0,4.906832E0,4.26E0,1.85E-1,5.59E0,1.1677882E-2,3.18E0,7.377049E-2,4.41E0,-1.2267828E-2,5.95E0,-4.7326987E-3,3.346084E-3,3.46E0,4.7222223E0,-1.8122322E-4,3.73E0,8.0951594E-2,3.84E0,1.252636E-2,-1.6725063E-2,-2.2460057E-3,1.0718061E-2,-1.4146867E-2,8.297764E-3,3.76E-1,-1.1599513E-3,-1.0435386E-2,5.17E0,-8.491356E-3,1.478124E-2,1.2160494E0,9.325297E-2,3.78E-1,-1.2570417E-2,3.8538857E-3,1.6E0,1.158241E-2,1.5905337E-2,5.2518756E-3,2.661166E-3,-1.7390486E-2],"split_indices":[54,44,38,17,5,66,0,66,74,66,0,56,0,0,15,14,0,69,9,47,0,0,0,0,0,0,2,0,0,77,0,0,10,36,2,0,0,60,0,0,0,0,0],"split_type":[0,0,0,0,0,0,0,0,0,0,0,0,0,0,0,0,0,0,0,0,0,0,0,0,0,0,0,0,0,0,0,0,0,0,0,0,0,0,0,0,0,0,0],"sum_hessian":[3.2974348E3,2.2444387E3,1.0529962E3,1.4007509E3,8.436878E2,7.949983E2,2.5799792E2,1.0412295E3,3.5952148E2,5.732859E2,2.7040195E2,6.712759E2,1.2372244E2,2.4760912E2,7.936203E2,1.906299E2,1.6889159E2,2.1956651E2,3.5371936E2,5.4428046E2,1.2699543E2,7.371902E1,7.199013E2,1.7608467E2,1.4545218E1,8.221409E1,1.3735243E2,1.0821122E2,2.4550813E2,4.882438E2,5.6036633E1,1.5477202E1,1.2187522E2,1.1515269E2,3.730911E2,6.961357E1,5.2261654E1,8.953786E1,2.5614834E1,6.961226E1,3.0347885E2,5.4265606E1,3.5272247E1],"tree_param":{"num_deleted":"0","num_feature":"80","num_nodes":"43","size_leaf_vector":"1"}},{"base_weights":[-6.867292E-3,8.377015E-2,-1.4251435E-1,8.5413565E-5,2.6246533E-1,-1.02178E-1,-4.7659996E-1,1.0130197E-2,-4.0212546E-2,3.168784E-1,9.449722E-2,-2.0190549E-1,3.927286E-2,-1.8432368E-2,6.4358646E-3,-1.0160437E-2,-3.2121392E-3,7.837435E-3,1.5969725E-2,9.7380895E-3,-5.120376E-3,-6.143531E-4,-8.790332E-3,1.4255191E-1,-3.8315668E-3,8.1561275E-2,-1.3977365E-1,-2.4411543E-3,2.3650369E-1,3.553827E-3,-8.050038E-3,-6.1569707E-3,6.5723862E-3,-9.583056E-3,9.461243E-3],"categories":[],"categories_nodes":[],"categories_segments":[],"categories_sizes":[],"default_left":[0,0,0,0,1,0,1,0,0,0,0,1,1,0,0,0,0,0,0,0,0,0,0,0,0,0,0,0,0,0,0,0,0,0,0],"id":15,"left_children":[1,3,5,7,9,11,13,-1,15,17,19,21,23,-1,-1,-1,25,-1,-1,-1,-1,-1,-1,27,-1,29,31,-1,33,-1,-1,-1,-1,-1,-1],"loss_changes":[4.0634724E1,2.9609787E1,1.7739187E1,1.6788578E1,5.6961746E0,1.673848E1,8.103924E0,0E0,1.1855429E1,6.0570183E0,8.057247E0,8.195156E0,7.9434404E0,0E0,0E0,0E0,1.2243524E1,0E0,0E0,0E0,0E0,0E0,0E0,6.092708E0,0E0,5.619678E0,6.5272894E0,0E0,5.7091637E0,0E0,0E0,0E0,0E0,0E0,0E0],"parents":[2147483647,0,0,1,1,2,2,3,3,4,4,5,5,6,6,8,8,9,9,10,10,11,11,12,12,16,16,23,23,25,25,26,26,28,28],"right_children":[2,4,6,8,10,12,14,-1,16,18,20,22,24,-1,-1,-1,26,-1,-1,-1,-1,-1,-1,28,-1,30,32,-1,34,-1,-1,-1,-1,-1,-1],"split_conditions":[4.47E0,4.56E0,7.04E0,2.75E0,3.19E-1,4.42E0,5.1E0,1.0130197E-2,3.05E0,1.83E-1,2.1603563E-1,8.2851E-2,8.60735E-2,-1.8432368E-2,6.4358646E-3,-1.0160437E-2,2.3698744E-1,7.837435E-3,1.5969725E-2,9.7380895E-3,-5.120376E-3,-6.143531E-4,-8.790332E-3,9.04E1,-3.8315668E-3,6.52E0,3.98E0,-2.4411543E-3,2.013049E-1,3.553827E-3,-8.050038E-3,-6.1569707E-3,6.5723862E-3,-9.583056E-3,9.461243E-3],"split_indices":[54,42,54,54,28,66,11,0,69,5,73,23,36,0,0,0,8,0,0,0,0,0,0,4,0,65,71,0,35,0,0,0,0,0,0],"split_type":[0,0,0,0,0,0,0,0,0,0,0,0,0,0,0,0,0,0,0,0,0,0,0,0,0,0,0,0,0,0,0,0,0,0,0],"sum_hessian":[3.2983792E3,1.9774783E3,1.3209009E3,1.3484967E3,6.289816E2,1.1813296E3,1.3957129E2,1.549715E2,1.1935251E3,4.7334164E2,1.5563997E2,6.925326E2,4.8879697E2,1.2479003E2,1.4781256E1,1.4277206E2,1.050753E3,3.2479922E2,1.485424E2,8.6200714E1,6.943926E1,1.8123758E2,5.11295E2,2.9396906E2,1.9482791E2,6.4859436E2,4.021587E2,8.8910995E1,2.0505804E2,6.019119E2,4.6682446E1,3.5437097E2,4.778774E1,1.6827417E1,1.8823064E2],"tree_param":{"num_deleted":"0","num_feature":"80","num_nodes":"35","size_leaf_vector":"1"}},{"base_weights":[3.513933E-3,1.0235536E-1,-1.40718E-1,-8.295932E-3,2.1896522E-1,-2.3554206E-1,4.2015195E-2,3.6891429E-3,-7.7938296E-2,1.2440833E-1,3.152456E-1,-1.0972049E-1,-3.596543E-1,2.1702677E-2,8.831412E-3,-9.041365E-3,-7.859775E-4,2.0535002E-3,3.468728E-1,1.2479305E-2,1.04844235E-1,7.7107777E-3,-1.5914203E-1,-4.2201495E-1,-3.4110308E-2,-1.144783E-3,1.05722435E-2,1.9483404E-3,1.7571298E-2,-2.0975063E-3,1.5891721E-2,-2.2412196E-2,-4.266206E-3,-1.5139764E-2,8.160902E-3,1.41192E-2,-6.7150635E-3],"categories":[],"categories_nodes":[],"categories_segments":[],"categories_sizes":[],"default_left":[0,0,0,0,0,1,0,0,0,1,1,0,1,0,0,0,0,0,0,0,0,0,0,0,0,0,0,0,0,0,0,0,0,0,0,0,0],"id":16,"left_children":[1,3,5,7,9,11,13,-1,15,17,19,21,23,-1,25,-1,-1,-1,27,-1,29,-1,31,33,35,-1,-1,-1,-1,-1,-1,-1,-1,-1,-1,-1,-1],"loss_changes":[4.757912E1,2.557173E1,2.3547949E1,8.549162E0,8.690758E0,1.3864029E1,9.521202E0,0E0,6.8451867E0,6.744022E0,6.2086334E0,7.6977177E0,9.05925E0,0E0,6.0958343E0,0E0,0E0,0E0,5.611515E0,0E0,7.3053727E0,0E0,5.923703E0,9.563805E0,6.091714E0,0E0,0E0,0E0,0E0,0E0,0E0,0E0,0E0,0E0,0E0,0E0,0E0],"parents":[2147483647,0,0,1,1,2,2,3,3,4,4,5,5,6,6,8,8,9,9,10,10,11,11,12,12,14,14,18,18,20,20,22,22,23,23,24,24],"right_children":[2,4,6,8,10,12,14,-1,16,18,20,22,24,-1,26,-1,-1,-1,28,-1,30,-1,32,34,36,-1,-1,-1,-1,-1,-1,-1,-1,-1,-1,-1,-1],"split_conditions":[4.42E0,4.23E0,4.61E0,4.3975153E0,1.032E2,3.41E0,3.648148E0,3.6891429E-3,7.08E-1,4.3E0,1.81E-1,4.1049385E0,4.44E0,2.1702677E-2,7.04E0,-9.041365E-3,-7.859775E-4,2.0535002E-3,3.57E0,1.2479305E-2,5.2E0,7.7107777E-3,3.75E-1,2.08E1,2.44E0,-1.144783E-3,1.05722435E-2,1.9483404E-3,1.7571298E-2,-2.0975063E-3,1.5891721E-2,-2.2412196E-2,-4.266206E-3,-1.5139764E-2,8.160902E-3,1.41192E-2,-6.7150635E-3],"split_indices":[66,54,54,11,31,47,11,0,51,18,5,11,17,0,54,0,0,0,69,0,41,0,29,40,59,0,0,0,0,0,0,0,0,0,0,0,0],"split_type":[0,0,0,0,0,0,0,0,0,0,0,0,0,0,0,0,0,0,0,0,0,0,0,0,0,0,0,0,0,0,0,0,0,0,0,0,0],"sum_hessian":[3.3312402E3,1.9772682E3,1.3539722E3,1.015356E3,9.619122E2,8.9119037E2,4.6278177E2,3.7187796E2,6.43478E2,4.8815674E2,4.7375543E2,4.4484552E2,4.4634485E2,2.145007E1,4.413317E2,1.3701689E2,5.0646115E2,3.8394034E2,1.0421641E2,3.630783E2,1.1067711E2,5.478286E1,3.9006265E2,3.7389142E2,7.2453415E1,3.8879834E2,5.2533363E1,4.2126873E1,6.208953E1,7.765284E1,3.3024273E1,1.8456694E1,3.7160596E2,3.5513843E2,1.8752996E1,1.8442356E1,5.401106E1],"tree_param":{"num_deleted":"0","num_feature":"80","num_nodes":"37","size_leaf_vector":"1"}},{"base_weights":[-2.7649482E-3,-9.0966724E-2,1.393788E-1,-2.4230938E-2,-8.603366E-3,2.1959852E-1,-6.384265E-2,4.9851906E-2,-1.6924116E-1,1.1113703E-2,1.1534266E-1,7.217633E-3,-4.7378913E-3,2.356241E-1,-2.7881602E-2,-1.6333947E-4,-8.554036E-3,-1.4717565E-2,1.4813091E-1,-8.187716E-3,9.246633E-3,-1.3077664E-2,3.438007E-3,4.098678E-3,2.5529715E-1,5.998168E-3,-4.7859266E-2,7.3965928E-3,-4.2871996E-3,1.8552251E-2,5.734489E-3,-2.9638142E-3,1.2055094E-2],"categories":[],"categories_nodes":[],"categories_segments":[],"categories_sizes":[],"default_left":[1,1,0,0,0,0,0,1,0,0,0,0,0,0,0,0,0,0,0,0,0,0,0,0,0,0,0,0,0,0,0,0,0],"id":17,"left_children":[1,3,5,7,-1,9,11,13,15,-1,17,-1,-1,19,21,-1,-1,-1,23,-1,-1,-1,25,27,29,-1,31,-1,-1,-1,-1,-1,-1],"loss_changes":[4.1088158E1,2.2894142E1,2.0498898E1,1.5664749E1,0E0,1.09104805E1,8.130891E0,1.3966158E1,7.272395E0,0E0,9.015975E0,0E0,0E0,6.3331823E0,7.9281197E0,0E0,0E0,0E0,7.0203276E0,0E0,0E0,0E0,5.814607E0,5.9096537E0,6.3188896E0,0E0,8.610366E0,0E0,0E0,0E0,0E0,0E0,0E0],"parents":[2147483647,0,0,1,1,2,2,3,3,5,5,6,6,7,7,8,8,10,10,13,13,14,14,18,18,22,22,23,23,24,24,26,26],"right_children":[2,4,6,8,-1,10,12,14,16,-1,18,-1,-1,20,22,-1,-1,-1,24,-1,-1,-1,26,28,30,-1,32,-1,-1,-1,-1,-1,-1],"split_conditions":[4.24E0,4.56E0,4.51E0,2.6E0,-8.603366E-3,6E-1,4E0,1.23E0,3.57E0,1.1113703E-2,-7E-1,7.217633E-3,-4.7378913E-3,-4E-1,3.15E0,-1.6333947E-4,-8.554036E-3,-1.4717565E-2,4.5666666E0,-8.187716E-3,9.246633E-3,-1.3077664E-2,2.23E0,3.05E-1,2.83E-1,5.998168E-3,3.32E-1,7.3965928E-3,-4.2871996E-3,1.8552251E-2,5.734489E-3,-2.9638142E-3,1.2055094E-2],"split_indices":[44,15,17,75,0,75,54,16,57,0,63,0,0,63,66,0,0,0,11,0,0,0,59,28,33,0,1,0,0,0,0,0,0],"split_type":[0,0,0,0,0,0,0,0,0,0,0,0,0,0,0,0,0,0,0,0,0,0,0,0,0,0,0,0,0,0,0,0,0],"sum_hessian":[3.2709563E3,2.0192124E3,1.2517439E3,1.4514994E3,5.67713E2,8.975493E2,3.541946E2,9.613959E2,4.901035E2,4.1992993E2,4.7761942E2,7.6949005E1,2.772456E2,2.8250275E2,6.788931E2,1.7451196E2,3.1559152E2,2.472272E1,4.528967E2,2.2890167E1,2.5961258E2,5.1312004E1,6.275811E2,1.9442236E2,2.5847433E2,1.3918268E2,4.8839847E2,7.319043E1,1.2123193E2,5.1348984E1,2.0712537E2,4.4506833E2,4.3330135E1],"tree_param":{"num_deleted":"0","num_feature":"80","num_nodes":"33","size_leaf_vector":"1"}},{"base_weights":[2.3309267E-3,9.81678E-2,-1.4041142E-1,4.4520624E-2,9.381892E-3,-2.3386838E-1,1.1731369E-2,-4.329051E-2,1.4714734E-1,-2.5611863E-2,-2.913808E-1,-1.4874707E-1,1.2442167E-1,-6.9283925E-2,1.1701055E-2,1.6889372E-1,-1.3230994E-2,-2.9870158E-3,1.7681828E-2,-4.7418787E-3,-1.2868968E-2,6.649573E-3,-7.840934E-3,2.0305704E-2,6.9895655E-2,-2.4910808E-2,-5.469093E-2,1.2973625E-2,1.1742539E-1,-6.182306E-3,5.6788144E-3,-4.329067E-3,6.1799783E-2,1.1137786E-2,2.182235E-3,5.7292604E-3,-4.3415413E-3],"categories":[],"categories_nodes":[],"categories_segments":[],"categories_sizes":[],"default_left":[0,1,0,0,0,0,0,0,1,0,1,0,0,0,0,0,0,0,0,0,0,0,0,0,1,0,1,0,0,0,0,0,1,0,0,0,0],"id":18,"left_children":[1,3,5,7,-1,9,11,13,15,17,19,21,23,25,-1,27,-1,-1,-1,-1,-1,-1,-1,-1,29,-1,31,-1,33,-1,-1,-1,35,-1,-1,-1,-1],"loss_changes":[4.4882076E1,1.9575102E1,1.875655E1,1.3788788E1,0E0,9.750332E0,9.166141E0,8.601833E0,8.581821E0,6.684239E0,9.182037E0,6.626429E0,7.8786435E0,7.704318E0,0E0,7.748667E0,0E0,0E0,0E0,0E0,0E0,0E0,0E0,0E0,7.1987686E0,0E0,6.82502E0,0E0,6.2353926E0,0E0,0E0,0E0,6.635562E0,0E0,0E0,0E0,0E0],"parents":[2147483647,0,0,1,1,2,2,3,3,5,5,6,6,7,7,8,8,9,9,10,10,11,11,12,12,13,13,15,15,24,24,26,26,28,28,32,32],"right_children":[2,4,6,8,-1,10,12,14,16,18,20,22,24,26,-1,28,-1,-1,-1,-1,-1,-1,-1,-1,30,-1,32,-1,34,-1,-1,-1,36,-1,-1,-1,-1],"split_conditions":[4.44E0,4.18E0,1.35E0,2.5E0,9.381892E-3,3.1E-1,4.9E0,1.62E0,4.99E0,9.3209875E-1,4.02E0,1.39E-1,-2.5E0,2.12E0,1.1701055E-2,1.8518518E-1,-1.3230994E-2,-2.9870158E-3,1.7681828E-2,-4.7418787E-3,-1.2868968E-2,6.649573E-3,-7.840934E-3,2.0305704E-2,7.02E-1,-2.4910808E-2,3.21E-1,1.2973625E-2,1.6E1,-6.182306E-3,5.6788144E-3,-4.329067E-3,1.23E1,1.1137786E-2,2.182235E-3,5.7292604E-3,-4.3415413E-3],"split_indices":[66,18,55,75,0,1,40,55,42,12,45,5,13,56,0,61,0,0,0,0,0,0,0,0,51,0,28,0,64,0,0,0,13,0,0,0,0],"split_type":[0,0,0,0,0,0,0,0,0,0,0,0,0,0,0,0,0,0,0,0,0,0,0,0,0,0,0,0,0,0,0,0,0,0,0,0,0],"sum_hessian":[3.2746145E3,1.959861E3,1.3147535E3,1.523793E3,4.3606796E2,8.139546E2,5.0079898E2,8.215573E2,7.022357E2,1.7704724E2,6.3690735E2,2.0609265E2,2.9470633E2,7.730288E2,4.852852E1,6.7701025E2,2.522541E1,1.6045338E2,1.659386E1,2.574551E2,3.794522E2,4.101463E1,1.6507802E2,2.7079876E1,2.6762646E2,1.3690317E1,7.593385E2,1.2341187E2,5.535984E2,7.541177E1,1.9221469E2,4.584542E2,3.008843E2,1.0207335E2,4.5152505E2,1.909669E2,1.099174E2],"tree_param":{"num_deleted":"0","num_feature":"80","num_nodes":"37","size_leaf_vector":"1"}},{"base_weights":[5.764999E-3,1.8454082E-1,-8.070384E-2,2.916818E-1,-1.5615436E-3,-1.9855414E-1,1.932794E-2,5.7116424E-4,3.3440283E-1,-3.0314502E-1,-8.733475E-2,1.3357879E-1,-9.9893756E-2,1.5550494E-2,8.453624E-3,-1.3369055E-2,-5.9674145E-3,-1.5949601E-1,1.2573184E-1,-4.950541E-4,7.327674E-3,-5.77134E-3,-8.647319E-3,-7.145501E-3,6.053184E-3,1.5684983E-3,2.6029544E-2,2.915385E-2,-1.6655114E-2,-9.003037E-3,3.0484488E-3],"categories":[],"categories_nodes":[],"categories_segments":[],"categories_sizes":[],"default_left":[0,0,0,0,0,1,1,0,1,0,1,0,0,0,0,0,0,0,0,0,0,0,0,0,0,0,0,0,0,0,0],"id":19,"left_children":[1,3,5,7,-1,9,11,-1,13,15,17,19,21,-1,-1,-1,-1,23,25,-1,-1,27,-1,-1,-1,-1,-1,29,-1,-1,-1],"loss_changes":[5.0300907E1,2.6400307E1,2.5869427E1,8.4791565E0,0E0,1.1650303E1,1.6225761E1,0E0,6.4539795E0,6.2947693E0,7.6213875E0,8.017571E0,8.883368E0,0E0,0E0,0E0,0E0,7.3204756E0,6.4484515E0,0E0,0E0,6.580875E0,0E0,0E0,0E0,0E0,0E0,6.7380495E0,0E0,0E0,0E0],"parents":[2147483647,0,0,1,1,2,2,3,3,5,5,6,6,8,8,9,9,10,10,11,11,12,12,17,17,18,18,21,21,27,27],"right_children":[2,4,6,8,-1,10,12,-1,14,16,18,20,22,-1,-1,-1,-1,24,26,-1,-1,28,-1,-1,-1,-1,-1,30,-1,-1,-1],"split_conditions":[5E-1,4.76E0,1.1E0,4.111111E0,-1.5615436E-3,7.14E-1,1.2222222E0,5.7116424E-4,9.12E1,3.83E0,4.53E0,9.46E1,3.8E0,1.5550494E-2,8.453624E-3,-1.3369055E-2,-5.9674145E-3,5.117284E0,2.7312776E-1,-4.950541E-4,7.327674E-3,3.3333334E-1,-8.647319E-3,-7.145501E-3,6.053184E-3,1.5684983E-3,2.6029544E-2,7.312644E-2,-1.6655114E-2,-9.003037E-3,3.0484488E-3],"split_indices":[75,54,63,11,0,24,37,0,31,68,42,4,57,0,0,0,0,11,61,0,0,73,0,0,0,0,0,50,0,0,0],"split_type":[0,0,0,0,0,0,0,0,0,0,0,0,0,0,0,0,0,0,0,0,0,0,0,0,0,0,0,0,0,0,0],"sum_hessian":[3.2472708E3,1.0579982E3,2.1892725E3,7.2340356E2,3.3459467E2,1.0043803E3,1.1848922E3,9.806169E1,6.2534186E2,5.153828E2,4.889975E2,6.0516986E2,5.7972235E2,2.2307027E2,4.022716E2,2.7793585E2,2.3744696E2,3.6589996E2,1.2309752E2,2.2634024E2,3.7882962E2,3.6849826E2,2.1122412E2,3.1454852E2,5.135145E1,1.1230945E2,1.0788068E1,3.4623093E2,2.2267338E1,5.851727E1,2.8771365E2],"tree_param":{"num_deleted":"0","num_feature":"80","num_nodes":"31","size_leaf_vector":"1"}},{"base_weights":[-2.3459496E-3,1.05477646E-1,-1.0637608E-1,1.1462607E-2,2.3626779E-1,-1.7518358E-1,4.99617E-2,5.1364165E-2,-6.1120987E-3,1.508652E-3,1.0043963E-2,-2.6561302E-1,-3.1916864E-2,1.0487129E-1,-7.884549E-3,4.7623602E-4,8.367259E-3,-1.365066E-2,-5.449441E-3,1.04052484E-1,-6.6076918E-3,2.2567287E-3,1.9207377E-2,7.971326E-3,-7.6982185E-2,1.7747516E-2,-6.4505814E-3],"categories":[],"categories_nodes":[],"categories_segments":[],"categories_sizes":[],"default_left":[0,0,0,1,0,0,0,0,0,0,0,1,1,1,0,0,0,0,0,1,0,0,0,0,0,0,0],"id":20,"left_children":[1,3,5,7,9,11,13,15,-1,-1,-1,17,19,21,-1,-1,-1,-1,-1,23,-1,-1,-1,-1,25,-1,-1],"loss_changes":[3.681642E1,1.9798302E1,1.800097E1,7.4130263E0,8.7003975E0,1.5008312E1,8.199647E0,5.8492446E0,0E0,0E0,0E0,1.0424316E1,1.0421145E1,7.452787E0,0E0,0E0,0E0,0E0,0E0,6.3275976E0,0E0,0E0,0E0,0E0,8.2969265E0,0E0,0E0],"parents":[2147483647,0,0,1,1,2,2,3,3,4,4,5,5,6,6,7,7,11,11,12,12,13,13,19,19,24,24],"right_children":[2,4,6,8,10,12,14,16,-1,-1,-1,18,20,22,-1,-1,-1,-1,-1,24,-1,-1,-1,-1,26,-1,-1],"split_conditions":[4.16E0,1.32E0,4.76E0,4.14E0,8.2904994E-2,1.012E2,4.8271604E0,3.32E0,-6.1120987E-3,1.508652E-3,1.0043963E-2,3.76E0,4.537037E0,4.66E-1,-7.884549E-3,4.7623602E-4,8.367259E-3,-1.365066E-2,-5.449441E-3,1.1E2,-6.6076918E-3,2.2567287E-3,1.9207377E-2,7.971326E-3,5.4054055E-2,1.7747516E-2,-6.4505814E-3],"split_indices":[66,55,54,45,23,31,14,59,0,0,0,18,14,29,0,0,0,0,0,31,0,0,0,0,62,0,0],"split_type":[0,0,0,0,0,0,0,0,0,0,0,0,0,0,0,0,0,0,0,0,0,0,0,0,0,0,0],"sum_hessian":[3.2756558E3,1.6082147E3,1.667441E3,9.373027E2,6.7091205E2,1.1579181E3,5.0952298E2,7.8083093E2,1.5647174E2,1.7789621E2,4.9301587E2,7.084552E2,4.494629E2,4.295009E2,8.002209E1,6.624914E2,1.1833953E2,2.8333124E2,4.2512396E2,2.4891423E2,2.0054866E2,4.0146216E2,2.8038721E1,1.412139E2,1.0770034E2,1.6062258E1,9.1638084E1],"tree_param":{"num_deleted":"0","num_feature":"80","num_nodes":"27","size_leaf_vector":"1"}},{"base_weights":[-1.8352747E-2,1.2210132E-1,-8.710943E-2,1.1470132E-2,2.4171346E-1,-1.4278682E-1,7.2893076E-2,1.1661052E-2,-4.1446358E-2,3.2417193E-1,2.7804058E-3,-1.005513E-1,-1.0800782E-2,-5.9521617E-3,1.3524377E-1,6.0166303E-2,-1.8982781E-1,1.2463162E-2,2.5383206E-4,-2.4721023E-1,-4.3130256E-2,1.7290275E-1,-1.3784573E-2,1.4118303E-1,-8.282819E-3,-7.9146605E-3,1.40845785E-2,-2.6071814E-3,-1.1456752E-2,3.2723523E-3,-1.2243888E-1,1.9350629E-1,-1.5328713E-2,4.8809656E-4,1.241354E-2,-1.7987205E-1,1.6370462E-3,1.3441378E-2,4.2258464E-3,1.1332221E-3,-7.881127E-3],"categories":[],"categories_nodes":[],"categories_segments":[],"categories_sizes":[],"default_left":[0,0,0,0,0,0,0,0,0,0,0,0,0,0,1,0,0,0,0,0,0,1,0,0,0,0,0,0,0,0,1,0,0,0,0,0,0,0,0,0,0],"id":21,"left_children":[1,3,5,7,9,11,13,-1,15,17,-1,19,-1,-1,21,23,25,-1,-1,27,29,31,-1,33,-1,-1,-1,-1,-1,-1,35,37,-1,-1,-1,39,-1,-1,-1,-1,-1],"loss_changes":[3.18274E1,1.4316334E1,1.9739792E1,1.0314325E1,6.6823883E0,1.2728756E1,9.112388E0,0E0,7.4591556E0,5.7404976E0,0E0,1.125864E1,0E0,0E0,9.787053E0,7.493519E0,6.451575E0,0E0,0E0,6.2602882E0,1.0942845E1,5.9226294E0,0E0,6.9426637E0,0E0,0E0,0E0,0E0,0E0,0E0,6.1767826E0,5.782506E0,0E0,0E0,0E0,5.9326534E0,0E0,0E0,0E0,0E0,0E0],"parents":[2147483647,0,0,1,1,2,2,3,3,4,4,5,5,6,6,8,8,9,9,11,11,14,14,15,15,16,16,19,19,20,20,21,21,23,23,30,30,31,31,35,35],"right_children":[2,4,6,8,10,12,14,-1,16,18,-1,20,-1,-1,22,24,26,-1,-1,28,30,32,-1,34,-1,-1,-1,-1,-1,-1,36,38,-1,-1,-1,40,-1,-1,-1,-1,-1],"split_conditions":[1.25E0,4.19E0,4.95E0,2.7E0,1.4E0,5.59E0,7.5898126E-2,1.1661052E-2,4.2E-1,3.25E0,2.7804058E-3,8.95E1,-1.0800782E-2,-5.9521617E-3,5.4691358E0,4.78E0,5.07E0,1.2463162E-2,2.5383206E-4,2.41E-1,3.17E-1,4.37E0,-1.3784573E-2,6.234568E-1,-8.282819E-3,-7.9146605E-3,1.40845785E-2,-2.6071814E-3,-1.1456752E-2,3.2723523E-3,1.3765432E0,3.52E0,-1.5328713E-2,4.8809656E-4,1.241354E-2,2.22E0,1.6370462E-3,1.3441378E-2,4.2258464E-3,1.1332221E-3,-7.881127E-3],"split_indices":[16,42,66,54,75,54,9,0,29,20,0,4,0,0,38,54,68,0,0,27,28,20,0,12,0,0,0,0,0,0,10,54,0,0,0,59,0,0,0,0,0],"split_type":[0,0,0,0,0,0,0,0,0,0,0,0,0,0,0,0,0,0,0,0,0,0,0,0,0,0,0,0,0,0,0,0,0,0,0,0,0,0,0,0,0],"sum_hessian":[3.2890254E3,1.0800934E3,2.2089321E3,5.6261975E2,5.174736E2,1.6391428E3,5.6978925E2,7.3863556E1,4.8875623E2,3.378379E2,1.796357E2,1.3369025E3,3.022403E2,1.115489E2,4.5824036E2,2.9064658E2,1.9810963E2,2.884324E2,4.940551E1,3.738211E2,9.630814E2,4.3054395E2,2.7696411E1,2.3171307E2,5.8933514E1,1.84577E2,1.3532629E1,1.4107513E2,2.3274597E2,3.4420218E2,6.188792E2,4.186424E2,1.1901539E1,1.523678E2,7.934527E1,4.641673E2,1.5471194E2,9.517423E1,3.2346817E2,1.0019288E2,3.6397443E2],"tree_param":{"num_deleted":"0","num_feature":"80","num_nodes":"41","size_leaf_vector":"1"}},{"base_weights":[7.453428E-3,9.96905E-2,-1.19770005E-1,2.951388E-1,4.8555862E-2,-2.0933038E-1,3.1414706E-2,-9.4285505E-3,1.0570798E-2,1.9754562E-1,4.392721E-3,-1.3635044E-1,-3.597459E-1,2.5575048E-1,-3.2011405E-2,-2.2565168E-3,8.957584E-3,4.965504E-2,-5.08067E-3,-7.739043E-3,1.6146613E-3,-1.35390265E-2,7.278223E-3,1.1824964E-2,-8.194512E-3,-1.4633822E-1,3.2262031E-3,-2.8177104E-3,1.1022951E-1,1.5594342E-3,-1.11325625E-2,2.8264788E-3,1.991478E-2],"categories":[],"categories_nodes":[],"categories_segments":[],"categories_sizes":[],"default_left":[0,0,0,0,0,1,0,0,0,0,1,0,0,0,1,0,0,1,0,0,0,0,0,0,0,0,0,0,1,0,0,0,0],"id":22,"left_children":[1,3,5,7,9,11,13,-1,-1,15,17,19,21,23,25,-1,-1,27,-1,-1,-1,-1,-1,-1,-1,29,-1,-1,31,-1,-1,-1,-1],"loss_changes":[3.834709E1,1.8899725E1,1.8621212E1,5.9832764E0,9.897896E0,9.362621E0,7.348859E0,0E0,0E0,6.8210983E0,8.366122E0,1.0686448E1,8.4632225E0,6.1069727E0,6.0102735E0,0E0,0E0,7.4504704E0,0E0,0E0,0E0,0E0,0E0,0E0,0E0,8.008167E0,0E0,0E0,7.5085654E0,0E0,0E0,0E0,0E0],"parents":[2147483647,0,0,1,1,2,2,3,3,4,4,5,5,6,6,9,9,10,10,11,11,12,12,13,13,14,14,17,17,25,25,28,28],"right_children":[2,4,6,8,10,12,14,-1,-1,16,18,20,22,24,26,-1,-1,28,-1,-1,-1,-1,-1,-1,-1,30,-1,-1,32,-1,-1,-1,-1],"split_conditions":[4.42E0,0E0,1.35E0,7.009657E-2,3.02E0,1.068E2,3.89E-1,-9.4285505E-3,1.0570798E-2,2.35E-1,1.83E-1,3.15E-1,1.7E0,2.4102564E-1,2.46E-1,-2.2565168E-3,8.957584E-3,3.13E-1,-5.08067E-3,-7.739043E-3,1.6146613E-3,-1.35390265E-2,7.278223E-3,1.1824964E-2,-8.194512E-3,5.24E0,3.2262031E-3,-2.8177104E-3,1.02267675E-1,1.5594342E-3,-1.11325625E-2,2.8264788E-3,1.991478E-2],"split_indices":[66,63,55,23,66,4,2,0,0,27,5,34,75,73,27,0,0,28,0,0,0,0,0,0,0,66,0,0,23,0,0,0,0],"split_type":[0,0,0,0,0,0,0,0,0,0,0,0,0,0,0,0,0,0,0,0,0,0,0,0,0,0,0,0,0,0,0,0,0],"sum_hessian":[3.261397E3,1.8912031E3,1.3701938E3,3.8976422E2,1.501439E3,8.601681E2,5.100257E2,1.51755495E1,3.7458865E2,3.4124155E2,1.1601974E3,5.822586E2,2.779095E2,1.1113787E2,3.9888782E2,7.409415E1,2.671474E2,9.037761E2,2.5642123E2,3.8039194E2,2.0186668E2,2.5631876E2,2.159073E1,9.296537E1,1.8172503E1,2.1215956E2,1.8672826E2,2.7927786E2,6.244983E2,1.06053665E2,1.06105896E2,5.9745325E2,2.7045029E1],"tree_param":{"num_deleted":"0","num_feature":"80","num_nodes":"33","size_leaf_vector":"1"}},{"base_weights":[-1.3306697E-2,6.1806068E-2,-1.6076894E-1,-3.646361E-2,2.105585E-1,-2.4567786E-1,-3.62744E-2,-5.644007E-3,2.789853E-2,3.089494E-3,9.665009E-3,-5.3431587E-3,-1.2093038E-2,6.599577E-3,-1.5975233E-2,1.3726658E-1,-1.2474554E-3,-5.441804E-3,1.0094508E-1,1.3660981E-3,1.071437E-2,4.382449E-3,-2.0745667E-2],"categories":[],"categories_nodes":[],"categories_segments":[],"categories_sizes":[],"default_left":[1,1,0,0,0,0,0,0,0,0,0,0,0,0,0,0,0,0,0,0,0,0,0],"id":23,"left_children":[1,3,5,7,9,11,13,-1,15,-1,-1,-1,-1,17,-1,19,-1,-1,21,-1,-1,-1,-1],"loss_changes":[3.6569008E1,3.1997332E1,1.174827E1,1.1452467E1,8.315224E0,6.5623055E0,8.811435E0,0E0,6.451746E0,0E0,0E0,0E0,0E0,6.8065157E0,0E0,6.012945E0,0E0,0E0,6.521062E0,0E0,0E0,0E0,0E0],"parents":[2147483647,0,0,1,1,2,2,3,3,4,4,5,5,6,6,8,8,13,13,15,15,18,18],"right_children":[2,4,6,8,10,12,14,-1,16,-1,-1,-1,-1,18,-1,20,-1,-1,22,-1,-1,-1,-1],"split_conditions":[4.48E0,4.29E0,1.32E0,1.14E0,3.21E-1,4.851852E0,2.42E0,-5.644007E-3,2.46E0,3.089494E-3,9.665009E-3,-5.3431587E-3,-1.2093038E-2,7.561057E-2,-1.5975233E-2,7.41E-1,-1.2474554E-3,-5.441804E-3,1.042E1,1.3660981E-3,1.071437E-2,4.382449E-3,-2.0745667E-2],"split_indices":[15,42,67,67,1,38,60,0,59,0,0,0,0,9,0,24,0,0,65,0,0,0,0],"split_type":[0,0,0,0,0,0,0,0,0,0,0,0,0,0,0,0,0,0,0,0,0,0,0],"sum_hessian":[3.2946794E3,2.1834111E3,1.1112683E3,1.3155847E3,8.678264E2,6.591178E2,4.521505E2,4.2471136E2,8.908733E2,3.6087112E2,5.0695526E2,3.9261917E2,2.6649863E2,4.1451944E2,3.7631077E1,3.3376764E2,5.571057E2,1.4629385E2,2.682256E2,2.2281795E2,1.1094968E2,2.5880798E2,9.417601E0],"tree_param":{"num_deleted":"0","num_feature":"80","num_nodes":"23","size_leaf_vector":"1"}},{"base_weights":[2.051186E-3,6.708312E-2,-1.8544683E-1,2.8475646E-2,2.8568769E-1,-1.0740379E-2,-1.0549025E-1,7.608008E-2,-1.0611011E-1,1.3281518E-2,1.9198712E-3,-6.201783E-3,1.8125055E-3,9.275527E-3,4.188456E-2,-1.2154859E-2,-4.663713E-2,6.750765E-3,8.337019E-3,4.2343416E-4,-2.7917612E-1,-6.026232E-2,3.0146146E-3,-1.4621962E-2,4.1930308E-3,8.638271E-3,-6.9561377E-3,-1.6183977E-3,9.4655985E-3],"categories":[],"categories_nodes":[],"categories_segments":[],"categories_sizes":[],"default_left":[1,0,0,1,0,0,1,1,0,0,0,0,0,0,0,0,0,0,0,0,1,0,0,0,0,0,0,0,0],"id":24,"left_children":[1,3,5,7,9,-1,11,13,15,-1,-1,-1,-1,-1,17,-1,19,-1,21,-1,23,25,-1,-1,-1,27,-1,-1,-1],"loss_changes":[3.9947426E1,2.0512123E1,9.367712E0,1.3289965E1,9.629015E0,0E0,7.1920133E0,1.07108965E1,8.415446E0,0E0,0E0,0E0,0E0,0E0,7.1768856E0,0E0,6.1900105E0,0E0,6.2505283E0,0E0,6.217307E0,6.2470922E0,0E0,0E0,0E0,6.7073355E0,0E0,0E0,0E0],"parents":[2147483647,0,0,1,1,2,2,3,3,4,4,6,6,7,7,8,8,14,14,16,16,18,18,20,20,21,21,25,25],"right_children":[2,4,6,8,10,-1,12,14,16,-1,-1,-1,-1,-1,18,-1,20,-1,22,-1,24,26,-1,-1,-1,28,-1,-1,-1],"split_conditions":[4.66E0,5.55E0,3.75E0,7.4E-1,4.44E0,-1.0740379E-2,4.5E0,3.67E0,2.78E0,1.3281518E-2,1.9198712E-3,-6.201783E-3,1.8125055E-3,9.275527E-3,-6.3E0,-1.2154859E-2,4.63E0,6.750765E-3,1.7E0,4.2343416E-4,1.82E-1,4.7469134E0,3.0146146E-3,-1.4621962E-2,4.1930308E-3,9.6625276E-2,-6.9561377E-3,-1.6183977E-3,9.4655985E-3],"split_indices":[42,54,54,24,66,0,17,44,54,0,0,0,0,0,13,0,68,0,75,0,32,11,0,0,0,36,0,0,0],"split_type":[0,0,0,0,0,0,0,0,0,0,0,0,0,0,0,0,0,0,0,0,0,0,0,0,0,0,0,0,0],"sum_hessian":[3.2698955E3,2.429108E3,8.407876E2,2.066846E3,3.62262E2,3.0283084E2,5.379567E2,1.5278253E3,5.390207E2,2.3806079E2,1.2420119E2,3.55297E2,1.8265974E2,2.158721E2,1.3119532E3,9.733846E1,4.4168225E2,2.2204521E2,1.089908E3,3.5319672E2,8.8485535E1,5.967546E2,4.931534E2,6.299962E1,2.5485916E1,4.1056277E2,1.8619183E2,3.4139493E2,6.916783E1],"tree_param":{"num_deleted":"0","num_feature":"80","num_nodes":"29","size_leaf_vector":"1"}},{"base_weights":[4.1837618E-4,-6.0423125E-2,1.5821193E-1,1.1383488E-1,-1.1221727E-1,1.3238493E-1,1.7884316E-2,4.697724E-3,-1.2696857E-2,-5.7627898E-2,-9.394754E-3,1.1720276E-2,6.945766E-2,-2.7361628E-2,-1.228731E-2,-4.247653E-3,1.3401127E-1,-8.189722E-2,8.852997E-2,5.4851146E-3,-6.9926456E-3,-2.3426779E-2,-8.253869E-3,1.4130657E-2,3.2069314E-2,7.830266E-3,-1.9817685E-3,2.7110938E-3,-9.227132E-3],"categories":[],"categories_nodes":[],"categories_segments":[],"categories_sizes":[],"default_left":[0,0,1,0,1,0,0,0,0,0,0,0,1,0,0,0,0,0,0,0,0,0,0,0,1,0,0,0,0],"id":25,"left_children":[1,3,5,7,9,11,-1,-1,-1,13,-1,-1,15,17,-1,-1,19,21,23,-1,-1,25,-1,-1,27,-1,-1,-1,-1],"loss_changes":[3.1456942E1,2.1367805E1,8.89394E0,7.8680873E0,1.713153E1,1.1967948E1,0E0,0E0,0E0,1.3210172E1,0E0,0E0,8.646061E0,8.047247E0,0E0,0E0,5.760208E0,8.491539E0,7.7835484E0,0E0,0E0,6.2017064E0,0E0,0E0,5.560194E0,0E0,0E0,0E0,0E0],"parents":[2147483647,0,0,1,1,2,2,3,3,4,4,5,5,9,9,12,12,13,13,16,16,17,17,18,18,21,21,24,24],"right_children":[2,4,6,8,10,12,-1,-1,-1,14,-1,-1,16,18,-1,-1,20,22,24,-1,-1,26,-1,-1,28,-1,-1,-1,-1],"split_conditions":[1.4E0,4.037037E0,7.57E-1,6.63E0,4.18E0,3.47E0,1.7884316E-2,4.697724E-3,-1.2696857E-2,6.06E0,-9.394754E-3,1.1720276E-2,4.03E0,1.34E0,-1.228731E-2,-4.247653E-3,3.14E-1,3.33E0,2.75E-1,5.4851146E-3,-6.9926456E-3,2.7E0,-8.253869E-3,1.4130657E-2,7.88E-1,7.830266E-3,-1.9817685E-3,2.7110938E-3,-9.227132E-3],"split_indices":[67,41,24,54,18,54,0,0,0,54,0,0,42,72,0,0,25,59,25,0,0,54,0,0,30,0,0,0,0],"split_type":[0,0,0,0,0,0,0,0,0,0,0,0,0,0,0,0,0,0,0,0,0,0,0,0,0,0,0,0,0],"sum_hessian":[3.2690232E3,2.3600452E3,9.0897797E2,5.398841E2,1.820161E3,8.5459204E2,5.4385914E1,5.122623E2,2.7621765E1,1.3851176E3,4.350435E2,1.8574025E2,6.688518E2,1.2659696E3,1.1914797E2,1.6357295E2,5.0527887E2,8.616453E2,4.0432422E2,4.6342627E2,4.1852608E1,6.4154956E2,2.2009576E2,5.5402077E1,3.4892215E2,7.73494E1,5.642002E2,3.0217276E2,4.6749363E1],"tree_param":{"num_deleted":"0","num_feature":"80","num_nodes":"29","size_leaf_vector":"1"}},{"base_weights":[1.3398398E-2,6.3058384E-2,-2.2152627E-1,-1.0239291E-1,1.2458699E-1,-7.718037E-2,-3.715334E-1,-2.1327679E-1,2.6986143E-2,5.5244677E-2,2.2088727E-1,-4.1203005E-3,1.1371805E-2,-3.5371006E-2,-4.3257648E-1,2.6340846E-3,-9.081544E-3,8.46144E-3,-1.7565099E-3,3.7436746E-2,1.3210278E-2,1.1394387E-2,4.48355E-3,-1.1102973E-2,1.3956623E-2,-1.6356427E-2,-5.835184E-4,-5.0528593E-2,5.172116E-3,1.9913646E-3,-5.3055706E-3],"categories":[],"categories_nodes":[],"categories_segments":[],"categories_sizes":[],"default_left":[0,0,1,0,0,1,0,0,0,0,1,0,0,0,0,0,0,0,0,0,0,0,0,0,0,0,0,0,0,0,0],"id":26,"left_children":[1,3,5,7,9,11,13,15,17,19,21,-1,-1,23,25,-1,-1,-1,-1,27,-1,-1,-1,-1,-1,-1,-1,29,-1,-1,-1],"loss_changes":[3.8138454E1,2.7501877E1,1.2278097E1,1.0540569E1,1.3109762E1,6.030733E0,5.6698494E0,7.242531E0,6.3241615E0,7.034013E0,8.597431E0,0E0,0E0,6.6568437E0,6.1296196E0,0E0,0E0,0E0,0E0,1.151647E1,0E0,0E0,0E0,0E0,0E0,0E0,0E0,7.7571864E0,0E0,0E0,0E0],"parents":[2147483647,0,0,1,1,2,2,3,3,4,4,5,5,6,6,7,7,8,8,9,9,10,10,13,13,14,14,19,19,27,27],"right_children":[2,4,6,8,10,12,14,16,18,20,22,-1,-1,24,26,-1,-1,-1,-1,28,-1,-1,-1,-1,-1,-1,-1,30,-1,-1,-1],"split_conditions":[5.36E0,3.5E0,2.2992541E-1,9.94E1,8.779443E-2,5.0864196E0,7.29E0,3.1E0,2.91E0,1.56E0,3.96E0,-4.1203005E-3,1.1371805E-2,4.68E0,5E0,2.6340846E-3,-9.081544E-3,8.46144E-3,-1.7565099E-3,2.1E0,1.3210278E-2,1.1394387E-2,4.48355E-3,-1.1102973E-2,1.3956623E-2,-1.6356427E-2,-5.835184E-4,4.08E0,5.172116E-3,1.9913646E-3,-5.3055706E-3],"split_indices":[66,54,22,31,23,41,58,66,47,21,42,0,0,69,54,0,0,0,0,75,0,0,0,0,0,0,0,42,0,0,0],"split_type":[0,0,0,0,0,0,0,0,0,0,0,0,0,0,0,0,0,0,0,0,0,0,0,0,0,0,0,0,0,0,0],"sum_hessian":[3.262351E3,2.694608E3,5.677431E2,7.297903E2,1.9648176E3,2.9123233E2,2.765108E2,3.9245148E2,3.373388E2,1.1446626E3,8.2015497E2,2.6317038E2,2.8061953E1,4.317566E1,2.3333513E2,6.8203384E1,3.242481E2,8.6315E1,2.5102379E2,1.0909838E3,5.3678806E1,3.2985773E2,4.9029727E2,2.6487242E1,1.6688417E1,2.0202698E2,3.1308146E1,6.2844196E2,4.6254184E2,3.135855E2,3.1485645E2],"tree_param":{"num_deleted":"0","num_feature":"80","num_nodes":"31","size_leaf_vector":"1"}},{"base_weights":[-7.954737E-6,-7.456285E-2,1.05243936E-1,-2.9921979E-2,-9.737314E-3,1.9781677E-1,-2.2564128E-2,1.777761E-1,-6.348078E-2,1.2108276E-2,1.5454586E-1,7.88831E-2,-1.4430146E-1,1.0868722E-2,9.54704E-5,2.606021E-3,-1.0292083E-1,-2.917566E-3,1.9547912E-1,-1.6666131E-2,3.6400617E-3,9.691927E-5,-1.0729516E-2,1.4638342E-3,-4.9377456E-3,9.384739E-3,8.24133E-4],"categories":[],"categories_nodes":[],"categories_segments":[],"categories_sizes":[],"default_left":[1,0,0,0,0,0,1,0,0,0,0,0,0,0,0,0,0,0,0,0,0,0,0,0,0,0,0],"id":27,"left_children":[1,3,5,7,-1,9,11,13,15,-1,17,19,21,-1,-1,-1,23,-1,25,-1,-1,-1,-1,-1,-1,-1,-1],"loss_changes":[2.5348917E1,1.8596302E1,1.5865234E1,1.1016269E1,0E0,5.565138E0,7.015005E0,5.81235E0,7.658848E0,0E0,6.249466E0,5.8289256E0,6.8943853E0,0E0,0E0,0E0,7.355073E0,0E0,8.070805E0,0E0,0E0,0E0,0E0,0E0,0E0,0E0,0E0],"parents":[2147483647,0,0,1,1,2,2,3,3,5,5,6,6,7,7,8,8,10,10,11,11,12,12,16,16,18,18],"right_children":[2,4,6,8,-1,10,12,14,16,-1,18,20,22,-1,-1,-1,24,-1,26,-1,-1,-1,-1,-1,-1,-1,-1],"split_conditions":[1.31E0,1.5E0,4.4E0,3.66E0,-9.737314E-3,-2E-1,4.7E0,3.39E0,4.233333E0,1.2108276E-2,1.47E-1,4.45E0,4.18E-1,1.0868722E-2,9.54704E-5,2.606021E-3,5E-1,-2.917566E-3,3.2E-1,-1.6666131E-2,3.6400617E-3,9.691927E-5,-1.0729516E-2,1.4638342E-3,-4.9377456E-3,9.384739E-3,8.24133E-4],"split_indices":[43,55,54,15,0,75,15,54,38,0,5,54,29,0,0,0,75,0,34,0,0,0,0,0,0,0,0],"split_type":[0,0,0,0,0,0,0,0,0,0,0,0,0,0,0,0,0,0,0,0,0,0,0,0,0,0,0],"sum_hessian":[3.2235508E3,1.8876378E3,1.3359131E3,1.5721747E3,3.1546317E2,7.7431E2,5.616031E2,2.1712993E2,1.3550447E3,1.5409756E2,6.202124E2,3.064969E2,2.551062E2,1.15079735E2,1.02050186E2,2.9300858E2,1.0620361E3,8.885148E1,5.313609E2,1.3860751E1,2.9263614E2,1.4165152E2,1.1345469E2,2.5550783E2,8.065283E2,3.4801453E2,1.8334639E2],"tree_param":{"num_deleted":"0","num_feature":"80","num_nodes":"27","size_leaf_vector":"1"}},{"base_weights":[-1.7211566E-3,-6.808717E-2,1.05143994E-1,1.19956015E-2,-1.8070386E-1,5.9677258E-2,3.6104694E-1,-9.64448E-3,5.1724754E-2,-1.1752635E-2,-1.2156014E-1,2.5751077E-2,9.030343E-3,1.8106407E-2,1.5160376E-1,8.886806E-3,8.260769E-3,9.908588E-4,-6.0636117E-3,-1.19012125E-1,8.229304E-2,1.5402935E-2,-1.9483248E-3,5.3114377E-2,-6.4332E-3,-1.4528557E-2,-1.3503414E-3,1.2795683E-3,9.480082E-3,-6.1285133E-3,2.8724805E-3],"categories":[],"categories_nodes":[],"categories_segments":[],"categories_sizes":[],"default_left":[0,0,0,0,1,0,0,0,1,0,0,0,0,0,0,0,1,0,0,0,0,0,0,0,0,0,0,0,0,0,0],"id":28,"left_children":[1,3,5,7,9,11,13,-1,15,-1,17,19,-1,-1,21,-1,23,-1,-1,25,27,-1,-1,29,-1,-1,-1,-1,-1,-1,-1],"loss_changes":[2.3050932E1,1.8100185E1,1.4437282E1,1.4235881E1,8.557899E0,7.683834E0,7.1673717E0,0E0,9.835726E0,0E0,5.941675E0,7.5440593E0,0E0,0E0,6.208975E0,0E0,7.9624457E0,0E0,0E0,6.450512E0,5.8805046E0,0E0,0E0,5.8412604E0,0E0,0E0,0E0,0E0,0E0,0E0,0E0],"parents":[2147483647,0,0,1,1,2,2,3,3,4,4,5,5,6,6,8,8,10,10,11,11,14,14,16,16,19,19,20,20,23,23],"right_children":[2,4,6,8,10,12,14,-1,16,-1,18,20,-1,-1,22,-1,24,-1,-1,26,28,-1,-1,30,-1,-1,-1,-1,-1,-1,-1],"split_conditions":[1.34E0,4.42E0,1.9E-1,2.75E0,3.79E0,9.8392285E-2,1.29E0,-9.64448E-3,3.04E-1,-1.1752635E-2,9.26E1,1.4E1,9.030343E-3,1.8106407E-2,7.29E-1,8.886806E-3,1.36E0,9.908588E-4,-6.0636117E-3,3.580247E-1,1.64E0,1.5402935E-2,-1.9483248E-3,3.82E-1,-6.4332E-3,-1.4528557E-2,-1.3503414E-3,1.2795683E-3,9.480082E-3,-6.1285133E-3,2.8724805E-3],"split_indices":[55,66,32,54,17,23,72,0,1,0,4,76,0,0,3,0,43,0,0,39,55,0,0,29,0,0,0,0,0,0,0],"split_type":[0,0,0,0,0,0,0,0,0,0,0,0,0,0,0,0,0,0,0,0,0,0,0,0,0,0,0,0,0,0,0],"sum_hessian":[3.2432556E3,2.0015691E3,1.2416866E3,1.1706057E3,8.309634E2,1.0568623E3,1.8482431E2,1.3340005E2,1.0372057E3,2.0642888E2,6.245345E2,9.1461035E2,1.4225192E2,9.544035E1,8.938395E1,1.7054845E2,8.6665717E2,1.8177873E2,4.4275574E2,2.5592172E2,6.5868866E2,3.4838516E1,5.4545437E1,7.115328E2,1.5512439E2,4.78897E1,2.0803203E2,5.4576025E2,1.1292839E2,8.708809E1,6.244447E2],"tree_param":{"num_deleted":"0","num_feature":"80","num_nodes":"31","size_leaf_vector":"1"}},{"base_weights":[-5.9002073E-4,-8.325977E-2,1.09271474E-1,-8.06948E-3,-2.1180868E-1,9.3186945E-3,2.0172536E-1,3.3033855E-2,-7.384939E-3,-2.9053325E-3,-2.623902E-1,2.5778033E-3,-4.4798753E-3,7.854509E-3,-5.6362813E-3,8.439033E-3,3.8255006E-3,1.1184277E-2,-4.7770287E-3,-2.848196E-1,7.3914947E-3,1.6182208E-2,-4.0589756E-4,4.54489E-3,-1.0467709E-2],"categories":[],"categories_nodes":[],"categories_segments":[],"categories_sizes":[],"default_left":[0,0,0,1,0,0,0,0,0,1,0,0,0,0,0,0,0,0,0,0,0,0,0,0,0],"id":29,"left_children":[1,3,5,7,9,11,13,15,-1,17,19,-1,-1,-1,-1,-1,21,-1,-1,23,-1,-1,-1,-1,-1],"loss_changes":[2.9406364E1,1.7847233E1,1.2831114E1,1.0410212E1,7.1861496E0,6.7325234E0,9.874281E0,6.4004064E0,0E0,6.7107835E0,6.1522446E0,0E0,0E0,0E0,0E0,0E0,6.9334807E0,0E0,0E0,7.318466E0,0E0,0E0,0E0,0E0,0E0],"parents":[2147483647,0,0,1,1,2,2,3,3,4,4,5,5,6,6,7,7,9,9,10,10,16,16,19,19],"right_children":[2,4,6,8,10,12,14,16,-1,18,20,-1,-1,-1,-1,-1,22,-1,-1,24,-1,-1,-1,-1,-1],"split_conditions":[4.4E0,4.05E0,4.31E0,4.851852E0,7.32E0,4.78E0,5.75E0,1.02E0,-7.384939E-3,3.9130434E-1,4.4E0,2.5778033E-3,-4.4798753E-3,7.854509E-3,-5.6362813E-3,8.439033E-3,1E-1,1.1184277E-2,-4.7770287E-3,4.0555553E0,7.3914947E-3,1.6182208E-2,-4.0589756E-4,4.54489E-3,-1.0467709E-2],"split_indices":[66,18,44,41,70,54,56,55,0,12,69,0,0,0,0,0,53,0,0,38,0,0,0,0,0],"split_type":[0,0,0,0,0,0,0,0,0,0,0,0,0,0,0,0,0,0,0,0,0,0,0,0,0],"sum_hessian":[3.2311074E3,1.8443268E3,1.3867808E3,1.165439E3,6.7888776E2,6.678337E2,7.189471E2,9.802804E2,1.8515862E2,1.3301283E2,5.4587494E2,4.539648E2,2.1386885E2,6.559549E2,6.2992184E1,1.1143602E2,8.6884436E2,3.7990967E1,9.5021866E1,5.228011E2,2.3073854E1,2.5900173E1,8.429442E2,3.66135E1,4.861876E2],"tree_param":{"num_deleted":"0","num_feature":"80","num_nodes":"25","size_leaf_vector":"1"}},{"base_weights":[-3.92441E-3,-1.3338079E-1,6.3657105E-2,-2.2867525E-2,-2.6080886E-1,-1.2944686E-1,9.898833E-2,6.0078822E-2,-6.0588387E-3,-2.455062E-3,-1.0758653E-2,-1.8093567E-1,1.4292294E-2,1.40727E-1,-5.991761E-2,-3.9206774E-5,1.35096945E-2,4.3348605E-3,-9.1234725E-3,1.2094191E-1,1.481662E-2,7.105127E-4,-8.293658E-3,1.6127849E-1,3.4257665E-4,1.0479277E-2,1.06564984E-1,8.747194E-3,1.8712326E-3],"categories":[],"categories_nodes":[],"categories_segments":[],"categories_sizes":[],"default_left":[1,0,0,1,0,0,1,0,0,0,0,0,0,0,0,0,0,0,0,0,0,0,0,0,0,0,1,0,0],"id":30,"left_children":[1,3,5,7,9,11,13,15,-1,-1,-1,17,-1,19,21,-1,-1,-1,-1,23,-1,-1,-1,25,-1,-1,27,-1,-1],"loss_changes":[2.8537786E1,1.5732428E1,1.4652211E1,8.076118E0,6.249504E0,9.826811E0,1.204847E1,8.5866165E0,0E0,0E0,0E0,9.237418E0,0E0,8.65276E0,5.9444118E0,0E0,0E0,0E0,0E0,6.022072E0,0E0,0E0,0E0,8.398907E0,0E0,0E0,5.797982E0,0E0,0E0],"parents":[2147483647,0,0,1,1,2,2,3,3,4,4,5,5,6,6,7,7,11,11,13,13,14,14,19,19,23,23,26,26],"right_children":[2,4,6,8,10,12,14,16,-1,-1,-1,18,-1,20,22,-1,-1,-1,-1,24,-1,-1,-1,26,-1,-1,28,-1,-1],"split_conditions":[1.25E0,4.24E0,3.919753E0,1.067E2,1.13E0,6.31E0,4.79E0,4.87E0,-6.0588387E-3,-2.455062E-3,-1.0758653E-2,-5.8E0,1.4292294E-2,7.04E0,5.59E0,-3.9206774E-5,1.35096945E-2,4.3348605E-3,-9.1234725E-3,1.23E1,1.481662E-2,7.105127E-4,-8.293658E-3,3.25E0,3.4257665E-4,1.0479277E-2,2.1212623E-1,8.747194E-3,1.8712326E-3],"split_indices":[16,42,41,4,72,54,42,54,0,0,0,13,0,54,66,0,0,0,0,13,0,0,0,66,0,0,35,0,0],"split_type":[0,0,0,0,0,0,0,0,0,0,0,0,0,0,0,0,0,0,0,0,0,0,0,0,0,0,0,0,0],"sum_hessian":[3.2545393E3,1.1158192E3,2.13872E3,5.9920795E2,5.1661127E2,3.2962585E2,1.8090942E3,3.9593777E2,2.0327019E2,1.3539897E2,3.8121228E2,3.0345517E2,2.6170689E1,1.4332477E3,3.7584653E2,3.3859555E2,5.7342228E1,7.0763954E1,2.3269122E2,1.3498859E3,8.336176E1,2.6482925E2,1.11017296E2,9.8791986E2,3.6196606E2,2.5311864E2,7.348012E2,1.7323717E2,5.615641E2],"tree_param":{"num_deleted":"0","num_feature":"80","num_nodes":"29","size_leaf_vector":"1"}},{"base_weights":[4.19414E-3,9.451692E-2,-9.600918E-2,1.3708392E-1,-1.0865164E-1,3.269866E-2,-1.8779358E-1,7.802619E-2,9.481566E-3,1.1373236E-2,-1.5731867E-1,7.5815376E-3,-9.961587E-4,-7.3129707E-3,4.163756E-3,1.8469658E-1,1.8993419E-2,-7.210916E-3,6.463662E-3,-1.0077406E-2,7.254166E-3,7.897911E-3,-1.1553204E-3],"categories":[],"categories_nodes":[],"categories_segments":[],"categories_sizes":[],"default_left":[0,0,0,1,0,1,1,1,0,0,1,0,0,0,0,0,0,0,0,0,0,0,0],"id":31,"left_children":[1,3,5,7,9,11,13,15,-1,-1,17,-1,-1,-1,-1,19,21,-1,-1,-1,-1,-1,-1],"loss_changes":[2.951808E1,1.4877625E1,1.8285805E1,1.2544594E1,6.727861E0,8.042561E0,9.6718445E0,6.4283004E0,0E0,0E0,5.978755E0,0E0,0E0,0E0,0E0,6.4425507E0,7.92013E0,0E0,0E0,0E0,0E0,0E0,0E0],"parents":[2147483647,0,0,1,1,2,2,3,3,4,4,5,5,6,6,7,7,10,10,15,15,16,16],"right_children":[2,4,6,8,10,12,14,16,-1,-1,18,-1,-1,-1,-1,20,22,-1,-1,-1,-1,-1,-1],"split_conditions":[1.4E0,1.5E0,3.95E0,7.51E-1,1.1E0,7.08E-1,4.99E0,4.037037E0,9.481566E-3,1.1373236E-2,8E-1,7.5815376E-3,-9.961587E-4,-7.3129707E-3,4.163756E-3,3.7222223E0,3.8E0,-7.210916E-3,6.463662E-3,-1.0077406E-2,7.254166E-3,7.897911E-3,-1.1553204E-3],"split_indices":[75,55,54,3,53,51,42,41,0,0,12,0,0,0,0,11,15,0,0,0,0,0,0],"split_type":[0,0,0,0,0,0,0,0,0,0,0,0,0,0,0,0,0,0,0,0,0,0,0],"sum_hessian":[3.2546528E3,1.7120857E3,1.5425671E3,1.4163416E3,2.9574417E2,6.4245703E2,9.001101E2,1.0194296E3,3.9691193E2,2.7253475E1,2.684907E2,1.5422353E2,4.8823352E2,8.1329865E2,8.681149E1,3.6115524E2,6.582744E2,2.2968681E2,3.8803883E1,2.2922318E1,3.382329E2,1.2829047E2,5.2998395E2],"tree_param":{"num_deleted":"0","num_feature":"80","num_nodes":"23","size_leaf_vector":"1"}},{"base_weights":[-9.706067E-4,-7.071941E-2,1.1244666E-1,7.507248E-2,-1.189945E-1,-1.6499214E-2,1.9487698E-1,3.831071E-3,-6.8381946E-3,-1.3654427E-1,1.2275103E-2,6.586232E-3,-1.112233E-1,2.2234815E-1,-6.31924E-3,-8.473181E-2,-1.0395181E-2,-1.6235736E-1,8.625902E-3,-8.090754E-3,7.967499E-3,-1.2268757E-2,-1.8807213E-3,-8.631693E-2,-1.6797218E-2,-1.2963948E-2,-1.5484059E-4],"categories":[],"categories_nodes":[],"categories_segments":[],"categories_sizes":[],"default_left":[0,0,0,0,0,0,1,0,0,0,0,0,1,0,0,0,0,0,0,0,0,0,0,1,0,0,0],"id":32,"left_children":[1,3,5,7,9,11,13,-1,-1,15,-1,-1,17,19,-1,21,-1,23,-1,-1,-1,-1,-1,25,-1,-1,-1],"loss_changes":[2.5220997E1,1.3922603E1,1.2920222E1,5.774208E0,1.2925688E1,9.7959175E0,7.979271E0,0E0,0E0,1.3209389E1,0E0,0E0,6.443929E0,6.349552E0,0E0,8.842526E0,0E0,7.646898E0,0E0,0E0,0E0,0E0,0E0,6.0950747E0,0E0,0E0,0E0],"parents":[2147483647,0,0,1,1,2,2,3,3,4,4,5,5,6,6,9,9,12,12,13,13,15,15,17,17,23,23],"right_children":[2,4,6,8,10,12,14,-1,-1,16,-1,-1,18,20,-1,22,-1,24,-1,-1,-1,-1,-1,26,-1,-1,-1],"split_conditions":[4.691358E0,3.03E-1,3.68E0,5.2E0,2.3E0,2.1489878E-1,1.98E-1,3.831071E-3,-6.8381946E-3,5.36E0,1.2275103E-2,6.586232E-3,2.89E1,7.338843E-2,-6.31924E-3,8.17E1,-1.0395181E-2,6.21E0,8.625902E-3,-8.090754E-3,7.967499E-3,-1.2268757E-2,-1.8807213E-3,3.76E0,-1.6797218E-2,-1.2963948E-2,-1.5484059E-4],"split_indices":[38,7,57,68,60,35,5,0,0,66,0,0,40,23,0,31,0,77,0,0,0,0,0,15,0,0,0],"split_type":[0,0,0,0,0,0,0,0,0,0,0,0,0,0,0,0,0,0,0,0,0,0,0,0,0,0,0],"sum_hessian":[3.181431E3,1.9707853E3,1.2106458E3,4.896411E2,1.4811442E3,4.7253305E2,7.381127E2,4.2881842E2,6.08227E1,1.4316852E3,4.9459038E1,1.4307268E2,3.2946036E2,6.9013336E2,4.7979343E1,1.1123749E3,3.193103E2,2.9093915E2,3.8521194E1,2.5965776E1,6.6416754E2,9.539485E1,1.01698E3,2.4100716E2,4.9932007E1,4.8755016E1,1.9225214E2],"tree_param":{"num_deleted":"0","num_feature":"80","num_nodes":"27","size_leaf_vector":"1"}},{"base_weights":[-6.2925396E-3,-6.277209E-2,1.4878157E-1,2.9373781E-3,-1.7908053E-1,2.3326172E-1,-9.457374E-3,4.414802E-2,-1.8821724E-1,6.162299E-3,-6.8774647E-3,1.2077393E-3,9.6684545E-3,7.4490523E-3,-3.460606E-3,-5.742317E-3,7.1785145E-2,-1.1794711E-2,-1.3076364E-3,6.5701087E-3,2.3424806E-2,4.561015E-3,-1.1544229E-3],"categories":[],"categories_nodes":[],"categories_segments":[],"categories_sizes":[],"default_left":[1,1,0,1,0,0,0,0,0,0,0,0,0,0,0,0,0,0,0,0,0,0,0],"id":33,"left_children":[1,3,5,7,9,11,13,15,17,-1,-1,-1,-1,-1,-1,-1,19,-1,-1,-1,21,-1,-1],"loss_changes":[2.883306E1,1.8456234E1,1.1766594E1,1.2190767E1,9.46419E0,6.6992188E0,6.9839807E0,7.7105417E0,6.8552647E0,0E0,0E0,0E0,0E0,0E0,0E0,0E0,6.953504E0,0E0,0E0,0E0,5.5453553E0,0E0,0E0],"parents":[2147483647,0,0,1,1,2,2,3,3,4,4,5,5,6,6,7,7,8,8,16,16,20,20],"right_children":[2,4,6,8,10,12,14,16,18,-1,-1,-1,-1,-1,-1,-1,20,-1,-1,-1,22,-1,-1],"split_conditions":[4.37E0,4.06E0,4.54E0,4.9E0,4.69E0,3.13E-1,6.87E-1,3.59E0,3.75E0,6.162299E-3,-6.8774647E-3,1.2077393E-3,9.6684545E-3,7.4490523E-3,-3.460606E-3,-5.742317E-3,5E-1,-1.1794711E-2,-1.3076364E-3,6.5701087E-3,2.38E0,4.561015E-3,-1.1544229E-3],"split_indices":[44,18,56,41,77,1,30,42,68,0,0,0,0,0,0,0,75,0,0,0,59,0,0],"split_type":[0,0,0,0,0,0,0,0,0,0,0,0,0,0,0,0,0,0,0,0,0,0,0],"sum_hessian":[3.2853083E3,2.4094487E3,8.7585956E2,1.5406859E3,8.6876294E2,5.705636E2,3.05296E2,1.2690864E3,2.715995E2,6.3496994E1,8.052659E2,1.3401747E2,4.3654608E2,8.706398E1,2.1823201E2,1.4113475E2,1.1279517E3,1.2534307E2,1.4625642E2,3.0825345E2,8.196982E2,2.7573102E2,5.439672E2],"tree_param":{"num_deleted":"0","num_feature":"80","num_nodes":"23","size_leaf_vector":"1"}},{"base_weights":[1.0781171E-2,-9.56772E-2,9.127209E-2,8.252339E-2,-1.6512863E-1,3.33263E-2,2.2312701E-1,-8.379584E-5,9.038601E-3,1.1019238E-3,-7.2227893E-3,-9.544084E-3,5.9009887E-2,6.6350386E-2,1.0614675E-2,1.5452789E-2,4.5820765E-2,1.1945789E-1,-1.7432617E-2,5.07076E-3,-2.3479064E-4,7.514601E-3,-5.5573955E-3],"categories":[],"categories_nodes":[],"categories_segments":[],"categories_sizes":[],"default_left":[0,0,0,0,0,0,0,0,0,0,0,0,0,0,0,0,0,0,0,0,0,0,0],"id":34,"left_children":[1,3,5,7,9,11,13,-1,-1,-1,-1,-1,15,17,-1,-1,19,21,-1,-1,-1,-1,-1],"loss_changes":[2.802421E1,1.7464344E1,1.4208064E1,6.4833717E0,1.0853086E1,1.0796723E1,8.719294E0,0E0,0E0,0E0,0E0,0E0,6.465828E0,7.1964593E0,0E0,0E0,6.6890287E0,6.5342293E0,0E0,0E0,0E0,0E0,0E0],"parents":[2147483647,0,0,1,1,2,2,3,3,4,4,5,5,6,6,12,12,13,13,16,16,17,17],"right_children":[2,4,6,8,10,12,14,-1,-1,-1,-1,-1,16,18,-1,-1,20,22,-1,-1,-1,-1,-1],"split_conditions":[7.17E-1,3E-1,4.37E0,1.61E0,1.49E-1,3.49E0,1.1E0,-8.379584E-5,9.038601E-3,1.1019238E-3,-7.2227893E-3,-9.544084E-3,2.25E0,8.73E0,1.0614675E-2,1.5452789E-2,2.98E0,1.66E-1,-1.7432617E-2,5.07076E-3,-2.3479064E-4,7.514601E-3,-5.5573955E-3],"split_indices":[51,63,17,55,5,15,75,0,0,0,0,0,66,77,0,0,47,5,0,0,0,0,0],"split_type":[0,0,0,0,0,0,0,0,0,0,0,0,0,0,0,0,0,0,0,0,0,0,0],"sum_hessian":[3.263649E3,1.4046758E3,1.8589733E3,3.935782E2,1.0110976E3,1.2936584E3,5.6531476E2,2.737849E2,1.1979329E2,2.1543396E2,7.9566364E2,9.3568344E1,1.2000901E3,2.1987132E2,3.4544342E2,3.4946224E1,1.1651439E3,2.0355559E2,1.6315744E1,3.8256433E2,7.825796E2,1.4839891E2,5.5156666E1],"tree_param":{"num_deleted":"0","num_feature":"80","num_nodes":"23","size_leaf_vector":"1"}},{"base_weights":[-2.9804765E-3,5.697112E-2,-1.3909404E-1,8.935404E-3,8.002174E-3,-1.8690558E-1,1.323737E-3,-3.7266657E-2,5.409307E-3,-4.8489226E-3,-1.4728203E-2,3.0738614E-2,-1.5955108E-1,1.0224963E-1,-9.8955974E-2,-1.1554864E-2,-2.8569298E-3,-6.908038E-3,4.757237E-3,4.3849247E-3,-1.8277512E-1,-4.377938E-3,-2.4551231E-2],"categories":[],"categories_nodes":[],"categories_segments":[],"categories_sizes":[],"default_left":[0,0,1,1,0,0,0,1,0,0,0,0,0,0,0,0,0,0,0,0,0,0,0],"id":35,"left_children":[1,3,5,7,-1,9,-1,11,-1,-1,-1,13,15,17,19,-1,-1,-1,-1,-1,21,-1,-1],"loss_changes":[2.6333717E1,1.9948421E1,8.483776E0,1.2791224E1,0E0,7.94265E0,0E0,1.1452808E1,0E0,0E0,0E0,8.239075E0,6.7738533E0,7.5522738E0,6.202013E0,0E0,0E0,0E0,0E0,0E0,6.3467584E0,0E0,0E0],"parents":[2147483647,0,0,1,1,2,2,3,3,5,5,7,7,11,11,12,12,13,13,14,14,20,20],"right_children":[2,4,6,8,-1,10,-1,12,-1,-1,-1,14,16,18,20,-1,-1,-1,-1,-1,22,-1,-1],"split_conditions":[4.75E0,5.16E0,4.79E0,4.9135804E0,8.002174E-3,7.04E0,1.323737E-3,1.2962962E0,5.409307E-3,-4.8489226E-3,-1.4728203E-2,8.2706764E-2,1.1E0,3.02E-1,6.91E-1,-1.1554864E-2,-2.8569298E-3,-6.908038E-3,4.757237E-3,4.3849247E-3,1.0301395E-1,-4.377938E-3,-2.4551231E-2],"split_indices":[54,66,42,11,0,54,0,37,0,0,0,62,67,1,30,0,0,0,0,0,9,0,0],"split_type":[0,0,0,0,0,0,0,0,0,0,0,0,0,0,0,0,0,0,0,0,0,0,0],"sum_hessian":[3.2194302E3,2.235612E3,9.838181E2,1.7779475E3,4.5766437E2,7.768021E2,2.0701604E2,1.3706874E3,4.0726013E2,6.763386E2,1.00463486E2,8.815962E2,4.8909128E2,5.688526E2,3.1274353E2,1.3284293E2,3.5624835E2,6.6250305E1,5.0260233E2,8.2517555E1,2.3022598E2,2.1396448E2,1.6261507E1],"tree_param":{"num_deleted":"0","num_feature":"80","num_nodes":"23","size_leaf_vector":"1"}},{"base_weights":[-8.033074E-3,-1.1672759E-1,8.464208E-2,1.2404723E-1,-1.5634401E-1,1.3790484E-1,-1.6411832E-3,8.497312E-3,-9.4482E-2,-8.4158465E-2,-1.0637694E-2,1.51987765E-2,1.943756E-1,2.4758205E-3,-1.7225832E-2,-2.026632E-1,-1.1836208E-2,1.2727769E-1,-5.3550056E-3,1.6667563E-1,1.6384112E-2,-1.3985358E-2,-3.411792E-3,-1.2258493E-1,3.0712115E-3,5.6631975E-3,-1.2416579E-2,1.4972414E-1,2.2160523E-2,3.6926023E-3,-7.0276335E-3,1.0571352E-2,2.7315987E-3],"categories":[],"categories_nodes":[],"categories_segments":[],"categories_sizes":[],"default_left":[0,0,0,0,0,0,0,0,0,0,0,0,0,0,0,1,0,0,0,0,0,0,0,0,0,0,0,0,0,0,0,0,0],"id":36,"left_children":[1,3,5,7,9,11,-1,-1,13,15,-1,17,19,-1,-1,21,23,25,-1,27,-1,-1,-1,29,-1,-1,-1,31,-1,-1,-1,-1,-1],"loss_changes":[3.298178E1,1.44284725E1,1.267117E1,6.325699E0,1.5460005E1,8.758795E0,0E0,0E0,6.1514745E0,7.7571697E0,0E0,8.06347E0,7.082569E0,0E0,0E0,7.434395E0,6.614054E0,5.709021E0,0E0,6.6268597E0,0E0,0E0,0E0,5.9329796E0,0E0,0E0,0E0,8.789064E0,0E0,0E0,0E0,0E0,0E0],"parents":[2147483647,0,0,1,1,2,2,3,3,4,4,5,5,8,8,9,9,11,11,12,12,15,15,16,16,17,17,19,19,23,23,27,27],"right_children":[2,4,6,8,10,12,-1,-1,14,16,-1,18,20,-1,-1,22,24,26,-1,28,-1,-1,-1,30,-1,-1,-1,32,-1,-1,-1,-1,-1],"split_conditions":[4.03E0,3.02E0,1.39E0,2.49E-1,4.66E0,4.345679E0,-1.6411832E-3,8.497312E-3,3.1E0,2E1,-1.0637694E-2,3.35E0,1.02267675E-1,2.4758205E-3,-1.7225832E-2,3.8E0,3.9E0,2.6E-1,-5.3550056E-3,9.99E0,1.6384112E-2,-1.3985358E-2,-3.411792E-3,9.09E1,3.0712115E-3,5.6631975E-3,-1.2416579E-2,3.23E0,2.2160523E-2,3.6926023E-3,-7.0276335E-3,1.0571352E-2,2.7315987E-3],"split_indices":[54,66,67,0,42,38,0,0,71,76,0,47,23,0,0,17,40,0,0,19,0,0,0,4,0,0,0,66,0,0,0,0,0],"split_type":[0,0,0,0,0,0,0,0,0,0,0,0,0,0,0,0,0,0,0,0,0,0,0,0,0,0,0,0,0,0,0,0,0],"sum_hessian":[3.267419E3,1.5037657E3,1.7636533E3,2.1159633E2,1.2921694E3,1.2633025E3,5.0035077E2,1.3128009E2,8.0316246E1,9.03197E2,3.8897238E2,3.9935693E2,8.6394556E2,5.8723076E1,2.159317E1,3.4049545E2,5.627016E2,2.4536545E2,1.5399149E2,7.947132E2,6.923237E1,1.03056564E2,2.3743887E2,2.7382333E2,2.888783E2,2.2694786E2,1.8417587E1,7.7178253E2,2.293068E1,7.586497E1,1.9795836E2,2.1484059E2,5.5694196E2],"tree_param":{"num_deleted":"0","num_feature":"80","num_nodes":"33","size_leaf_vector":"1"}},{"base_weights":[-1.0969446E-2,-9.160836E-2,1.0399934E-1,-1.4861332E-1,4.528045E-2,1.2630844E-1,-1.1374407E-2,-8.60892E-2,-2.4217312E-1,-2.7911123E-2,3.6490577E-1,3.056695E-1,8.14058E-2,1.5624767E-2,-5.2601635E-3,-1.2753265E-2,-1.6228677E-1,-5.9341253E-3,9.904252E-2,1.693607E-2,-1.944677E-3,-1.3154312E-2,1.1065385E-2,5.316952E-3,-1.3745236E-2,-2.3005651E-3,9.782689E-3,-6.6671693E-3,1.1613198E-2,1.9428708E-1,-4.4673355E-3,-9.3445E-3,1.2719369E-3,5.004983E-2,1.4873651E-2,1.1989334E-2,-3.4211774E-3],"categories":[],"categories_nodes":[],"categories_segments":[],"categories_sizes":[],"default_left":[0,0,0,1,1,1,0,0,0,1,1,0,0,0,0,0,0,0,1,0,0,0,0,0,0,0,0,0,0,0,0,0,0,0,0,0,0],"id":37,"left_children":[1,3,5,7,9,11,-1,13,15,17,19,21,23,25,-1,-1,27,-1,29,-1,-1,-1,-1,-1,31,-1,-1,-1,-1,33,-1,-1,-1,35,-1,-1,-1],"loss_changes":[3.0222034E1,1.4974575E1,1.3567554E1,7.8685036E0,1.32843E1,1.0268875E1,0E0,6.099733E0,6.094429E0,8.96682E0,6.7482567E0,5.680645E0,7.820872E0,8.319195E0,0E0,0E0,7.3894167E0,0E0,5.724208E0,0E0,0E0,0E0,0E0,0E0,6.6997037E0,0E0,0E0,0E0,0E0,6.636919E0,0E0,0E0,0E0,5.8396797E0,0E0,0E0,0E0],"parents":[2147483647,0,0,1,1,2,2,3,3,4,4,5,5,7,7,8,8,9,9,10,10,11,11,12,12,13,13,16,16,18,18,24,24,29,29,33,33],"right_children":[2,4,6,8,10,12,-1,14,16,18,20,22,24,26,-1,-1,28,-1,30,-1,-1,-1,-1,-1,32,-1,-1,-1,-1,34,-1,-1,-1,36,-1,-1,-1],"split_conditions":[4.42E0,2.4E0,7.04E0,4.48E0,4.4E-1,1.21E0,-1.1374407E-2,2.77E0,3.93E0,2.83E-1,7.67E-1,1.9886456E-1,4.296296E0,4.1E0,-5.2601635E-3,-1.2753265E-2,1.059E1,-5.9341253E-3,2.94E-1,1.693607E-2,-1.944677E-3,-1.3154312E-2,1.1065385E-2,5.316952E-3,6.95E-1,-2.3005651E-3,9.782689E-3,-6.6671693E-3,1.1613198E-2,1.05E0,-4.4673355E-3,-9.3445E-3,1.2719369E-3,2.91E-1,1.4873651E-2,1.1989334E-2,-3.4211774E-3],"split_indices":[66,63,54,15,2,16,0,59,44,52,30,35,41,45,0,0,58,0,25,0,0,0,0,0,3,0,0,0,0,60,0,0,0,33,0,0,0],"split_type":[0,0,0,0,0,0,0,0,0,0,0,0,0,0,0,0,0,0,0,0,0,0,0,0,0,0,0,0,0,0,0,0,0,0,0,0,0],"sum_hessian":[3.2531685E3,1.9126133E3,1.3405552E3,1.3504656E3,5.6214764E2,1.2786976E3,6.1857605E1,8.1240796E2,5.380576E2,4.589009E2,1.0324675E2,2.5319781E2,1.0254998E3,3.4072995E2,4.71678E2,1.884246E2,3.49633E2,2.0868742E2,2.502135E2,7.6231224E1,2.7015528E1,9.049521E0,2.4414828E2,5.5745306E2,4.6804675E2,2.62437E2,7.829296E1,3.2588306E2,2.3749964E1,1.7836922E2,7.1844284E1,7.4663315E1,3.9338342E2,1.15999695E2,6.236952E1,3.7314156E1,7.868554E1],"tree_param":{"num_deleted":"0","num_feature":"80","num_nodes":"37","size_leaf_vector":"1"}},{"base_weights":[-1.7291381E-3,-1.5274762E-1,7.049153E-2,-2.1740425E-1,-1.7151477E-2,4.35177E-3,2.1988015E-1,1.338868E-2,-2.3142743E-1,7.7546067E-3,-8.589882E-2,2.8200916E-3,-1.16172805E-1,4.9548824E-3,1.2588955E-2,-1.291811E-2,-5.8527654E-3,1.8508533E-2,-1.1645933E-1,-1.3705109E-1,1.2108831E-2,-2.2790714E-1,3.0178155E-3,-6.0989372E-3,4.124111E-3,-1.701791E-2,-9.906666E-2,7.497249E-3,-7.979416E-3],"categories":[],"categories_nodes":[],"categories_segments":[],"categories_sizes":[],"default_left":[0,0,0,0,0,0,0,0,1,0,0,0,0,0,0,0,0,0,0,1,0,0,0,0,0,0,0,0,0],"id":38,"left_children":[1,3,5,7,9,11,13,-1,15,-1,17,-1,19,-1,-1,-1,-1,-1,21,23,-1,25,-1,-1,-1,-1,27,-1,-1],"loss_changes":[3.578633E1,9.288324E0,2.1913357E1,6.518898E0,6.055356E0,1.5094258E1,7.54393E0,0E0,5.9398346E0,0E0,5.5843325E0,0E0,6.396508E0,0E0,0E0,0E0,0E0,0E0,6.1633363E0,7.5376005E0,0E0,6.267805E0,0E0,0E0,0E0,0E0,5.8269196E0,0E0,0E0],"parents":[2147483647,0,0,1,1,2,2,3,3,4,4,5,5,6,6,8,8,10,10,12,12,18,18,19,19,21,21,26,26],"right_children":[2,4,6,8,10,12,14,-1,16,-1,18,-1,20,-1,-1,-1,-1,-1,22,24,-1,26,-1,-1,-1,-1,28,-1,-1],"split_conditions":[5E-1,4.55E0,4.36E0,2.68E-1,2.1230502E-1,4.5308642E0,1.114E2,1.338868E-2,1E0,7.7546067E-3,2.77E0,2.8200916E-3,1.207E1,4.9548824E-3,1.2588955E-2,-1.291811E-2,-5.8527654E-3,1.8508533E-2,3.68E0,5.1E0,1.2108831E-2,1.5E0,3.0178155E-3,-6.0989372E-3,4.124111E-3,-1.701791E-2,6.64E0,7.497249E-3,-7.979416E-3],"split_indices":[75,56,17,52,35,14,31,0,37,0,47,0,70,0,0,0,0,0,20,38,0,60,0,0,0,0,58,0,0],"split_type":[0,0,0,0,0,0,0,0,0,0,0,0,0,0,0,0,0,0,0,0,0,0,0,0,0,0,0,0,0],"sum_hessian":[3.2739878E3,1.058636E3,2.2153518E3,7.1563916E2,3.4299692E2,1.5373641E3,6.779877E2,1.4300624E1,7.013385E2,7.215412E1,2.708428E2,9.195868E2,6.1777734E2,4.7691803E2,2.0106967E2,1.7328645E2,5.2805206E2,1.0403722E1,2.6043906E2,5.938189E2,2.3958477E1,1.6959624E2,9.0842834E1,5.0296744E2,9.085144E1,5.0249527E1,1.1934671E2,3.580471E1,8.3542E1],"tree_param":{"num_deleted":"0","num_feature":"80","num_nodes":"29","size_leaf_vector":"1"}},{"base_weights":[-2.8130086E-2,1.5370951E-2,-2.2731361E-1,6.727475E-2,-1.3996784E-1,4.855494E-2,-9.029823E-3,1.3963187E-1,-2.5380207E-2,-2.1670799E-1,3.8319737E-2,1.453463E-2,-5.8103213E-3,-9.23862E-3,1.5851434E-1,-1.3846278E-1,3.9049638E-3,-1.2042842E-2,-3.0140022E-3,5.332577E-3,-7.3655047E-3,3.8870347E-3,1.0595136E-2,-5.300287E-3,1.4594923E-2],"categories":[],"categories_nodes":[],"categories_segments":[],"categories_sizes":[],"default_left":[0,0,0,0,1,0,0,0,0,1,1,0,0,0,0,0,0,0,0,0,0,0,0,0,0],"id":39,"left_children":[1,3,5,7,9,11,-1,13,15,17,19,-1,-1,-1,21,23,-1,-1,-1,-1,-1,-1,-1,-1,-1],"loss_changes":[2.8041206E1,2.1435236E1,7.46327E0,1.3373187E1,9.141293E0,7.741293E0,0E0,8.988602E0,1.4277549E1,8.580198E0,6.622594E0,0E0,0E0,0E0,7.019018E0,6.512128E0,0E0,0E0,0E0,0E0,0E0,0E0,0E0,0E0,0E0],"parents":[2147483647,0,0,1,1,2,2,3,3,4,4,5,5,7,7,8,8,9,9,10,10,14,14,15,15],"right_children":[2,4,6,8,10,12,-1,14,16,18,20,-1,-1,-1,22,24,-1,-1,-1,-1,-1,-1,-1,-1,-1],"split_conditions":[5.41E0,2.6E0,4.3E0,3.18E-1,4.7777777E0,1.71E0,-9.029823E-3,6.82402E-2,1.043E2,2.242883E-1,9.262605E-2,1.453463E-2,-5.8103213E-3,-9.23862E-3,1.73E0,5.35E0,3.9049638E-3,-1.2042842E-2,-3.0140022E-3,5.332577E-3,-7.3655047E-3,3.8870347E-3,1.0595136E-2,-5.300287E-3,1.4594923E-2],"split_indices":[54,75,53,28,11,60,0,9,4,35,36,0,0,0,72,69,0,0,0,0,0,0,0,0,0],"split_type":[0,0,0,0,0,0,0,0,0,0,0,0,0,0,0,0,0,0,0,0,0,0,0,0,0],"sum_hessian":[3.2289128E3,2.65157E3,5.773427E2,1.9887021E3,6.62868E2,8.285168E1,4.9449103E2,1.1163829E3,8.723191E2,4.6329712E2,1.9957083E2,2.95054E1,5.3346275E1,4.662559E1,1.0697573E3,4.88472E2,3.8384714E2,2.1011462E2,2.5318251E2,1.3635625E2,6.321458E1,8.588593E2,2.1089807E2,4.7214706E2,1.6324923E1],"tree_param":{"num_deleted":"0","num_feature":"80","num_nodes":"25","size_leaf_vector":"1"}},{"base_weights":[4.610749E-3,8.495056E-2,-8.98166E-2,1.8445631E-2,2.3469152E-1,2.669542E-3,-1.6762742E-1,1.2235784E-2,-5.114939E-3,3.1051165E-3,1.0357878E-2,-1.1225784E-1,1.3712971E-1,-1.15919605E-1,-1.0725734E-2,-3.4363996E-3,5.532223E-2,1.0011429E-2,-5.205251E-3,1.774478E-1,-1.6801732E-2,-4.567208E-3,1.1526458E-2,9.4735343E-4,1.7635172E-2,-4.3262416E-3,8.128962E-3],"categories":[],"categories_nodes":[],"categories_segments":[],"categories_sizes":[],"default_left":[0,0,0,0,0,0,0,0,0,0,0,0,0,0,0,0,0,0,0,0,0,0,0,0,0,0,0],"id":40,"left_children":[1,3,5,7,9,11,13,-1,15,-1,-1,17,19,21,-1,-1,23,-1,-1,25,-1,-1,-1,-1,-1,-1,-1],"loss_changes":[2.4438025E1,1.7317017E1,1.0666072E1,1.0088006E1,5.883766E0,1.0537844E1,6.4661503E0,0E0,6.817343E0,0E0,0E0,7.066825E0,8.415258E0,6.509096E0,0E0,0E0,8.981036E0,0E0,0E0,6.413851E0,0E0,0E0,0E0,0E0,0E0,0E0,0E0],"parents":[2147483647,0,0,1,1,2,2,3,3,4,4,5,5,6,6,8,8,11,11,12,12,13,13,16,16,19,19],"right_children":[2,4,6,8,10,12,14,-1,16,-1,-1,18,20,22,-1,-1,24,-1,-1,26,-1,-1,-1,-1,-1,-1,-1],"split_conditions":[4.29E0,3.51E0,3.17E-1,2.98E-1,2.2272047E-1,1.1604939E0,5.06E0,1.2235784E-2,5.59E0,3.1051165E-3,1.0357878E-2,-7E-1,2.54E0,7.04E0,-1.0725734E-2,-3.4363996E-3,6.38E0,1.0011429E-2,-5.205251E-3,4.47E0,-1.6801732E-2,-4.567208E-3,1.1526458E-2,9.4735343E-4,1.7635172E-2,-4.3262416E-3,8.128962E-3],"split_indices":[66,20,1,1,73,37,42,0,77,0,0,63,72,54,0,0,54,0,0,66,0,0,0,0,0,0,0],"split_type":[0,0,0,0,0,0,0,0,0,0,0,0,0,0,0,0,0,0,0,0,0,0,0,0,0,0,0],"sum_hessian":[3.2143743E3,1.7371868E3,1.4771874E3,1.2049117E3,5.322751E2,6.755836E2,8.016038E2,7.362459E1,1.1312871E3,1.9383742E2,3.3843768E2,3.6421527E2,3.1136838E2,6.0657733E2,1.9502644E2,4.2850604E2,7.0278107E2,3.456969E1,3.2964557E2,2.946787E2,1.6689676E1,5.801993E2,2.637804E1,6.681353E2,3.4645744E1,5.3280384E1,2.4139833E2],"tree_param":{"num_deleted":"0","num_feature":"80","num_nodes":"27","size_leaf_vector":"1"}},{"base_weights":[9.1148796E-4,-1.0419121E-1,7.5158596E-2,-1.775904E-1,2.0043487E-3,1.4628467E-1,-3.6788292E-2,-8.182104E-4,-2.5905934E-1,-3.8258845E-3,3.0089393E-3,6.9709875E-2,8.37465E-3,-7.526988E-2,8.466867E-3,-4.2440724E-3,-1.1812157E-2,4.4112466E-2,1.4092489E-2,-1.0091951E-3,-8.766476E-3,-1.0166578E-3,5.6158057E-3],"categories":[],"categories_nodes":[],"categories_segments":[],"categories_sizes":[],"default_left":[0,0,0,0,0,1,1,0,0,0,0,0,0,0,0,0,0,0,0,0,0,0,0],"id":41,"left_children":[1,3,5,7,9,11,13,-1,15,-1,-1,17,-1,19,-1,-1,-1,21,-1,-1,-1,-1,-1],"loss_changes":[2.5564854E1,1.0580559E1,1.5308096E1,9.958815E0,5.8903337E0,9.628914E0,8.498693E0,0E0,6.6357193E0,0E0,0E0,6.280887E0,0E0,5.6244917E0,0E0,0E0,0E0,6.1364093E0,0E0,0E0,0E0,0E0,0E0],"parents":[2147483647,0,0,1,1,2,2,3,3,4,4,5,5,6,6,8,8,11,11,13,13,17,17],"right_children":[2,4,6,8,10,12,14,-1,16,-1,-1,18,-1,20,-1,-1,-1,22,-1,-1,-1,-1,-1],"split_conditions":[3.9E0,1.7E0,4.48E0,8.2904994E-2,4.4814816E0,4.34E0,5.117284E0,-8.182104E-4,4.5493827E0,-3.8258845E-3,3.0089393E-3,1.7E0,8.37465E-3,5.14E0,8.466867E-3,-4.2440724E-3,-1.1812157E-2,4.765432E0,1.4092489E-2,-1.0091951E-3,-8.766476E-3,-1.0166578E-3,5.6158057E-3],"split_indices":[66,63,54,23,11,44,11,0,38,0,0,67,0,15,0,0,0,11,0,0,0,0,0],"split_type":[0,0,0,0,0,0,0,0,0,0,0,0,0,0,0,0,0,0,0,0,0,0,0],"sum_hessian":[3.2692048E3,1.352694E3,1.9165109E3,7.992978E2,5.533962E2,1.171822E3,7.4468884E2,2.79218E2,5.2007983E2,2.3770757E2,3.1568857E2,6.8684064E2,4.8498148E2,6.599651E2,8.472371E1,2.2675555E2,2.9332425E2,6.434011E2,4.3439472E1,5.3684674E2,1.2311834E2,4.043395E2,2.3906163E2],"tree_param":{"num_deleted":"0","num_feature":"80","num_nodes":"23","size_leaf_vector":"1"}},{"base_weights":[-1.9241126E-2,5.5541497E-2,-1.2234708E-1,1.2370556E-2,6.539947E-3,-2.5695992E-1,-2.167337E-2,-9.38688E-2,7.928581E-2,-1.5604099E-2,-6.23191E-3,5.018569E-3,-8.0544695E-2,-9.161989E-3,-2.3894686E-2,4.567497E-2,1.2959465E-2,-8.723709E-3,-1.5577656E-2,-1.6958041E-2,2.537231E-4,9.226512E-3,1.1375191E-3,-1.41547E-2,6.085904E-4,-1.6341708E-3,5.5104443E-3],"categories":[],"categories_nodes":[],"categories_segments":[],"categories_sizes":[],"default_left":[1,0,1,0,0,0,0,0,0,0,0,0,0,0,1,1,0,0,0,0,0,0,1,0,0,0,0],"id":42,"left_children":[1,3,5,7,-1,9,11,13,15,-1,-1,-1,17,-1,19,21,-1,-1,23,-1,-1,-1,25,-1,-1,-1,-1],"loss_changes":[2.4524315E1,1.1344364E1,1.8096361E1,1.010541E1,0E0,8.210716E0,7.894274E0,7.041799E0,9.150543E0,0E0,0E0,0E0,6.861023E0,0E0,6.2806664E0,8.232027E0,0E0,0E0,6.0987506E0,0E0,0E0,0E0,5.640581E0,0E0,0E0,0E0,0E0],"parents":[2147483647,0,0,1,1,2,2,3,3,5,5,6,6,7,7,8,8,12,12,14,14,15,15,18,18,22,22],"right_children":[2,4,6,8,-1,10,12,14,16,-1,-1,-1,18,-1,20,22,-1,-1,24,-1,-1,-1,26,-1,-1,-1,-1],"split_conditions":[4.29E0,5.02E0,1.28E0,1.1E0,6.539947E-3,5.01E0,0E0,2.28E0,6.59E0,-1.5604099E-2,-6.23191E-3,5.018569E-3,6.94E-1,-9.161989E-3,3.37E0,3.03E-1,1.2959465E-2,-8.723709E-3,2.92E0,-1.6958041E-2,2.537231E-4,9.226512E-3,7.68E-1,-1.41547E-2,6.085904E-4,-1.6341708E-3,5.5104443E-3],"split_indices":[42,54,16,75,0,77,63,59,65,0,0,0,51,0,15,1,0,0,54,0,0,0,30,0,0,0,0],"split_type":[0,0,0,0,0,0,0,0,0,0,0,0,0,0,0,0,0,0,0,0,0,0,0,0,0,0,0],"sum_hessian":[3.173606E3,1.8397212E3,1.3338846E3,1.4144845E3,4.2523676E2,5.6902637E2,7.6485834E2,5.4594904E2,8.6853546E2,1.3306245E2,4.359639E2,1.9242122E2,5.724371E2,1.4850256E2,3.9744647E2,7.8688E2,8.1655426E1,1.4746942E2,4.2496768E2,2.2131168E1,3.7531528E2,1.2377192E2,6.631081E2,3.0491507E1,3.9447617E2,5.0887582E2,1.5423228E2],"tree_param":{"num_deleted":"0","num_feature":"80","num_nodes":"27","size_leaf_vector":"1"}},{"base_weights":[-1.3218896E-4,1.3681601E-1,-6.5643944E-2,1.0072797E-2,6.954176E-2,1.9255925E-3,-1.5489292E-1,-1.0348299E-1,4.316708E-3,1.8294951E-2,-1.2076498E-2,-6.9896944E-2,-2.5375798E-1,-8.75686E-3,4.286585E-3,7.3117693E-3,-1.1265884E-2,-7.907305E-3,3.740965E-5,-2.601995E-3,-1.1159963E-2,2.1028912E-2,-6.7168274E-3,-1.2477482E-2,8.770553E-3,1.0530089E-2,-3.716983E-2,-5.7083843E-3,6.0620235E-4],"categories":[],"categories_nodes":[],"categories_segments":[],"categories_sizes":[],"default_left":[0,1,0,0,1,1,1,0,0,0,0,0,0,0,0,0,1,0,0,0,0,1,0,0,0,0,0,0,0],"id":43,"left_children":[1,3,5,-1,7,9,11,13,-1,15,-1,17,19,-1,-1,-1,21,-1,-1,-1,-1,23,-1,25,-1,-1,27,-1,-1],"loss_changes":[2.9338108E1,1.1939167E1,1.3352042E1,0E0,8.093631E0,7.62738E0,7.969509E0,7.651887E0,0E0,7.3055406E0,0E0,6.252836E0,6.426565E0,0E0,0E0,0E0,6.608804E0,0E0,0E0,0E0,0E0,7.4884367E0,0E0,6.596004E0,0E0,0E0,5.663452E0,0E0,0E0],"parents":[2147483647,0,0,1,1,2,2,4,4,5,5,6,6,7,7,9,9,11,11,12,12,16,16,21,21,23,23,26,26],"right_children":[2,4,6,-1,8,10,12,14,-1,16,-1,18,20,-1,-1,-1,22,-1,-1,-1,-1,24,-1,26,-1,-1,28,-1,-1],"split_conditions":[5E-1,3.87E0,4.31E0,1.0072797E-2,3.96E0,1.5864197E0,4.36E0,8.356592E-2,4.316708E-3,2.78E0,-1.2076498E-2,1.31E0,4.296296E0,-8.75686E-3,4.286585E-3,7.3117693E-3,9.714004E-2,-7.907305E-3,3.740965E-5,-2.601995E-3,-1.1159963E-2,1.89E-1,-6.7168274E-3,6.89E-1,8.770553E-3,1.0530089E-2,9.1E-1,-5.7083843E-3,6.0620235E-4],"split_indices":[75,15,56,0,42,37,17,9,0,54,0,60,41,0,0,0,36,0,0,0,0,5,0,51,0,0,60,0,0],"split_type":[0,0,0,0,0,0,0,0,0,0,0,0,0,0,0,0,0,0,0,0,0,0,0,0,0,0,0,0,0],"sum_hessian":[3.263509E3,1.0549403E3,2.2085688E3,2.9859323E2,7.563471E2,1.2578113E3,9.5075745E2,1.9717642E2,5.5917065E2,1.2063936E3,5.1417755E1,5.135789E2,4.3717847E2,1.1638379E2,8.0792625E1,1.515721E2,1.0548215E3,1.5020044E2,3.633785E2,1.4397896E2,2.9319952E2,9.045751E2,1.5024643E2,7.972987E2,1.07276344E2,5.326689E1,7.440318E2,2.1488235E2,5.291495E2],"tree_param":{"num_deleted":"0","num_feature":"80","num_nodes":"29","size_leaf_vector":"1"}},