{"learner":{"attributes":{"best_iteration":"129","best_score":"0.421518054532056"},"feature_names":[],"feature_types":[],"gradient_booster":{"model":{"cats":{"enc":[],"feature_segments":[],"sorted_idx":[]},"gbtree_model_param":{"num_parallel_tree":"1","num_trees":"230"},"iteration_indptr":[0,1,2,3,4,5,6,7,8,9,10,11,12,13,14,15,16,17,18,19,20,21,22,23,24,25,26,27,28,29,30,31,32,33,34,35,36,37,38,39,40,41,42,43,44,45,46,47,48,49,50,51,52,53,54,55,56,57,58,59,60,61,62,63,64,65,66,67,68,69,70,71,72,73,74,75,76,77,78,79,80,81,82,83,84,85,86,87,88,89,90,91,92,93,94,95,96,97,98,99,100,101,102,103,104,105,106,107,108,109,110,111,112,113,114,115,116,117,118,119,120,121,122,123,124,125,126,127,128,129,130,131,132,133,134,135,136,137,138,139,140,141,142,143,144,145,146,147,148,149,150,151,152,153,154,155,156,157,158,159,160,161,162,163,164,165,166,167,168,169,170,171,172,173,174,175,176,177,178,179,180,181,182,183,184,185,186,187,188,189,190,191,192,193,194,195,196,197,198,199,200,201,202,203,204,205,206,207,208,209,210,211,212,213,214,215,216,217,218,219,220,221,222,223,224,225,226,227,228,229,230],"tree_info":[0,0,0,0,0,0,0,0,0,0,0,0,0,0,0,0,0,0,0,0,0,0,0,0,0,0,0,0,0,0,0,0,0,0,0,0,0,0,0,0,0,0,0,0,0,0,0,0,0,0,0,0,0,0,0,0,0,0,0,0,0,0,0,0,0,0,0,0,0,0,0,0,0,0,0,0,0,0,0,0,0,0,0,0,0,0,0,0,0,0,0,0,0,0,0,0,0,0,0,0,0,0,0,0,0,0,0,0,0,0,0,0,0,0,0,0,0,0,0,0,0,0,0,0,0,0,0,0,0,0,0,0,0,0,0,0,0,0,0,0,0,0,0,0,0,0,0,0,0,0,0,0,0,0,0,0,0,0,0,0,0,0,0,0,0,0,0,0,0,0,0,0,0,0,0,0,0,0,0,0,0,0,0,0,0,0,0,0,0,0,0,0,0,0,0,0,0,0,0,0,0,0,0,0,0,0,0,0,0,0,0,0,0,0,0,0,0,0,0,0,0,0,0,0,0,0,0,0,0,0],"trees":[{"base_weights":[1.6735088E-2,-1.4726757E-1,1.858033E-1,2.7968097E-1,-2.2408625E-1,1.2899704E-1,2.1297313E-2,3.770484E-3,2.4896566E-2,-6.39453E-3,-1.9698095E-2,2.6486737E-3,1.9244643E-2],"categories":[],"categories_nodes":[],"categories_segments":[],"categories_sizes":[],"default_left":[0,0,1,1,0,0,0,0,0,0,0,0,0],"id":0,"left_children":[1,3,5,7,9,11,-1,-1,-1,-1,-1,-1,-1],"loss_changes":[4.9376705E1,2.9684412E1,2.225834E1,1.0610119E1,9.464035E0,1.7367365E1,0E0,0E0,0E0,0E0,0E0,0E0,0E0],"parents":[2147483647,0,0,1,1,2,2,3,3,4,4,5,5],"right_children":[2,4,6,8,10,12,-1,-1,-1,-1,-1,-1,-1],"split_conditions":[4.2E0,-2E-1,2.62E-1,1.2962962E0,2.597859E-1,2.2E0,2.1297313E-2,3.770484E-3,2.4896566E-2,-6.39453E-3,-1.9698095E-2,2.6486737E-3,1.9244643E-2],"split_indices":[66,63,0,10,22,72,0,0,0,0,0,0,0],"split_type":[0,0,0,0,0,0,0,0,0,0,0,0,0],"sum_hessian":[1.7764703E3,9.012699E2,8.752005E2,1.3703418E2,7.642357E2,7.769904E2,9.8210075E1,1.008346E2,3.619958E1,6.9877014E2,6.5465614E1,6.981562E2,7.88342E1],"tree_param":{"num_deleted":"0","num_feature":"81","num_nodes":"13","size_leaf_vector":"1"}},{"base_weights":[-2.9499822E-3,-1.4890686E-1,2.3464449E-1,1.7221898E-1,-2.4380589E-1,2.0231783E-1,3.398996E-2,1.6209079E-3,1.6428854E-2,-1.0366028E-2,4.8085656E-3,2.0525582E-2,4.624993E-3],"categories":[],"categories_nodes":[],"categories_segments":[],"categories_sizes":[],"default_left":[0,0,0,0,1,0,0,0,0,0,0,0,0],"id":1,"left_children":[1,3,5,7,9,11,-1,-1,-1,-1,-1,-1,-1],"loss_changes":[6.1328136E1,3.3444267E1,1.6894836E1,9.7897835E0,2.101567E1,1.7102205E1,0E0,0E0,0E0,0E0,0E0,0E0,0E0],"parents":[2147483647,0,0,1,1,2,2,3,3,4,4,5,5],"right_children":[2,4,6,8,10,12,-1,-1,-1,-1,-1,-1,-1],"split_conditions":[4.52E0,1E-1,1.95E0,4.685185E0,2.59E-1,8E0,3.398996E-2,1.6209079E-3,1.6428854E-2,-1.0366028E-2,4.8085656E-3,2.0525582E-2,4.624993E-3],"split_indices":[54,75,55,14,0,80,0,0,0,0,0,0,0],"split_type":[0,0,0,0,0,0,0,0,0,0,0,0,0],"sum_hessian":[1.764932E3,1.0937708E3,6.711613E2,2.4907367E2,8.44697E2,6.447112E2,2.6450089E1,1.793187E2,6.975498E1,7.2507336E2,1.1962364E2,8.814701E1,5.565642E2],"tree_param":{"num_deleted":"0","num_feature":"81","num_nodes":"13","size_leaf_vector":"1"}},{"base_weights":[-2.96998E-3,-1.2841584E-1,2.4667622E-1,-2.6536918E-1,1.5826253E-2,2.16912E-1,2.8417852E-2,-1.1048492E-3,-1.2923718E-2,-4.241451E-3,6.887576E-3,6.4187516E-3,2.7171856E-2],"categories":[],"categories_nodes":[],"categories_segments":[],"categories_sizes":[],"default_left":[0,0,0,0,1,0,0,0,0,0,0,0,0],"id":2,"left_children":[1,3,5,7,9,11,-1,-1,-1,-1,-1,-1,-1],"loss_changes":[5.57437E1,2.3459377E1,1.0611927E1,1.6706165E1,1.5524181E1,8.845692E0,0E0,0E0,0E0,0E0,0E0,0E0,0E0],"parents":[2147483647,0,0,1,1,2,2,3,3,4,4,5,5],"right_children":[2,4,6,8,10,12,-1,-1,-1,-1,-1,-1,-1],"split_conditions":[4.67E0,4.23E0,1.95E0,8E0,4.6790123E0,3.2408574E-1,2.8417852E-2,-1.1048492E-3,-1.2923718E-2,-4.241451E-3,6.887576E-3,6.4187516E-3,2.7171856E-2],"split_indices":[54,66,55,80,11,73,0,0,0,0,0,0,0],"split_type":[0,0,0,0,0,0,0,0,0,0,0,0,0],"sum_hessian":[1.7763511E3,1.1827621E3,5.935889E2,6.0720374E2,5.7555835E2,5.659182E2,2.7670713E1,2.0541127E2,4.0179248E2,3.2818793E2,2.473704E2,5.4227496E2,2.364322E1],"tree_param":{"num_deleted":"0","num_feature":"81","num_nodes":"13","size_leaf_vector":"1"}},{"base_weights":[7.0645353E-3,-1.1807151E-1,2.1494849E-1,-2.4108855E-1,5.0582226E-2,1.516904E-1,5.845532E-1,-2.6168562E-2,-6.624446E-3,7.4388734E-3,-5.079701E-3,7.7708205E-3,-4.969942E-3,2.7591087E-2,-0E0],"categories":[],"categories_nodes":[],"categories_segments":[],"categories_sizes":[],"default_left":[0,1,0,0,0,0,1,0,0,0,0,0,0,0,0],"id":3,"left_children":[1,3,5,7,9,11,13,-1,-1,-1,-1,-1,-1,-1,-1],"loss_changes":[4.6055046E1,2.2948149E1,1.5556883E1,1.5215145E1,1.605105E1,1.3525486E1,1.3458443E1,0E0,0E0,0E0,0E0,0E0,0E0,0E0,0E0],"parents":[2147483647,0,0,1,1,2,2,3,3,4,4,5,5,6,6],"right_children":[2,4,6,8,10,12,14,-1,-1,-1,-1,-1,-1,-1,-1],"split_conditions":[4.51E0,4.4814816E0,1.68E0,2.54E0,1.4E0,3E0,1.05E1,-2.6168562E-2,-6.624446E-3,7.4388734E-3,-5.079701E-3,7.7708205E-3,-4.969942E-3,2.7591087E-2,-0E0],"split_indices":[54,14,55,54,75,75,13,0,0,0,0,0,0,0,0],"split_type":[0,0,0,0,0,0,0,0,0,0,0,0,0,0,0],"sum_hessian":[1.7653645E3,1.1015737E3,6.637908E2,6.374747E2,4.6409906E2,5.6739075E2,9.64E1,4.8209415E1,5.8926526E2,2.5189175E2,2.122073E2,4.492719E2,1.1811886E2,6.8905815E1,2.7494184E1],"tree_param":{"num_deleted":"0","num_feature":"81","num_nodes":"15","size_leaf_vector":"1"}},{"base_weights":[1.8517363E-3,-1.8223451E-2,2.458217E-2,2.6950687E-1,-5.3737674E-2,1.6988814E-2,-8.5960294E-4,-9.065353E-3,2.910114E-4],"categories":[],"categories_nodes":[],"categories_segments":[],"categories_sizes":[],"default_left":[0,0,0,0,0,0,0,0,0],"id":4,"left_children":[1,3,-1,5,7,-1,-1,-1,-1],"loss_changes":[2.6340492E1,1.7740854E1,0E0,1.3307241E1,2.0817745E1,0E0,0E0,0E0,0E0],"parents":[2147483647,0,0,1,1,3,3,4,4],"right_children":[2,4,-1,6,8,-1,-1,-1,-1],"split_conditions":[1.81E0,-4E-1,2.458217E-2,1.7E1,9.3E-1,1.6988814E-2,-8.5960294E-4,-9.065353E-3,2.910114E-4],"split_indices":[55,75,0,76,60,0,0,0,0],"split_type":[0,0,0,0,0,0,0,0,0],"sum_hessian":[1.7771448E3,1.7294286E3,4.7716213E1,1.8936836E2,1.5400602E3,1.0563893E2,8.372942E1,3.4619775E2,1.1938624E3],"tree_param":{"num_deleted":"0","num_feature":"81","num_nodes":"9","size_leaf_vector":"1"}},{"base_weights":[-1.5161357E-2,3.437773E-1,-7.996359E-2,2.7614412E-1,3.4944057E-2,2.3141043E-1,-1.57559E-1,1.8200235E-2,3.119251E-3,2.7645528E-3,1.9967346E-2,-4.620059E-3,-2.1815503E-2],"categories":[],"categories_nodes":[],"categories_segments":[],"categories_sizes":[],"default_left":[0,0,0,0,0,0,0,0,0,0,0,0,0],"id":5,"left_children":[1,3,5,7,-1,9,11,-1,-1,-1,-1,-1,-1],"loss_changes":[4.141087E1,1.2779179E1,3.6461647E1,1.20180855E1,0E0,1.6216082E1,1.2092051E1,0E0,0E0,0E0,0E0,0E0,0E0],"parents":[2147483647,0,0,1,1,2,2,3,3,5,5,6,6],"right_children":[2,4,6,8,-1,10,12,-1,-1,-1,-1,-1,-1],"split_conditions":[-2E-1,1.93E0,0E0,8.01E0,3.4944057E-2,4.45679E0,5.6E0,1.8200235E-2,3.119251E-3,2.7645528E-3,1.9967346E-2,-4.620059E-3,-2.1815503E-2],"split_indices":[63,55,75,70,0,41,75,0,0,0,0,0,0],"split_type":[0,0,0,0,0,0,0,0,0,0,0,0,0],"sum_hessian":[1.77607E3,2.711035E2,1.5049664E3,2.4748463E2,2.3618849E1,2.9973276E2,1.2052336E3,1.0089613E2,1.465885E2,2.1261113E2,8.7121635E1,1.1577316E3,4.750209E1],"tree_param":{"num_deleted":"0","num_feature":"81","num_nodes":"13","size_leaf_vector":"1"}},{"base_weights":[-1.7105002E-2,-6.775303E-2,2.9801443E-1,-2.6200712E-1,2.751925E-3,5.6210804E-1,5.819185E-2,-6.06798E-3,-2.2311874E-2,3.2825305E-3,-4.602374E-3,2.9697485E-2,9.036583E-3,-1.5199505E-2,7.933289E-3],"categories":[],"categories_nodes":[],"categories_segments":[],"categories_sizes":[],"default_left":[0,0,0,0,0,0,1,0,0,0,0,0,0,0,0],"id":6,"left_children":[1,3,5,7,9,11,13,-1,-1,-1,-1,-1,-1,-1,-1],"loss_changes":[2.8317781E1,2.099081E1,1.548872E1,1.3356495E1,1.4842269E1,1.0861649E1,1.1824856E1,0E0,0E0,0E0,0E0,0E0,0E0,0E0,0E0],"parents":[2147483647,0,0,1,1,2,2,3,3,4,4,5,5,6,6],"right_children":[2,4,6,8,10,12,14,-1,-1,-1,-1,-1,-1,-1,-1],"split_conditions":[5.27E0,3.63E0,1.1E1,1.92E1,7.35E-1,-3E-1,6.89E-1,-6.06798E-3,-2.2311874E-2,3.2825305E-3,-4.602374E-3,2.9697485E-2,9.036583E-3,-1.5199505E-2,7.933289E-3],"split_indices":[56,68,64,53,24,63,3,0,0,0,0,0,0,0,0],"split_type":[0,0,0,0,0,0,0,0,0,0,0,0,0,0,0],"sum_hessian":[1.7690984E3,1.5247034E3,2.4439503E2,4.064998E2,1.1182036E3,1.1586745E2,1.2852759E2,3.3812592E2,6.837388E1,6.6655774E2,4.5164587E2,5.5026543E1,6.0840908E1,3.2877934E1,9.564966E1],"tree_param":{"num_deleted":"0","num_feature":"81","num_nodes":"15","size_leaf_vector":"1"}},{"base_weights":[-1.5532789E-2,-1.680695E-1,1.5876074E-1,-2.7551848E-1,-1.1116069E-2,1.2421857E-1,7.093591E-1,-1.02291005E-2,1.5779858E-2,9.743643E-3,-5.689323E-3,-2.8441318E-3,6.777025E-3,3.886294E-3,4.0360853E-2],"categories":[],"categories_nodes":[],"categories_segments":[],"categories_sizes":[],"default_left":[0,1,0,1,0,0,1,0,0,0,0,0,0,0,0],"id":7,"left_children":[1,3,5,7,9,11,13,-1,-1,-1,-1,-1,-1,-1,-1],"loss_changes":[4.7514378E1,1.6038113E1,1.5887032E1,1.2021297E1,1.8511364E1,1.2665189E1,1.4132149E1,0E0,0E0,0E0,0E0,0E0,0E0,0E0,0E0],"parents":[2147483647,0,0,1,1,2,2,3,3,4,4,5,5,6,6],"right_children":[2,4,6,8,10,12,14,-1,-1,-1,-1,-1,-1,-1,-1],"split_conditions":[4.27E0,4.5061727E0,7.44E0,1.034327E-1,8.5E0,3.64E0,2.1702865E-1,-1.02291005E-2,1.5779858E-2,9.743643E-3,-5.689323E-3,-2.8441318E-3,6.777025E-3,3.886294E-3,4.0360853E-2],"split_indices":[54,14,54,36,80,68,22,0,0,0,0,0,0,0,0],"split_type":[0,0,0,0,0,0,0,0,0,0,0,0,0,0,0],"sum_hessian":[1.7829473E3,9.5131793E2,8.3162933E2,5.640181E2,3.872998E2,7.830348E2,4.8594543E1,5.437096E2,2.03085E1,1.3297435E2,2.5432544E2,2.1054964E2,5.724851E2,2.2204517E1,2.6390026E1],"tree_param":{"num_deleted":"0","num_feature":"81","num_nodes":"15","size_leaf_vector":"1"}},{"base_weights":[1.1827777E-2,-6.578616E-2,1.9608276E-1,-1.2090652E-2,-2.5690563E-2,2.7471492E-2,1.5150012E-1,-2.2959635E-3,5.8757635E-3,5.944397E-4,9.84096E-3],"categories":[],"categories_nodes":[],"categories_segments":[],"categories_sizes":[],"default_left":[0,0,0,0,0,0,0,0,0,0,0],"id":8,"left_children":[1,3,5,-1,7,-1,9,-1,-1,-1,-1],"loss_changes":[2.552797E1,1.4741887E1,1.4645517E1,0E0,9.417592E0,0E0,9.280346E0,0E0,0E0,0E0,0E0],"parents":[2147483647,0,0,1,1,2,2,4,4,6,6],"right_children":[2,4,6,-1,8,-1,10,-1,-1,-1,-1],"split_conditions":[1.47E0,1.06E0,5E0,-1.2090652E-2,1.42E0,2.7471492E-2,2.2503726E-1,-2.2959635E-3,5.8757635E-3,5.944397E-4,9.84096E-3],"split_indices":[60,67,76,0,55,0,22,0,0,0,0],"split_type":[0,0,0,0,0,0,0,0,0,0,0],"sum_hessian":[1.7775674E3,1.2501914E3,5.27376E2,1.4970094E2,1.1004905E3,3.492643E1,4.9244955E2,9.085692E2,1.919213E2,2.531063E2,2.3934325E2],"tree_param":{"num_deleted":"0","num_feature":"81","num_nodes":"11","size_leaf_vector":"1"}},{"base_weights":[2.5633581E-2,-6.1534204E-2,2.2608225E-1,-3.695246E-2,-2.8017754E-2,1.7650245E-1,2.5876258E-2,-2.522008E-3,1.24516515E-2,3.4931952E-3,1.7626315E-2],"categories":[],"categories_nodes":[],"categories_segments":[],"categories_sizes":[],"default_left":[0,0,1,0,0,0,0,0,0,0,0],"id":9,"left_children":[1,3,5,7,-1,9,-1,-1,-1,-1,-1],"loss_changes":[3.1046476E1,2.3475124E1,1.4497084E1,1.8540588E1,0E0,1.2471651E1,0E0,0E0,0E0,0E0,0E0],"parents":[2147483647,0,0,1,1,2,2,3,3,5,5],"right_children":[2,4,6,8,-1,10,-1,-1,-1,-1,-1],"split_conditions":[1.38E0,7.72E-1,5.012346E0,6.34E0,-2.8017754E-2,1.68E0,2.5876258E-2,-2.522008E-3,1.24516515E-2,3.4931952E-3,1.7626315E-2],"split_indices":[55,51,14,66,0,55,0,0,0,0,0],"split_type":[0,0,0,0,0,0,0,0,0,0,0],"sum_hessian":[1.770127E3,1.2331844E3,5.3694244E2,1.195456E3,3.772838E1,4.9247507E2,4.4467377E1,1.0939589E3,1.0149723E2,4.0768243E2,8.479264E1],"tree_param":{"num_deleted":"0","num_feature":"81","num_nodes":"11","size_leaf_vector":"1"}},{"base_weights":[1.4612504E-2,-1.0433367E-1,1.3793373E-1,2.0014037E-1,-1.758838E-1,1.09444946E-1,2.897642E-2,-1.4133954E-2,1.1742519E-2,-3.1350894E-5,-1.0657412E-2,1.2363716E-4,9.856676E-3],"categories":[],"categories_nodes":[],"categories_segments":[],"categories_sizes":[],"default_left":[0,0,0,0,0,0,0,0,0,0,0,0,0],"id":10,"left_children":[1,3,5,7,9,11,-1,-1,-1,-1,-1,-1,-1],"loss_changes":[2.6128782E1,1.9769772E1,1.805592E1,1.5998626E1,1.7999737E1,1.629311E1,0E0,0E0,0E0,0E0,0E0,0E0,0E0],"parents":[2147483647,0,0,1,1,2,2,3,3,4,4,5,5],"right_children":[2,4,6,8,10,12,-1,-1,-1,-1,-1,-1,-1],"split_conditions":[4.22E0,7.02E-1,8.31E0,2.88E0,8.5E0,4.52E0,2.897642E-2,-1.4133954E-2,1.1742519E-2,-3.1350894E-5,-1.0657412E-2,1.2363716E-4,9.856676E-3],"split_indices":[66,24,66,66,80,54,0,0,0,0,0,0,0],"split_type":[0,0,0,0,0,0,0,0,0,0,0,0,0],"sum_hessian":[1.7754912E3,9.031231E2,8.7236804E2,1.7135011E2,7.31773E2,8.397058E2,3.2662254E1,3.285005E1,1.3850006E2,3.266562E2,4.051168E2,5.330976E2,3.066082E2],"tree_param":{"num_deleted":"0","num_feature":"81","num_nodes":"13","size_leaf_vector":"1"}},{"base_weights":[4.155297E-3,1.944463E-1,-7.711798E-2,-2.456438E-2,2.358993E-1,-2.0828173E-1,9.010064E-2,4.6912287E-3,1.5683874E-2,-9.0505695E-3,5.227557E-3,1.2853596E-3,1.3374083E-2],"categories":[],"categories_nodes":[],"categories_segments":[],"categories_sizes":[],"default_left":[0,0,0,0,1,1,0,0,0,0,0,0,0],"id":11,"left_children":[1,3,5,-1,7,9,11,-1,-1,-1,-1,-1,-1],"loss_changes":[2.7361448E1,2.0426008E1,2.7167E1,0E0,1.1235441E1,1.53195915E1,8.683874E0,0E0,0E0,0E0,0E0,0E0,0E0],"parents":[2147483647,0,0,1,1,2,2,4,4,5,5,6,6],"right_children":[2,4,6,-1,8,10,12,-1,-1,-1,-1,-1,-1],"split_conditions":[4E-1,3.65E0,4.33E0,-2.456438E-2,4.45679E0,2.59E-1,6.58E0,4.6912287E-3,1.5683874E-2,-9.0505695E-3,5.227557E-3,1.2853596E-3,1.3374083E-2],"split_indices":[75,68,54,0,41,0,54,0,0,0,0,0,0],"split_type":[0,0,0,0,0,0,0,0,0,0,0,0,0],"sum_hessian":[1.7619708E3,5.278365E2,1.2341344E3,2.2360582E1,5.054759E2,6.9214703E2,5.4198737E2,3.5662946E2,1.4884644E2,5.9383435E2,9.831272E1,4.6422156E2,7.7765785E1],"tree_param":{"num_deleted":"0","num_feature":"81","num_nodes":"13","size_leaf_vector":"1"}},{"base_weights":[2.7536135E-3,3.2081145E-1,-5.3470254E-2,2.5888598E-1,3.2791253E-2,-1.8668827E-1,6.5600105E-2,1.3400721E-2,-8.953156E-4,-9.671208E-4,-1.0461201E-2,8.751138E-3,-1.0916269E-3],"categories":[],"categories_nodes":[],"categories_segments":[],"categories_sizes":[],"default_left":[0,0,0,0,0,0,0,0,0,0,0,0,0],"id":12,"left_children":[1,3,5,7,-1,9,11,-1,-1,-1,-1,-1,-1],"loss_changes":[3.2279533E1,1.0973637E1,2.4288046E1,9.933512E0,0E0,1.4108072E1,1.5443892E1,0E0,0E0,0E0,0E0,0E0,0E0],"parents":[2147483647,0,0,1,1,2,2,3,3,5,5,6,6],"right_children":[2,4,6,8,-1,10,12,-1,-1,-1,-1,-1,-1],"split_conditions":[-2E-1,9E0,4.11E0,1.76E-1,3.2791253E-2,8.5E0,2.87E-1,1.3400721E-2,-8.953156E-4,-9.671208E-4,-1.0461201E-2,8.751138E-3,-1.0916269E-3],"split_indices":[63,54,66,32,0,80,52,0,0,0,0,0,0],"split_type":[0,0,0,0,0,0,0,0,0,0,0,0,0],"sum_hessian":[1.7955608E3,2.7002307E2,1.5255377E3,2.4710469E2,2.291837E1,7.2058594E2,8.0495184E2,1.6649196E2,8.061273E1,3.175257E2,4.0306027E2,2.7037985E2,5.3457196E2],"tree_param":{"num_deleted":"0","num_feature":"81","num_nodes":"13","size_leaf_vector":"1"}},{"base_weights":[-1.0016987E-2,4.9605764E-2,-2.7322665E-1,-1.5110567E-1,1.24693625E-1,-5.049786E-1,-1.3351035E-1,-8.521701E-3,4.001228E-3,1.517198E-3,1.0061449E-2,-2.31759E-2,-8.022029E-4,1.3302368E-2,-7.917905E-3],"categories":[],"categories_nodes":[],"categories_segments":[],"categories_sizes":[],"default_left":[0,0,0,1,0,0,1,0,0,0,0,0,0,0,0],"id":13,"left_children":[1,3,5,7,9,11,13,-1,-1,-1,-1,-1,-1,-1,-1],"loss_changes":[2.8017595E1,2.1895037E1,1.064208E1,1.0934617E1,1.4632189E1,1.0802164E1,1.1201816E1,0E0,0E0,0E0,0E0,0E0,0E0,0E0,0E0],"parents":[2147483647,0,0,1,1,2,2,3,3,4,4,5,5,6,6],"right_children":[2,4,6,8,10,12,14,-1,-1,-1,-1,-1,-1,-1,-1],"split_conditions":[3.1E0,1.02E0,1.5E0,3.25E-1,1.42E0,2.7789047E-1,4.8E0,-8.521701E-3,4.001228E-3,1.517198E-3,1.0061449E-2,-2.31759E-2,-8.022029E-4,1.3302368E-2,-7.917905E-3],"split_indices":[63,72,40,1,55,61,40,0,0,0,0,0,0,0,0],"split_type":[0,0,0,0,0,0,0,0,0,0,0,0,0,0,0],"sum_hessian":[1.7761936E3,1.4477797E3,3.284139E2,3.9352524E2,1.0542545E3,1.22897606E2,2.055163E2,2.8607953E2,1.0744569E2,7.241626E2,3.3009186E2,8.869609E1,3.420151E1,3.279556E1,1.7272075E2],"tree_param":{"num_deleted":"0","num_feature":"81","num_nodes":"15","size_leaf_vector":"1"}},{"base_weights":[-1.3291029E-2,1.4843957E-1,-1.1250969E-1,8.9680515E-2,1.4408228E-2,2.2732003E-1,-1.6220832E-1,4.7067464E-3,-1.0547406E-2,2.6933195E-3,2.2484677E-2,-2.852058E-2,-4.809064E-3],"categories":[],"categories_nodes":[],"categories_segments":[],"categories_sizes":[],"default_left":[0,0,0,0,0,1,0,0,0,0,0,0,0],"id":14,"left_children":[1,3,5,7,-1,9,11,-1,-1,-1,-1,-1,-1],"loss_changes":[2.8557032E1,1.109936E1,1.867614E1,1.1356558E1,0E0,9.127764E0,1.2845919E1,0E0,0E0,0E0,0E0,0E0,0E0],"parents":[2147483647,0,0,1,1,2,2,3,3,5,5,6,6],"right_children":[2,4,6,8,-1,10,12,-1,-1,-1,-1,-1,-1],"split_conditions":[7E-1,6.36E0,-3E-1,1.05E1,1.4408228E-2,4.65E0,2.28E0,4.7067464E-3,-1.0547406E-2,2.6933195E-3,2.2484677E-2,-2.852058E-2,-4.809064E-3],"split_indices":[63,65,75,80,0,38,66,0,0,0,0,0,0],"split_type":[0,0,0,0,0,0,0,0,0,0,0,0,0],"sum_hessian":[1.7745883E3,6.7408014E2,1.100508E3,5.576505E2,1.1642957E2,1.3990646E2,9.606016E2,4.9645422E2,6.1196327E1,1.05278984E2,3.4627487E1,2.6005762E1,9.345958E2],"tree_param":{"num_deleted":"0","num_feature":"81","num_nodes":"13","size_leaf_vector":"1"}},{"base_weights":[-1.8790292E-2,-5.9257712E-2,4.2376465E-1,-1.657707E-1,6.253094E-2,2.9763586E-3,2.3121819E-2,-2.5780222E-3,-1.1918907E-2,3.5022474E-3,-1.1536962E-2],"categories":[],"categories_nodes":[],"categories_segments":[],"categories_sizes":[],"default_left":[0,0,1,0,0,0,0,0,0,0,0],"id":15,"left_children":[1,3,5,7,9,-1,-1,-1,-1,-1,-1],"loss_changes":[3.2263424E1,2.1427696E1,1.3215393E1,1.4765926E1,1.2987289E1,0E0,0E0,0E0,0E0,0E0,0E0],"parents":[2147483647,0,0,1,1,2,2,3,3,4,4],"right_children":[2,4,6,8,10,-1,-1,-1,-1,-1,-1],"split_conditions":[6.29E0,4.285E0,8.57E0,9E0,1.05E1,2.9763586E-3,2.3121819E-2,-2.5780222E-3,-1.1918907E-2,3.5022474E-3,-1.1536962E-2],"split_indices":[54,66,19,80,80,0,0,0,0,0,0],"split_type":[0,0,0,0,0,0,0,0,0,0,0],"sum_hessian":[1.7959485E3,1.6459725E3,1.4997592E2,8.787254E2,7.672472E2,6.6282715E1,8.36932E1,5.968807E2,2.8184476E2,6.9649176E2,7.075541E1],"tree_param":{"num_deleted":"0","num_feature":"81","num_nodes":"11","size_leaf_vector":"1"}},{"base_weights":[2.6751474E-2,-9.3759105E-2,1.6260187E-1,1.3657567E-1,-1.9759543E-1,1.4259516E-1,3.0190589E-2,-9.9359425E-3,9.343561E-3,-1.1398454E-2,-8.472058E-4,3.7643379E-3,2.2005117E-2],"categories":[],"categories_nodes":[],"categories_segments":[],"categories_sizes":[],"default_left":[0,0,0,1,1,1,0,0,0,0,0,0,0],"id":16,"left_children":[1,3,5,7,9,11,-1,-1,-1,-1,-1,-1,-1],"loss_changes":[2.89066E1,2.2390654E1,1.2251959E1,1.7748896E1,1.5619343E1,1.2759651E1,0E0,0E0,0E0,0E0,0E0,0E0,0E0],"parents":[2147483647,0,0,1,1,2,2,3,3,4,4,5,5],"right_children":[2,4,6,8,10,12,-1,-1,-1,-1,-1,-1,-1],"split_conditions":[4.27E0,4E-1,1.83E0,9.8333335E-1,4.4135804E0,5.0864196E0,3.0190589E-2,-9.9359425E-3,9.343561E-3,-1.1398454E-2,-8.472058E-4,3.7643379E-3,2.2005117E-2],"split_indices":[54,75,67,37,14,14,0,0,0,0,0,0,0],"split_type":[0,0,0,0,0,0,0,0,0,0,0,0,0],"sum_hessian":[1.7600762E3,9.320959E2,8.279802E2,2.8912442E2,6.429715E2,8.064473E2,2.1532906E1,7.081558E1,2.1830884E2,3.5322757E2,2.8974393E2,7.611004E2,4.5346867E1],"tree_param":{"num_deleted":"0","num_feature":"81","num_nodes":"13","size_leaf_vector":"1"}},{"base_weights":[5.6431856E-4,1.4941984E-1,-9.060332E-2,-1.0425576E-2,1.9064865E-1,-1.08079305E-2,-3.767388E-2,5.396244E-3,2.6655683E-2,5.6762802E-3,-3.6009476E-3],"categories":[],"categories_nodes":[],"categories_segments":[],"categories_sizes":[],"default_left":[0,0,0,0,0,0,0,0,0,0,0],"id":17,"left_children":[1,3,5,-1,7,-1,9,-1,-1,-1,-1],"loss_changes":[2.4398075E1,1.2995609E1,1.3563768E1,0E0,1.1493364E1,0E0,1.2978443E1,0E0,0E0,0E0,0E0],"parents":[2147483647,0,0,1,1,2,2,4,4,6,6],"right_children":[2,4,6,-1,8,-1,10,-1,-1,-1,-1],"split_conditions":[7E-1,5.53E0,9.1E-1,-1.0425576E-2,1.137E1,-1.08079305E-2,8E0,5.396244E-3,2.6655683E-2,5.6762802E-3,-3.6009476E-3],"split_indices":[63,58,72,0,65,0,80,0,0,0,0],"split_type":[0,0,0,0,0,0,0,0,0,0,0],"sum_hessian":[1.7910284E3,6.809125E2,1.110116E3,5.5691387E1,6.2522107E2,2.0666463E2,9.0345135E2,5.95603E2,2.9618042E1,2.2647134E2,6.7698E2],"tree_param":{"num_deleted":"0","num_feature":"81","num_nodes":"11","size_leaf_vector":"1"}},{"base_weights":[-7.6972945E-3,-4.4663806E-2,3.515751E-1,-8.802786E-3,-9.227945E-3,1.8634954E-1,2.4939489E-2,-2.2970999E-2,6.718022E-5,1.3065937E-2,-6.744115E-3],"categories":[],"categories_nodes":[],"categories_segments":[],"categories_sizes":[],"default_left":[0,0,1,0,0,0,0,0,0,0,0],"id":18,"left_children":[1,3,5,7,-1,9,-1,-1,-1,-1,-1],"loss_changes":[2.3460983E1,1.316596E1,1.054241E1,1.0375922E1,0E0,9.185624E0,0E0,0E0,0E0,0E0,0E0],"parents":[2147483647,0,0,1,1,2,2,3,3,5,5],"right_children":[2,4,6,8,-1,10,-1,-1,-1,-1,-1],"split_conditions":[1.99E0,1.79E1,8.837284E-2,7.839506E-1,-9.227945E-3,5.79E0,2.4939489E-2,-2.2970999E-2,6.718022E-5,1.3065937E-2,-6.744115E-3],"split_indices":[60,53,9,10,0,77,0,0,0,0,0],"split_type":[0,0,0,0,0,0,0,0,0,0,0],"sum_hessian":[1.7603433E3,1.5966763E3,1.6366705E2,1.38158E3,2.1509628E2,1.1536951E2,4.8297543E1,2.185381E1,1.3597262E3,7.6096695E1,3.927281E1],"tree_param":{"num_deleted":"0","num_feature":"81","num_nodes":"11","size_leaf_vector":"1"}},{"base_weights":[-2.5286512E-2,-6.380971E-2,4.8627368E-1,-3.526678E-1,-2.9383978E-2,2.4564678E-2,1.2433697E-1,3.8391007E-3,-1.65927E-2,-6.3764043E-3,9.020205E-4,1.715939E-2,-1.017325E-2],"categories":[],"categories_nodes":[],"categories_segments":[],"categories_sizes":[],"default_left":[0,0,0,0,0,0,0,0,0,0,0,0,0],"id":19,"left_children":[1,3,5,7,9,-1,11,-1,-1,-1,-1,-1,-1],"loss_changes":[3.4691147E1,1.6272667E1,1.0757471E1,1.1484144E1,1.3201003E1,0E0,8.464286E0,0E0,0E0,0E0,0E0,0E0,0E0],"parents":[2147483647,0,0,1,1,2,2,3,3,4,4,6,6],"right_children":[2,4,6,8,10,-1,12,-1,-1,-1,-1,-1,-1],"split_conditions":[6.57E0,2.89E0,1.1E1,3.87E-1,3.64E0,2.4564678E-2,2.95E-1,3.8391007E-3,-1.65927E-2,-6.3764043E-3,9.020205E-4,1.715939E-2,-1.017325E-2],"split_indices":[54,54,64,29,68,0,33,0,0,0,0,0,0],"split_type":[0,0,0,0,0,0,0,0,0,0,0,0,0],"sum_hessian":[1.7546995E3,1.6322661E3,1.2243341E2,1.7312576E2,1.4591404E3,7.284312E1,4.9590298E1,3.9708824E1,1.3341695E2,3.7983044E2,1.0793099E3,2.623414E1,2.3356155E1],"tree_param":{"num_deleted":"0","num_feature":"81","num_nodes":"13","size_leaf_vector":"1"}},{"base_weights":[1.1205209E-2,-8.4740706E-2,1.6649047E-1,1.2703513E-2,-2.1425578E-1,3.1528227E-2,3.8204134E-1,2.3474947E-2,-1.1218257E-3,1.2348963E-2,-8.544352E-3,1.28312465E-2,-1.7680881E-3,1.0164117E-2,3.7601367E-2],"categories":[],"categories_nodes":[],"categories_segments":[],"categories_sizes":[],"default_left":[0,0,0,0,0,0,0,0,0,0,0,0,0,0,0],"id":20,"left_children":[1,3,5,7,9,11,13,-1,-1,-1,-1,-1,-1,-1,-1],"loss_changes":[2.6657463E1,1.3980764E1,1.983968E1,2.0124994E1,1.0995201E1,1.2518335E1,1.5475784E1,0E0,0E0,0E0,0E0,0E0,0E0,0E0,0E0],"parents":[2147483647,0,0,1,1,2,2,3,3,4,4,5,5,6,6],"right_children":[2,4,6,8,10,12,14,-1,-1,-1,-1,-1,-1,-1,-1],"split_conditions":[1.37E0,3.86E0,4.45679E0,1.9886456E-1,1.4E0,8.217611E-2,6.81E0,2.3474947E-2,-1.1218257E-3,1.2348963E-2,-8.544352E-3,1.28312465E-2,-1.7680881E-3,1.0164117E-2,3.7601367E-2],"split_indices":[72,69,41,8,26,50,66,0,0,0,0,0,0,0,0],"split_type":[0,0,0,0,0,0,0,0,0,0,0,0,0,0,0],"sum_hessian":[1.7827269E3,1.1013069E3,6.814199E2,6.27849E2,4.7345792E2,4.1964252E2,2.6177744E2,3.9605576E1,5.8824347E2,2.97638E1,4.4369412E2,8.158138E1,3.3806113E2,2.3645201E2,2.5325415E1],"tree_param":{"num_deleted":"0","num_feature":"81","num_nodes":"15","size_leaf_vector":"1"}},{"base_weights":[-7.536861E-3,-8.8806555E-2,1.2635922E-1,-1.355347E-1,6.240155E-3,2.2746004E-2,9.5421925E-2,-5.1297653E-3,2.0385422E-2,2.026144E-3,2.3272727E-2],"categories":[],"categories_nodes":[],"categories_segments":[],"categories_sizes":[],"default_left":[0,1,0,0,0,0,0,0,0,0,0],"id":21,"left_children":[1,3,5,7,-1,-1,9,-1,-1,-1,-1],"loss_changes":[1.933782E1,1.420172E1,1.142557E1,1.188479E1,0E0,0E0,1.3380098E1,0E0,0E0,0E0,0E0],"parents":[2147483647,0,0,1,1,2,2,3,3,6,6],"right_children":[2,4,6,8,-1,-1,10,-1,-1,-1,-1],"split_conditions":[4.51E0,2.59E-1,1.22E0,6.87E0,6.240155E-3,2.2746004E-2,5.05E0,-5.1297653E-3,2.0385422E-2,2.026144E-3,2.3272727E-2],"split_indices":[54,0,55,68,0,0,69,0,0,0,0],"split_type":[0,0,0,0,0,0,0,0,0,0,0],"sum_hessian":[1.7710798E3,1.1029236E3,6.681562E2,9.4288055E2,1.6004306E2,3.5143745E1,6.3301245E2,9.223376E2,2.054299E1,5.981004E2,3.491205E1],"tree_param":{"num_deleted":"0","num_feature":"81","num_nodes":"11","size_leaf_vector":"1"}},{"base_weights":[2.0749386E-2,-2.5857799E-2,3.0657753E-2,-1.0968417E-2,2.540573E-1,-7.204765E-3,1.6107125E-3,1.3310881E-2,8.539555E-4],"categories":[],"categories_nodes":[],"categories_segments":[],"categories_sizes":[],"default_left":[0,0,0,0,0,0,0,0,0],"id":22,"left_children":[1,-1,3,5,7,-1,-1,-1,-1],"loss_changes":[1.3910856E1,0E0,1.6307812E1,1.762339E1,8.836853E0,0E0,0E0,0E0,0E0],"parents":[2147483647,0,0,2,2,3,3,4,4],"right_children":[2,-1,4,6,8,-1,-1,-1,-1],"split_conditions":[8.8E-1,-2.5857799E-2,5.52E0,3.51E0,9.5E0,-7.204765E-3,1.6107125E-3,1.3310881E-2,8.539555E-4],"split_indices":[67,0,66,56,80,0,0,0,0],"split_type":[0,0,0,0,0,0,0,0,0],"sum_hessian":[1.7624923E3,2.1484026E1,1.7410083E3,1.4670996E3,2.739087E2,3.3003424E2,1.1370654E3,1.688136E2,1.05095085E2],"tree_param":{"num_deleted":"0","num_feature":"81","num_nodes":"9","size_leaf_vector":"1"}},{"base_weights":[-1.2061959E-2,-9.796641E-2,1.3303116E-1,-2.1361038E-1,7.032007E-2,9.698517E-2,2.2036584E-2,-1.615625E-2,-4.7097267E-3,1.2420793E-2,-2.7224035E-3,4.3376535E-3,-2.033733E-2],"categories":[],"categories_nodes":[],"categories_segments":[],"categories_sizes":[],"default_left":[0,1,0,0,0,1,0,0,0,0,0,0,0],"id":23,"left_children":[1,3,5,7,9,11,-1,-1,-1,-1,-1,-1,-1],"loss_changes":[2.209718E1,2.1707073E1,1.2407312E1,1.2956026E1,2.0575901E1,1.385726E1,0E0,0E0,0E0,0E0,0E0,0E0,0E0],"parents":[2147483647,0,0,1,1,2,2,3,3,4,4,5,5],"right_children":[2,4,6,8,10,12,-1,-1,-1,-1,-1,-1,-1],"split_conditions":[4.52E0,7.43E-1,7.56E0,9.3E-1,8.5E0,1.0247525E-1,2.2036584E-2,-1.615625E-2,-4.7097267E-3,1.2420793E-2,-2.7224035E-3,4.3376535E-3,-2.033733E-2],"split_indices":[54,3,54,72,80,36,0,0,0,0,0,0,0],"split_type":[0,0,0,0,0,0,0,0,0,0,0,0,0],"sum_hessian":[1.7672285E3,1.1107643E3,6.5646423E2,6.588938E2,4.5187045E2,6.145172E2,4.1947033E1,1.4224763E2,5.166461E2,1.521636E2,2.9970685E2,5.881969E2,2.6320295E1],"tree_param":{"num_deleted":"0","num_feature":"81","num_nodes":"13","size_leaf_vector":"1"}},{"base_weights":[6.8273623E-3,-2.2852844E-2,4.3533188E-1,-1.3312067E-1,6.844154E-2,-5.8116636E-4,2.156647E-2,-2.2826297E-3,-1.2341635E-2,-4.5165612E-4,7.958769E-3],"categories":[],"categories_nodes":[],"categories_segments":[],"categories_sizes":[],"default_left":[0,0,0,0,1,0,0,0,0,0,0],"id":24,"left_children":[1,3,5,7,9,-1,-1,-1,-1,-1,-1],"loss_changes":[2.280303E1,1.6789425E1,1.0889118E1,1.1505871E1,1.2573441E1,0E0,0E0,0E0,0E0,0E0,0E0],"parents":[2147483647,0,0,1,1,2,2,3,3,4,4],"right_children":[2,4,6,8,10,-1,-1,-1,-1,-1,-1],"split_conditions":[6.63E0,4.04E0,5.65E0,3E0,2.52E-1,-5.8116636E-4,2.156647E-2,-2.2826297E-3,-1.2341635E-2,-4.5165612E-4,7.958769E-3],"split_indices":[54,66,56,63,0,0,0,0,0,0,0],"split_type":[0,0,0,0,0,0,0,0,0,0,0],"sum_hessian":[1.7758529E3,1.6606332E3,1.15219734E2,7.529217E2,9.077115E2,3.574096E1,7.9478775E1,5.8897864E2,1.6394302E2,6.096942E2,2.9801727E2],"tree_param":{"num_deleted":"0","num_feature":"81","num_nodes":"11","size_leaf_vector":"1"}},{"base_weights":[1.5832658E-3,-3.240893E-1,3.7195846E-2,-2.1351282E-2,-1.3229339E-1,8.8328505E-3,3.458607E-1,-1.40817305E-2,9.039592E-3,-2.033763E-3,4.3853717E-3,7.562423E-3,3.3086542E-2],"categories":[],"categories_nodes":[],"categories_segments":[],"categories_sizes":[],"default_left":[0,1,0,0,0,1,0,0,0,0,0,0,0],"id":25,"left_children":[1,3,5,-1,7,9,11,-1,-1,-1,-1,-1,-1],"loss_changes":[2.0720917E1,1.041054E1,1.4100214E1,0E0,1.2679853E1,1.2434443E1,1.0436956E1,0E0,0E0,0E0,0E0,0E0,0E0],"parents":[2147483647,0,0,1,1,2,2,4,4,5,5,6,6],"right_children":[2,4,6,-1,8,10,12,-1,-1,-1,-1,-1,-1],"split_conditions":[2.89E0,3.98E0,6.43E0,-2.1351282E-2,1.3765432E0,4.6790123E0,2.64E-1,-1.40817305E-2,9.039592E-3,-2.033763E-3,4.3853717E-3,7.562423E-3,3.3086542E-2],"split_indices":[54,44,54,0,10,11,27,0,0,0,0,0,0],"split_type":[0,0,0,0,0,0,0,0,0,0,0,0,0],"sum_hessian":[1.7801514E3,1.7487102E2,1.6052803E3,6.635149E1,1.0851952E2,1.4708478E3,1.3443254E2,6.3567287E1,4.495224E1,9.358989E2,5.3494885E2,1.1335365E2,2.1078884E1],"tree_param":{"num_deleted":"0","num_feature":"81","num_nodes":"13","size_leaf_vector":"1"}},{"base_weights":[-7.3657203E-3,2.5885284E-2,-3.418683E-1,1.188134E-2,2.76888E-2,-5.2006704E-1,8.856363E-3,-4.6092735E-4,1.6090332E-2,-2.3431522E-3,-2.5056418E-2],"categories":[],"categories_nodes":[],"categories_segments":[],"categories_sizes":[],"default_left":[0,0,0,0,0,0,0,0,0,0,0],"id":26,"left_children":[1,3,5,7,-1,9,-1,-1,-1,-1,-1],"loss_changes":[1.9659216E1,1.7896744E1,1.7336851E1,1.8893799E1,0E0,1.2366043E1,0E0,0E0,0E0,0E0,0E0],"parents":[2147483647,0,0,1,1,2,2,3,3,5,5],"right_children":[2,4,6,8,-1,10,-1,-1,-1,-1,-1],"split_conditions":[1.05E1,2.64E0,1.92E-1,6.67E0,2.76888E-2,2.9E-1,8.856363E-3,-4.6092735E-4,1.6090332E-2,-2.3431522E-3,-2.5056418E-2],"split_indices":[80,60,32,66,0,33,0,0,0,0,0],"split_type":[0,0,0,0,0,0,0,0,0,0,0],"sum_hessian":[1.752055E3,1.5933606E3,1.5869446E2,1.5662174E3,2.7143148E1,1.2280898E2,3.588547E1,1.4845872E3,8.163029E1,4.111134E1,8.169765E1],"tree_param":{"num_deleted":"0","num_feature":"81","num_nodes":"11","size_leaf_vector":"1"}},{"base_weights":[-2.899573E-3,-1.1606294E-1,1.2254822E-1,-4.1209486E-1,-4.7514137E-2,-1.6330725E-1,1.9228038E-1,-1.9430662E-2,5.133355E-4,4.0757176E-3,-5.701494E-3,-8.8495705E-3,1.7695276E-2,8.362714E-3,-3.906767E-3],"categories":[],"categories_nodes":[],"categories_segments":[],"categories_sizes":[],"default_left":[0,0,0,0,0,1,0,0,0,0,0,0,0,0,0],"id":27,"left_children":[1,3,5,7,9,11,13,-1,-1,-1,-1,-1,-1,-1,-1],"loss_changes":[2.5373411E1,1.905889E1,1.69194E1,1.2542191E1,1.5732517E1,1.1511168E1,1.1825367E1,0E0,0E0,0E0,0E0,0E0,0E0,0E0,0E0],"parents":[2147483647,0,0,1,1,2,2,3,3,4,4,5,5,6,6],"right_children":[2,4,6,8,10,12,14,-1,-1,-1,-1,-1,-1,-1,-1],"split_conditions":[4.26E0,9.1E-1,3.26E0,2.6890758E-1,8.5E0,5E0,1.05E1,-1.9430662E-2,5.133355E-4,4.0757176E-3,-5.701494E-3,-8.8495705E-3,1.7695276E-2,8.362714E-3,-3.906767E-3],"split_indices":[54,72,66,61,80,11,80,0,0,0,0,0,0,0,0],"split_type":[0,0,0,0,0,0,0,0,0,0,0,0,0,0,0],"sum_hessian":[1.7816581E3,9.3737854E2,8.442795E2,1.7562125E2,7.6175726E2,1.6506021E2,6.792193E2,1.2694231E2,4.867894E1,3.1899554E2,4.4276175E2,1.4453674E2,2.052348E1,5.7518915E2,1.0403014E2],"tree_param":{"num_deleted":"0","num_feature":"81","num_nodes":"15","size_leaf_vector":"1"}},{"base_weights":[-2.2044102E-2,-9.8612756E-2,3.6443067E-3,-2.1944518E-1,7.492178E-2,-1.7815942E-2,-4.9775755E-3,-4.4017253E-3,7.371929E-3],"categories":[],"categories_nodes":[],"categories_segments":[],"categories_sizes":[],"default_left":[0,1,0,0,0,0,0,0,0],"id":28,"left_children":[1,3,-1,5,7,-1,-1,-1,-1],"loss_changes":[1.7575457E1,2.3298847E1,0E0,1.4508087E1,1.355019E1,0E0,0E0,0E0,0E0],"parents":[2147483647,0,0,1,1,3,3,4,4],"right_children":[2,4,-1,6,8,-1,-1,-1,-1],"split_conditions":[4.53E0,4.4691358E0,3.6443067E-3,3.37E0,3.68E0,-1.7815942E-2,-4.9775755E-3,-4.4017253E-3,7.371929E-3],"split_indices":[54,14,0,68,18,0,0,0,0],"split_type":[0,0,0,0,0,0,0,0,0],"sum_hessian":[1.7558213E3,1.1066439E3,6.491774E2,6.529069E2,4.53737E2,1.2201279E2,5.3089417E2,1.8641582E2,2.6732117E2],"tree_param":{"num_deleted":"0","num_feature":"81","num_nodes":"9","size_leaf_vector":"1"}},{"base_weights":[-5.732437E-3,5.0618406E-3,-2.6834728E-2,4.612466E-2,-2.0897955E-1,-1.7166955E-3,4.6029864E-3,-1.30305905E-2,-6.68635E-4],"categories":[],"categories_nodes":[],"categories_segments":[],"categories_sizes":[],"default_left":[0,0,0,1,0,0,0,0,0],"id":29,"left_children":[1,3,-1,5,7,-1,-1,-1,-1],"loss_changes":[1.5636832E1,1.5539616E1,0E0,1.3066767E1,9.521162E0,0E0,0E0,0E0,0E0],"parents":[2147483647,0,0,1,1,3,3,4,4],"right_children":[2,4,-1,6,8,-1,-1,-1,-1],"split_conditions":[1.25E1,3.3E0,-2.6834728E-2,2.93E-1,1.29E0,-1.7166955E-3,4.6029864E-3,-1.30305905E-2,-6.68635E-4],"split_indices":[80,63,0,6,67,0,0,0,0],"split_type":[0,0,0,0,0,0,0,0,0],"sum_hessian":[1.785471E3,1.7614246E3,2.4046381E1,1.4786589E3,2.8276572E2,7.1275287E2,7.65906E2,1.4512932E2,1.3763638E2],"tree_param":{"num_deleted":"0","num_feature":"81","num_nodes":"9","size_leaf_vector":"1"}},{"base_weights":[-9.988638E-4,-1.1891862E-1,1.3533972E-1,-2.2808057E-1,3.356737E-2,-4.128176E-3,1.8870436E-1,-3.2691825E-2,-6.6556055E-3,5.98912E-3,-6.825465E-3,1.4421348E-2,4.276195E-3],"categories":[],"categories_nodes":[],"categories_segments":[],"categories_sizes":[],"default_left":[0,0,0,0,0,0,0,0,0,0,0,0,0],"id":30,"left_children":[1,3,5,7,9,-1,11,-1,-1,-1,-1,-1,-1],"loss_changes":[2.8412682E1,1.5820125E1,1.1313622E1,1.2550829E1,1.3549157E1,0E0,1.0032003E1,0E0,0E0,0E0,0E0,0E0,0E0],"parents":[2147483647,0,0,1,1,2,2,3,3,4,4,6,6],"right_children":[2,4,6,8,10,-1,12,-1,-1,-1,-1,-1,-1],"split_conditions":[4.28E0,7.44E-1,3.22E0,2.27E0,9E0,-4.128176E-3,2.35E0,-3.2691825E-2,-6.6556055E-3,5.98912E-3,-6.825465E-3,1.4421348E-2,4.276195E-3],"split_indices":[54,3,66,66,80,0,71,0,0,0,0,0,0],"split_type":[0,0,0,0,0,0,0,0,0,0,0,0,0],"sum_hessian":[1.7619604E3,9.454504E2,8.165101E2,5.515638E2,3.9388654E2,1.3940877E2,6.771013E2,2.1267475E1,5.302963E2,2.4499638E2,1.4889017E2,1.3793571E2,5.391656E2],"tree_param":{"num_deleted":"0","num_feature":"81","num_nodes":"13","size_leaf_vector":"1"}},{"base_weights":[-1.3606049E-3,-1.0244038E-1,1.0169994E-1,-2.0350903E-1,8.345333E-2,2.2205977E-2,7.848576E-2,-1.5662013E-2,-2.8137774E-3,2.2348745E-2,1.1591685E-3,1.3336529E-3,1.2974505E-2],"categories":[],"categories_nodes":[],"categories_segments":[],"categories_sizes":[],"default_left":[0,1,0,0,0,0,1,0,0,0,0,0,0],"id":31,"left_children":[1,3,5,7,9,-1,11,-1,-1,-1,-1,-1,-1],"loss_changes":[1.8488037E1,1.6871141E1,1.1403521E1,1.8198626E1,9.022827E0,0E0,1.0065414E1,0E0,0E0,0E0,0E0,0E0,0E0],"parents":[2147483647,0,0,1,1,2,2,3,3,4,4,6,6],"right_children":[2,4,6,8,10,-1,12,-1,-1,-1,-1,-1,-1],"split_conditions":[1.24E0,4.5308642E0,4.17E0,1.9435737E-1,1.4513557E-1,2.2205977E-2,5.25E0,-1.5662013E-2,-2.8137774E-3,2.2348745E-2,1.1591685E-3,1.3336529E-3,1.2974505E-2],"split_indices":[60,14,65,73,73,0,38,0,0,0,0,0,0],"split_type":[0,0,0,0,0,0,0,0,0,0,0,0,0],"sum_hessian":[1.7680305E3,8.933875E2,8.74643E2,5.7928796E2,3.1409955E2,3.4460655E1,8.401824E2,1.8151837E2,3.9776962E2,2.402904E1,2.900705E2,7.463448E2,9.383756E1],"tree_param":{"num_deleted":"0","num_feature":"81","num_nodes":"13","size_leaf_vector":"1"}},{"base_weights":[3.593127E-2,-3.5419613E-1,7.165453E-2,-3.4182966E-3,-2.013548E-2,2.9943656E-2,3.1441104E-1,1.0831455E-2,-2.3794793E-4,1.3686775E-2,-3.7372736E-3],"categories":[],"categories_nodes":[],"categories_segments":[],"categories_sizes":[],"default_left":[0,0,1,0,0,0,0,0,0,0,0],"id":32,"left_children":[1,3,5,-1,-1,7,9,-1,-1,-1,-1],"loss_changes":[2.4544954E1,9.0334835E0,1.6316418E1,0E0,0E0,1.497482E1,9.3323765E0,0E0,0E0,0E0,0E0],"parents":[2147483647,0,0,1,1,2,2,5,5,6,6],"right_children":[2,4,6,-1,-1,8,10,-1,-1,-1,-1],"split_conditions":[2.81E0,9.9E-1,2.59E-1,-3.4182966E-3,-2.013548E-2,-4E-1,1.52E0,1.0831455E-2,-2.3794793E-4,1.3686775E-2,-3.7372736E-3],"split_indices":[54,55,0,0,0,75,21,0,0,0,0],"split_type":[0,0,0,0,0,0,0,0,0,0,0],"sum_hessian":[1.7548579E3,1.4668524E2,1.6081727E3,7.248299E1,7.420225E1,1.3731235E3,2.3504922E2,1.5492366E2,1.2181998E3,1.9356126E2,4.148796E1],"tree_param":{"num_deleted":"0","num_feature":"81","num_nodes":"11","size_leaf_vector":"1"}},{"base_weights":[4.586215E-3,-8.94598E-2,1.1895297E-1,-4.120643E-3,1.9513577E-1,2.4017382E-3,4.9726278E-1,-5.0206822E-3,2.0276356E-2,2.5335988E-3,2.4623217E-2],"categories":[],"categories_nodes":[],"categories_segments":[],"categories_sizes":[],"default_left":[0,0,0,0,1,0,0,0,0,0,0],"id":33,"left_children":[1,3,5,-1,7,-1,9,-1,-1,-1,-1],"loss_changes":[1.9298891E1,9.24703E0,1.4596626E1,0E0,1.4443633E1,0E0,8.833422E0,0E0,0E0,0E0,0E0],"parents":[2147483647,0,0,1,1,2,2,4,4,6,6],"right_children":[2,4,6,-1,8,-1,10,-1,-1,-1,-1],"split_conditions":[1.29E0,3E-1,5.49E0,-4.120643E-3,4.3E0,2.4017382E-3,2.74E0,-5.0206822E-3,2.0276356E-2,2.5335988E-3,2.4623217E-2],"split_indices":[72,73,56,0,14,0,71,0,0,0,0],"split_type":[0,0,0,0,0,0,0,0,0,0,0],"sum_hessian":[1.7873176E3,9.800377E2,8.0727985E2,8.7906934E2,1.0096838E2,7.175899E2,8.968992E1,5.4552265E1,4.6416115E1,3.2325535E1,5.7364388E1],"tree_param":{"num_deleted":"0","num_feature":"81","num_nodes":"11","size_leaf_vector":"1"}},{"base_weights":[-2.846932E-2,-1.0998661E-1,6.34293E-2,-3.8770118E-1,-6.1773986E-2,-2.3667904E-2,2.4789578E-1,7.623711E-3,-1.8410975E-2,-3.4268152E-3,1.0843744E-2,6.336522E-3,-5.2591865E-3,2.5104161E-2,4.796823E-3],"categories":[],"categories_nodes":[],"categories_segments":[],"categories_sizes":[],"default_left":[0,1,1,0,1,0,0,0,0,0,0,0,0,0,0],"id":34,"left_children":[1,3,5,7,9,11,13,-1,-1,-1,-1,-1,-1,-1,-1],"loss_changes":[1.3179017E1,1.2475696E1,1.33219385E1,1.3574406E1,1.2252334E1,1.5778598E1,1.3919519E1,0E0,0E0,0E0,0E0,0E0,0E0,0E0,0E0],"parents":[2147483647,0,0,1,1,2,2,3,3,4,4,5,5,6,6],"right_children":[2,4,6,8,10,12,14,-1,-1,-1,-1,-1,-1,-1,-1],"split_conditions":[4.285E0,5.2E0,4.45679E0,8.3E0,9.8392285E-2,3.9E-1,1.2037038E0,7.623711E-3,-1.8410975E-2,-3.4268152E-3,1.0843744E-2,6.336522E-3,-5.2591865E-3,2.5104161E-2,4.796823E-3],"split_indices":[66,53,41,19,23,29,37,0,0,0,0,0,0,0,0],"split_type":[0,0,0,0,0,0,0,0,0,0,0,0,0,0,0],"sum_hessian":[1.7515854E3,9.2913574E2,8.224497E2,1.3674464E2,7.923911E2,5.581864E2,2.6426328E2,2.7902481E1,1.0884216E2,7.181284E2,7.4262695E1,2.1429602E2,3.438904E2,4.573574E1,2.1852754E2],"tree_param":{"num_deleted":"0","num_feature":"81","num_nodes":"15","size_leaf_vector":"1"}},{"base_weights":[4.1923816E-3,-1.857071E-2,2.3662742E-2,5.192375E-2,-2.7443612E-1,9.0688484E-4,1.3832454E-2,1.3745665E-2,-1.34538775E-2],"categories":[],"categories_nodes":[],"categories_segments":[],"categories_sizes":[],"default_left":[0,0,0,0,1,0,0,0,0],"id":35,"left_children":[1,-1,3,5,7,-1,-1,-1,-1],"loss_changes":[1.9356611E1,0E0,1.4554146E1,1.4147152E1,1.2880868E1,0E0,0E0,0E0,0E0],"parents":[2147483647,0,0,2,2,3,3,4,4],"right_children":[2,-1,4,6,8,-1,-1,-1,-1],"split_conditions":[2.38E0,-1.857071E-2,1.05E1,6.43E0,2.0725134E-1,9.0688484E-4,1.3832454E-2,1.3745665E-2,-1.34538775E-2],"split_indices":[66,0,80,54,35,0,0,0,0],"split_type":[0,0,0,0,0,0,0,0,0],"sum_hessian":[1.7794795E3,5.9781357E1,1.7196982E3,1.5714231E3,1.4827512E2,1.46972E3,1.0170309E2,2.26957E1,1.2557942E2],"tree_param":{"num_deleted":"0","num_feature":"81","num_nodes":"9","size_leaf_vector":"1"}},{"base_weights":[1.1142791E-2,-2.3952661E-2,2.4132419E-1,-9.051078E-2,8.601612E-2,2.8505407E-2,1.5306246E-1,-2.5731139E-2,-2.5380584E-3,6.7484644E-3,-1.5424431E-3,1.3486161E-3,2.4636019E-2],"categories":[],"categories_nodes":[],"categories_segments":[],"categories_sizes":[],"default_left":[0,1,0,0,1,0,0,0,0,0,0,0,0],"id":36,"left_children":[1,3,5,7,9,-1,11,-1,-1,-1,-1,-1,-1],"loss_changes":[1.4467825E1,1.13294115E1,1.2644461E1,9.895027E0,8.826454E0,0E0,1.3545107E1,0E0,0E0,0E0,0E0,0E0,0E0],"parents":[2147483647,0,0,1,1,2,2,3,3,4,4,6,6],"right_children":[2,4,6,8,10,-1,12,-1,-1,-1,-1,-1,-1],"split_conditions":[5.32E0,4.6790123E0,3.97E0,9.1E-1,8.63782E-2,2.8505407E-2,1.2E2,-2.5731139E-2,-2.5380584E-3,6.7484644E-3,-1.5424431E-3,1.3486161E-3,2.4636019E-2],"split_indices":[56,11,17,55,50,0,31,0,0,0,0,0,0],"split_type":[0,0,0,0,0,0,0,0,0,0,0,0,0],"sum_hessian":[1.7760538E3,1.5406246E3,2.3542926E2,9.6068335E2,5.799413E2,2.952191E1,2.0590736E2,2.0673365E1,9.4000995E2,3.111068E2,2.6883444E2,1.7266391E2,3.3243443E1],"tree_param":{"num_deleted":"0","num_feature":"81","num_nodes":"13","size_leaf_vector":"1"}},{"base_weights":[1.3954859E-2,-1.1021412E-1,1.22484446E-1,-1.957332E-2,-7.8058444E-2,-1.9856262E-1,1.6434109E-1,-1.7708311E-3,-2.0392288E-2,-2.1906625E-2,-4.070656E-4,4.7528273E-3,3.0803172E-2],"categories":[],"categories_nodes":[],"categories_segments":[],"categories_sizes":[],"default_left":[0,0,1,0,1,1,0,0,0,0,0,0,0],"id":37,"left_children":[1,3,5,-1,7,9,11,-1,-1,-1,-1,-1,-1],"loss_changes":[2.3850805E1,1.2516785E1,1.2740026E1,0E0,1.0424801E1,9.170487E0,1.461381E1,0E0,0E0,0E0,0E0,0E0,0E0],"parents":[2147483647,0,0,1,1,2,2,4,4,5,5,6,6],"right_children":[2,4,6,-1,8,10,12,-1,-1,-1,-1,-1,-1],"split_conditions":[4.07E0,2.32E0,7.75E0,-1.957332E-2,4.66E-1,4.259259E0,8.23E0,-1.7708311E-3,-2.0392288E-2,-2.1906625E-2,-4.070656E-4,4.7528273E-3,3.0803172E-2],"split_indices":[66,66,46,0,2,11,66,0,0,0,0,0,0],"split_type":[0,0,0,0,0,0,0,0,0,0,0,0,0],"sum_hessian":[1.7640771E3,8.220598E2,9.420174E2,5.2000336E1,7.700595E2,1.08120964E2,8.338964E2,7.350841E2,3.497541E1,3.1185486E1,7.693548E1,8.093191E2,2.4577303E1],"tree_param":{"num_deleted":"0","num_feature":"81","num_nodes":"13","size_leaf_vector":"1"}},{"base_weights":[2.5985034E-2,1.5617774E-1,-5.2583307E-2,1.34959E-1,2.7334746E-2,-1.4248475E-1,8.211838E-2,3.1888033E-3,1.7399082E-2,-1.53411515E-2,-2.3686916E-3,4.1783545E-3,-1.2533253E-2],"categories":[],"categories_nodes":[],"categories_segments":[],"categories_sizes":[],"default_left":[0,0,0,1,0,0,1,0,0,0,0,0,0],"id":38,"left_children":[1,3,5,7,-1,9,11,-1,-1,-1,-1,-1,-1],"loss_changes":[1.7929585E1,9.22986E0,1.3240532E1,9.844155E0,0E0,1.4786125E1,8.392049E0,0E0,0E0,0E0,0E0,0E0,0E0],"parents":[2147483647,0,0,1,1,2,2,3,3,5,5,6,6],"right_children":[2,4,6,8,-1,10,12,-1,-1,-1,-1,-1,-1],"split_conditions":[7E-1,1.82E0,1.33E0,5.012346E0,2.7334746E-2,2.005571E-1,5.24E0,3.1888033E-3,1.7399082E-2,-1.53411515E-2,-2.3686916E-3,4.1783545E-3,-1.2533253E-2],"split_indices":[63,67,67,14,0,73,42,0,0,0,0,0,0],"split_type":[0,0,0,0,0,0,0,0,0,0,0,0,0],"sum_hessian":[1.7450336E3,6.574579E2,1.0875757E3,6.373087E2,2.0149176E1,6.5296906E2,4.3460663E2,5.771023E2,6.0206383E1,1.2167076E2,5.312983E2,3.9831204E2,3.6294582E1],"tree_param":{"num_deleted":"0","num_feature":"81","num_nodes":"13","size_leaf_vector":"1"}},{"base_weights":[7.2513875E-3,-9.9555135E-2,1.2892327E-1,7.292396E-2,-1.7343546E-1,2.991612E-1,-1.33898E-2,-1.6570082E-3,1.1789764E-2,-4.3856464E-3,-1.8487496E-2,-1.19798E-2,1.1511817E-2,5.6659207E-3,-4.648873E-3],"categories":[],"categories_nodes":[],"categories_segments":[],"categories_sizes":[],"default_left":[0,0,0,1,1,0,0,0,0,0,0,0,0,0,0],"id":39,"left_children":[1,3,5,7,9,11,13,-1,-1,-1,-1,-1,-1,-1,-1],"loss_changes":[2.302296E1,1.203962E1,2.0121483E1,9.679342E0,1.0724501E1,1.0683628E1,1.0276537E1,0E0,0E0,0E0,0E0,0E0,0E0,0E0,0E0],"parents":[2147483647,0,0,1,1,2,2,3,3,4,4,5,5,6,6],"right_children":[2,4,6,8,10,12,14,-1,-1,-1,-1,-1,-1,-1,-1],"split_conditions":[4.27E0,8E0,1.25E0,2.97E-1,2.597859E-1,5.6E0,3.72E0,-1.6570082E-3,1.1789764E-2,-4.3856464E-3,-1.8487496E-2,-1.19798E-2,1.1511817E-2,5.6659207E-3,-4.648873E-3],"split_indices":[54,80,21,33,22,58,69,0,0,0,0,0,0,0,0],"split_type":[0,0,0,0,0,0,0,0,0,0,0,0,0,0,0],"sum_hessian":[1.7653638E3,9.3942035E2,8.259434E2,2.81064E2,6.583563E2,3.7649704E2,4.4944635E2,1.948048E2,8.625922E1,5.9106323E2,6.729312E1,2.2724745E1,3.537723E2,1.8236205E2,2.670843E2],"tree_param":{"num_deleted":"0","num_feature":"81","num_nodes":"15","size_leaf_vector":"1"}},{"base_weights":[1.5294715E-2,1.9292164E-1,-2.6979515E-2,-1.03600405E-1,1.0062125E-2,-1.00248255E-1,7.446347E-2,-1.5942391E-2,6.710286E-3,-2.6020257E-2,-2.6619842E-3,-2.4982595E-3,6.113216E-3],"categories":[],"categories_nodes":[],"categories_segments":[],"categories_sizes":[],"default_left":[0,0,0,0,0,0,0,0,0,0,0,0,0],"id":40,"left_children":[1,3,5,7,-1,9,11,-1,-1,-1,-1,-1,-1],"loss_changes":[1.3292887E1,1.07387495E1,1.0602066E1,1.019953E1,0E0,1.1854388E1,9.539333E0,0E0,0E0,0E0,0E0,0E0,0E0],"parents":[2147483647,0,0,1,1,2,2,3,3,5,5,6,6],"right_children":[2,4,6,8,-1,10,12,-1,-1,-1,-1,-1,-1],"split_conditions":[7.02E-1,9.7E-1,3.09E0,8.788871E-2,1.0062125E-2,5.55E0,1.16E0,-1.5942391E-2,6.710286E-3,-2.6020257E-2,-2.6619842E-3,-2.4982595E-3,6.113216E-3],"split_indices":[24,72,59,23,0,58,72,0,0,0,0,0,0],"split_type":[0,0,0,0,0,0,0,0,0,0,0,0,0],"sum_hessian":[1.7575093E3,3.3847272E2,1.4190365E3,8.866096E1,2.4981178E2,8.248653E2,5.9417126E2,4.0110275E1,4.8550682E1,2.4765203E1,8.001001E2,2.481765E2,3.4599475E2],"tree_param":{"num_deleted":"0","num_feature":"81","num_nodes":"13","size_leaf_vector":"1"}},{"base_weights":[-6.054324E-3,-1.7740982E-2,1.2421357E-2,-2.0953165E-3,1.845746E-2,-5.3853105E-4,1.5879741E-2],"categories":[],"categories_nodes":[],"categories_segments":[],"categories_sizes":[],"default_left":[0,0,0,0,0,0,0],"id":41,"left_children":[1,-1,3,5,-1,-1,-1],"loss_changes":[1.7370464E1,0E0,1.3619247E1,1.1091511E1,0E0,0E0,0E0],"parents":[2147483647,0,0,2,2,3,3],"right_children":[2,-1,4,6,-1,-1,-1],"split_conditions":[2.38E0,-1.7740982E-2,7.44E0,2.54E0,1.845746E-2,-5.3853105E-4,1.5879741E-2],"split_indices":[66,0,54,72,0,0,0],"split_type":[0,0,0,0,0,0,0],"sum_hessian":[1.7783501E3,6.104772E1,1.7173024E3,1.6718851E3,4.5417294E1,1.6247438E3,4.7141365E1],"tree_param":{"num_deleted":"0","num_feature":"81","num_nodes":"7","size_leaf_vector":"1"}},{"base_weights":[-4.4211466E-3,-1.8747007E-2,4.8606557E-1,-8.674279E-2,8.881852E-2,1.3837188E-3,3.1130616E-2,6.9420324E-3,-4.0286095E-3,-1.8892765E-2,3.7211229E-3],"categories":[],"categories_nodes":[],"categories_segments":[],"categories_sizes":[],"default_left":[0,0,0,0,0,0,0,0,0,0,0],"id":42,"left_children":[1,3,5,7,9,-1,-1,-1,-1,-1,-1],"loss_changes":[1.2515815E1,1.2624403E1,9.721522E0,1.0224401E1,9.49819E0,0E0,0E0,0E0,0E0,0E0,0E0],"parents":[2147483647,0,0,1,1,2,2,3,3,4,4],"right_children":[2,4,6,8,10,-1,-1,-1,-1,-1,-1],"split_conditions":[7.41E0,1.37E0,7.06E-1,6.91E-1,2.31E0,1.3837188E-3,3.1130616E-2,6.9420324E-3,-4.0286095E-3,-1.8892765E-2,3.7211229E-3],"split_indices":[54,72,24,24,54,0,0,0,0,0,0],"split_type":[0,0,0,0,0,0,0,0,0,0,0],"sum_hessian":[1.7684456E3,1.7187601E3,4.9685463E1,1.0540217E3,6.6473834E2,2.4945494E1,2.4739971E1,1.0581587E2,9.4820593E2,2.1069546E1,6.436688E2],"tree_param":{"num_deleted":"0","num_feature":"81","num_nodes":"11","size_leaf_vector":"1"}},{"base_weights":[6.9131134E-3,-2.4533628E-1,3.979152E-2,-2.2096645E-2,-1.2522517E-1,7.715291E-3,3.2083654E-1,1.4027364E-2,-8.295152E-3,-1.3048941E-4,2.3032064E-2,-0E0,1.7009191E-2],"categories":[],"categories_nodes":[],"categories_segments":[],"categories_sizes":[],"default_left":[0,1,1,0,0,0,0,0,0,0,0,0,0],"id":43,"left_children":[1,3,5,-1,7,9,11,-1,-1,-1,-1,-1,-1],"loss_changes":[1.4660234E1,1.0022968E1,1.4087744E1,0E0,1.0482076E1,1.1299596E1,9.546055E0,0E0,0E0,0E0,0E0,0E0,0E0],"parents":[2147483647,0,0,1,1,2,2,4,4,5,5,6,6],"right_children":[2,4,6,-1,8,10,12,-1,-1,-1,-1,-1,-1],"split_conditions":[2.94E0,2.0991157E-1,2.63E-1,-2.2096645E-2,3.82E-1,8.53E0,4.05E0,1.4027364E-2,-8.295152E-3,-1.3048941E-4,2.3032064E-2,-0E0,1.7009191E-2],"split_indices":[66,35,0,0,2,66,66,0,0,0,0,0,0],"split_type":[0,0,0,0,0,0,0,0,0,0,0,0,0],"sum_hessian":[1.7603889E3,2.0228084E2,1.558108E3,4.5259583E1,1.5702126E2,1.3991898E3,1.5891829E2,2.8357445E1,1.2866382E2,1.375565E3,2.362481E1,5.77349E1,1.0118339E2],"tree_param":{"num_deleted":"0","num_feature":"81","num_nodes":"13","size_leaf_vector":"1"}},{"base_weights":[1.5040273E-2,3.2588784E-2,-1.6782645E-2,-7.6564616E-3,6.2455222E-2,4.673945E-3,-1.5613849E-3],"categories":[],"categories_nodes":[],"categories_segments":[],"categories_sizes":[],"default_left":[0,0,0,0,0,0,0],"id":44,"left_children":[1,3,-1,-1,5,-1,-1],"loss_changes":[1.6099285E1,1.33988E1,0E0,0E0,1.2864872E1,0E0,0E0],"parents":[2147483647,0,0,1,1,4,4],"right_children":[2,4,-1,-1,6,-1,-1],"split_conditions":[1.15E1,2.89E0,-1.6782645E-2,-7.6564616E-3,9E0,4.673945E-3,-1.5613849E-3],"split_indices":[80,54,0,0,80,0,0],"split_type":[0,0,0,0,0,0,0],"sum_hessian":[1.7761409E3,1.7179188E3,5.822205E1,1.7634206E2,1.5415768E3,9.068325E2,6.3474426E2],"tree_param":{"num_deleted":"0","num_feature":"81","num_nodes":"7","size_leaf_vector":"1"}},{"base_weights":[-2.5712492E-2,1.6766389E-1,-8.277743E-2,-8.2470983E-4,3.263345E-1,-1.5130892E-1,1.0895718E-1,5.5302046E-3,2.0130692E-2,-8.6225625E-3,-9.447732E-4,1.8273536E-3,3.3524755E-2],"categories":[],"categories_nodes":[],"categories_segments":[],"categories_sizes":[],"default_left":[0,1,0,0,0,0,0,0,0,0,0,0,0],"id":45,"left_children":[1,3,5,-1,7,9,11,-1,-1,-1,-1,-1,-1],"loss_changes":[1.9337282E1,1.222717E1,1.7800123E1,0E0,9.599455E0,1.2840124E1,1.7330395E1,0E0,0E0,0E0,0E0,0E0,0E0],"parents":[2147483647,0,0,1,1,2,2,4,4,5,5,6,6],"right_children":[2,4,6,-1,8,10,12,-1,-1,-1,-1,-1,-1],"split_conditions":[8E0,4.308642E0,1.57E0,-8.2470983E-4,2.303699E-1,3.1E0,5.04E0,5.5302046E-3,2.0130692E-2,-8.6225625E-3,-9.447732E-4,1.8273536E-3,3.3524755E-2],"split_indices":[80,11,72,0,8,59,57,0,0,0,0,0,0],"split_type":[0,0,0,0,0,0,0,0,0,0,0,0,0],"sum_hessian":[1.7465684E3,3.9723672E2,1.3493315E3,1.7927281E2,2.179639E2,9.946875E2,3.546441E2,1.3703784E2,8.092605E1,5.368829E2,4.578046E2,3.3440247E2,2.0241611E1],"tree_param":{"num_deleted":"0","num_feature":"81","num_nodes":"13","size_leaf_vector":"1"}},{"base_weights":[-2.7553272E-3,-2.0282476E-1,4.1894834E-2,5.0314575E-2,-3.525938E-1,-7.732062E-2,1.1649377E-1,8.0637885E-3,-1.51513405E-2,-5.79732E-3,-2.2745281E-2,-3.7770746E-3,2.016509E-2,3.127311E-3,2.1030655E-2],"categories":[],"categories_nodes":[],"categories_segments":[],"categories_sizes":[],"default_left":[0,0,1,0,0,0,0,0,0,0,0,0,0,0,0],"id":46,"left_children":[1,3,5,7,9,11,13,-1,-1,-1,-1,-1,-1,-1,-1],"loss_changes":[1.6134928E1,1.2555363E1,1.3098736E1,1.1711001E1,1.20331745E1,1.3420324E1,1.0904162E1,0E0,0E0,0E0,0E0,0E0,0E0,0E0,0E0],"parents":[2147483647,0,0,1,1,2,2,3,3,4,4,5,5,6,6],"right_children":[2,4,6,8,10,12,14,-1,-1,-1,-1,-1,-1,-1,-1],"split_conditions":[3.22E0,7.33E-1,3.13E-1,9E0,1.09E0,5.08E0,7.01E0,8.0637885E-3,-1.51513405E-2,-5.79732E-3,-2.2745281E-2,-3.7770746E-3,2.016509E-2,3.127311E-3,2.1030655E-2],"split_indices":[66,51,28,80,67,57,66,0,0,0,0,0,0,0,0],"split_type":[0,0,0,0,0,0,0,0,0,0,0,0,0,0,0],"sum_hessian":[1.7941127E3,3.2788205E2,1.4662306E3,1.21525314E2,2.0635675E2,5.6351135E2,9.0271924E2,8.849044E1,3.3034874E1,1.3288673E2,7.3470024E1,5.3627496E2,2.7236387E1,8.631291E2,3.959015E1],"tree_param":{"num_deleted":"0","num_feature":"81","num_nodes":"15","size_leaf_vector":"1"}},{"base_weights":[-2.680487E-2,-1.1480435E-1,6.643246E-2,5.222773E-4,-2.0094348E-1,1.2094256E-1,-2.186063E-1,-9.785735E-3,3.600378E-4,1.272226E-2,2.38328E-3,-2.3929652E-2,-1.3850289E-3],"categories":[],"categories_nodes":[],"categories_segments":[],"categories_sizes":[],"default_left":[1,0,0,0,0,0,0,0,0,0,0,0,0],"id":47,"left_children":[1,3,5,-1,7,9,11,-1,-1,-1,-1,-1,-1],"loss_changes":[1.444802E1,1.0201544E1,1.3295925E1,0E0,1.0410009E1,9.238841E0,1.1935329E1,0E0,0E0,0E0,0E0,0E0,0E0],"parents":[2147483647,0,0,1,1,2,2,4,4,5,5,6,6],"right_children":[2,4,6,-1,8,10,12,-1,-1,-1,-1,-1,-1],"split_conditions":[2.94E-1,8.5E0,3.3E0,5.222773E-4,1.42E0,8E0,7.727721E-2,-9.785735E-3,3.600378E-4,1.272226E-2,2.38328E-3,-2.3929652E-2,-1.3850289E-3],"split_indices":[6,80,63,0,55,80,36,0,0,0,0,0,0],"split_type":[0,0,0,0,0,0,0,0,0,0,0,0,0],"sum_hessian":[1.7534865E3,9.029532E2,8.505332E2,3.5865057E2,5.443027E2,7.1456146E2,1.3597173E2,3.828202E2,1.6148245E2,1.1602512E2,5.985364E2,3.5649868E1,1.0032186E2],"tree_param":{"num_deleted":"0","num_feature":"81","num_nodes":"13","size_leaf_vector":"1"}},{"base_weights":[-3.0072711E-2,1.3154407E-1,-7.796901E-2,-2.478129E-2,1.8000634E-1,-4.9195394E-2,-3.4573564E-1,4.4481335E-3,2.8162513E-2,3.1637505E-3,-4.000844E-3,6.4567765E-3,-1.5940785E-2],"categories":[],"categories_nodes":[],"categories_segments":[],"categories_sizes":[],"default_left":[0,0,0,0,0,0,0,0,0,0,0,0,0],"id":48,"left_children":[1,3,5,-1,7,9,11,-1,-1,-1,-1,-1,-1],"loss_changes":[1.3726249E1,1.7137619E1,1.0541618E1,0E0,1.2094621E1,1.2337013E1,9.204573E0,0E0,0E0,0E0,0E0,0E0,0E0],"parents":[2147483647,0,0,1,1,2,2,4,4,5,5,6,6],"right_children":[2,4,6,-1,8,10,12,-1,-1,-1,-1,-1,-1],"split_conditions":[8E0,6.5E0,3.7E0,-2.478129E-2,4.4E0,7.07E-1,-2E-1,4.4481335E-3,2.8162513E-2,3.1637505E-3,-4.000844E-3,6.4567765E-3,-1.5940785E-2],"split_indices":[80,80,63,0,71,24,75,0,0,0,0,0,0],"split_type":[0,0,0,0,0,0,0,0,0,0,0,0,0],"sum_hessian":[1.7663835E3,4.0295847E2,1.363425E3,2.099992E1,3.8195856E2,1.2318823E3,1.3154276E2,3.564165E2,2.5542046E1,4.0228305E2,8.2959924E2,2.4982634E1,1.0656013E2],"tree_param":{"num_deleted":"0","num_feature":"81","num_nodes":"13","size_leaf_vector":"1"}},{"base_weights":[-4.913893E-3,2.173488E-1,-7.0936166E-2,9.713671E-2,4.23062E-1,-1.0045107E-1,2.6467162E-1,2.1447072E-2,1.174415E-3,7.7233664E-3,2.6073793E-2,-1.4021154E-2,-2.4720342E-3,2.7715178E-2,3.8480377E-3],"categories":[],"categories_nodes":[],"categories_segments":[],"categories_sizes":[],"default_left":[0,0,0,0,0,0,1,0,0,0,0,0,0,0,0],"id":49,"left_children":[1,3,5,7,9,11,13,-1,-1,-1,-1,-1,-1,-1,-1],"loss_changes":[2.6171595E1,1.00665E1,1.3664299E1,8.72747E0,1.0162659E1,1.0819465E1,9.32904E0,0E0,0E0,0E0,0E0,0E0,0E0,0E0,0E0],"parents":[2147483647,0,0,1,1,2,2,3,3,4,4,5,5,6,6],"right_children":[2,4,6,8,10,12,14,-1,-1,-1,-1,-1,-1,-1,-1],"split_conditions":[8E0,1.21E0,6.58E0,4.7989625E-2,9.05E0,2.82E0,1.51E-1,2.1447072E-2,1.174415E-3,7.7233664E-3,2.6073793E-2,-1.4021154E-2,-2.4720342E-3,2.7715178E-2,3.8480377E-3],"split_indices":[80,60,54,74,19,54,32,0,0,0,0,0,0,0,0],"split_type":[0,0,0,0,0,0,0,0,0,0,0,0,0,0,0],"sum_hessian":[1.778463E3,4.066359E2,1.371827E3,2.5733078E2,1.4930511E2,1.2615023E3,1.1032481E2,2.6160559E1,2.3117021E2,9.673443E1,5.2570683E1,9.877139E1,1.1627308E3,2.299991E1,8.73249E1],"tree_param":{"num_deleted":"0","num_feature":"81","num_nodes":"15","size_leaf_vector":"1"}},{"base_weights":[1.1521357E-2,-7.4852454E-3,6.521024E-2,3.926845E-2,1.604059E-2,6.8339403E-3,-1.0253123E-4],"categories":[],"categories_nodes":[],"categories_segments":[],"categories_sizes":[],"default_left":[0,0,0,0,0,0,0],"id":50,"left_children":[1,-1,3,5,-1,-1,-1],"loss_changes":[2.2164759E1,0E0,1.5335913E1,9.421805E0,0E0,0E0,0E0],"parents":[2147483647,0,0,2,2,3,3],"right_children":[2,-1,4,6,-1,-1,-1],"split_conditions":[3.23E0,-7.4852454E-3,6.63E0,8E0,1.604059E-2,6.8339403E-3,-1.0253123E-4],"split_indices":[66,0,54,80,0,0,0],"split_type":[0,0,0,0,0,0,0],"sum_hessian":[1.7602166E3,3.2803995E2,1.4321766E3,1.3477416E3,8.443504E1,2.7748584E2,1.0702557E3],"tree_param":{"num_deleted":"0","num_feature":"81","num_nodes":"7","size_leaf_vector":"1"}},{"base_weights":[-6.9811684E-3,1.2044969E-1,-7.4843034E-2,-1.8646948E-2,3.0651933E-1,-1.2438305E-2,-3.287983E-2,-6.1105364E-3,8.24034E-3,7.387315E-3,2.3290744E-2,-5.5602817E-3,2.1319583E-3],"categories":[],"categories_nodes":[],"categories_segments":[],"categories_sizes":[],"default_left":[0,1,0,0,0,0,0,0,0,0,0,0,0],"id":51,"left_children":[1,3,5,7,9,-1,11,-1,-1,-1,-1,-1,-1],"loss_changes":[1.5354247E1,1.6005299E1,1.4317672E1,1.5181601E1,8.851164E0,0E0,1.2954067E1,0E0,0E0,0E0,0E0,0E0,0E0],"parents":[2147483647,0,0,1,1,2,2,3,3,4,4,6,6],"right_children":[2,4,6,8,10,-1,12,-1,-1,-1,-1,-1,-1],"split_conditions":[8.5E0,4.4938273E0,9.814815E-1,4.28E0,1.4012346E0,-1.2438305E-2,4.1E0,-6.1105364E-3,8.24034E-3,7.387315E-3,2.3290744E-2,-5.5602817E-3,2.1319583E-3],"split_indices":[80,11,37,54,37,0,66,0,0,0,0,0,0],"split_type":[0,0,0,0,0,0,0,0,0,0,0,0,0],"sum_hessian":[1.7689333E3,6.138012E2,1.1551322E3,3.5083527E2,2.6296594E2,1.433857E2,1.01174646E3,2.172193E2,1.3361598E2,2.1503255E2,4.7933388E1,4.266928E2,5.8505365E2],"tree_param":{"num_deleted":"0","num_feature":"81","num_nodes":"13","size_leaf_vector":"1"}},{"base_weights":[-6.7288675E-3,-3.0064048E-2,1.3860907E-2,-4.1834626E-1,2.5658968E-3,-9.530956E-3,-3.3481974E-2,-6.8591135E-3,1.4652645E-3],"categories":[],"categories_nodes":[],"categories_segments":[],"categories_sizes":[],"default_left":[0,0,0,1,0,0,0,0,0],"id":52,"left_children":[1,3,-1,5,7,-1,-1,-1,-1],"loss_changes":[1.7335552E1,2.141089E1,0E0,1.016456E1,1.3099979E1,0E0,0E0,0E0,0E0],"parents":[2147483647,0,0,1,1,3,3,4,4],"right_children":[2,4,-1,6,8,-1,-1,-1,-1],"split_conditions":[1.155E1,2.86E0,1.3860907E-2,1.42E0,7.504506E-2,-9.530956E-3,-3.3481974E-2,-6.8591135E-3,1.4652645E-3],"split_indices":[70,66,0,16,36,0,0,0,0],"split_type":[0,0,0,0,0,0,0,0,0],"sum_hessian":[1.7672411E3,1.6744089E3,9.283216E1,1.3001274E2,1.5443962E3,1.0573832E2,2.4274412E1,2.550335E2,1.2893627E3],"tree_param":{"num_deleted":"0","num_feature":"81","num_nodes":"9","size_leaf_vector":"1"}},{"base_weights":[-8.131534E-3,-3.22098E-2,3.6706907E-1,-4.9374267E-2,1.39818005E-2,3.210214E-2,7.575365E-3,-1.4681686E-2,-1.1044629E-3],"categories":[],"categories_nodes":[],"categories_segments":[],"categories_sizes":[],"default_left":[0,0,0,0,0,0,0,0,0],"id":53,"left_children":[1,3,5,7,-1,-1,-1,-1,-1],"loss_changes":[1.5862103E1,1.270029E1,8.777775E0,1.0198931E1,0E0,0E0,0E0,0E0,0E0],"parents":[2147483647,0,0,1,1,2,2,3,3],"right_children":[2,4,6,8,-1,-1,-1,-1,-1],"split_conditions":[1.67E0,1.207E1,1.6974595E-1,2.38E0,1.39818005E-2,3.210214E-2,7.575365E-3,-1.4681686E-2,-1.1044629E-3],"split_indices":[55,70,73,54,0,0,0,0,0],"split_type":[0,0,0,0,0,0,0,0,0],"sum_hessian":[1.7473163E3,1.6425164E3,1.04799934E2,1.5823452E3,6.0171124E1,2.0011112E1,8.478882E1,6.4450645E1,1.5178945E3],"tree_param":{"num_deleted":"0","num_feature":"81","num_nodes":"9","size_leaf_vector":"1"}},{"base_weights":[1.3663679E-2,2.6500605E-2,-1.4406234E-2,-5.1004137E-3,5.9596736E-2,1.2863795E-3,1.3632718E-2],"categories":[],"categories_nodes":[],"categories_segments":[],"categories_sizes":[],"default_left":[1,0,0,0,0,0,0],"id":54,"left_children":[1,3,-1,-1,5,-1,-1],"loss_changes":[1.0092887E1,1.0162232E1,0E0,0E0,1.0753334E1,0E0,0E0],"parents":[2147483647,0,0,1,1,4,4],"right_children":[2,4,-1,-1,6,-1,-1],"split_conditions":[7.68E-1,7.51213E-2,-1.4406234E-2,-5.1004137E-3,2.13E0,1.2863795E-3,1.3632718E-2],"split_indices":[51,36,0,0,72,0,0],"split_type":[0,0,0,0,0,0,0],"sum_hessian":[1.7666289E3,1.7172437E3,4.938525E1,2.6840366E2,1.4488401E3,1.364933E3,8.3907104E1],"tree_param":{"num_deleted":"0","num_feature":"81","num_nodes":"7","size_leaf_vector":"1"}},{"base_weights":[3.347626E-2,-5.2008245E-2,1.1761233E-1,2.5457684E-2,-1.1308351E-2,8.7296836E-2,1.5462355E-2,6.4902613E-3,-2.6153792E-3,6.6406955E-3,-2.7095614E-4],"categories":[],"categories_nodes":[],"categories_segments":[],"categories_sizes":[],"default_left":[0,0,1,0,0,0,0,0,0,0,0],"id":55,"left_children":[1,3,5,7,-1,9,-1,-1,-1,-1,-1],"loss_changes":[1.2897166E1,1.9604555E1,9.370348E0,1.2086545E1,0E0,8.746287E0,0E0,0E0,0E0,0E0,0E0],"parents":[2147483647,0,0,1,1,2,2,3,3,5,5],"right_children":[2,4,6,8,-1,10,-1,-1,-1,-1,-1],"split_conditions":[1.23E0,2.4462321E-1,1.202E2,3.18E0,-1.1308351E-2,1.24E0,1.5462355E-2,6.4902613E-3,-2.6153792E-3,6.6406955E-3,-2.7095614E-4],"split_indices":[60,49,31,47,0,21,0,0,0,0,0],"split_type":[0,0,0,0,0,0,0,0,0,0,0],"sum_hessian":[1.7852123E3,8.845909E2,9.0062146E2,6.946015E2,1.8998938E2,8.2786E2,7.2761444E1,2.654383E2,4.2916318E2,3.8525336E2,4.4260663E2],"tree_param":{"num_deleted":"0","num_feature":"81","num_nodes":"11","size_leaf_vector":"1"}},{"base_weights":[-2.7374653E-3,-2.540923E-1,2.2974366E-2,3.3723605E-3,-1.7352384E-2,-6.2230542E-2,1.117043E-1,-3.8247523E-3,7.7390876E-3,3.0625695E-3,2.4893885E-2],"categories":[],"categories_nodes":[],"categories_segments":[],"categories_sizes":[],"default_left":[0,0,0,0,0,0,0,0,0,0,0],"id":56,"left_children":[1,3,5,-1,-1,7,9,-1,-1,-1,-1],"loss_changes":[1.1726812E1,1.5661451E1,1.2364942E1,0E0,0E0,1.2518758E1,1.0485835E1,0E0,0E0,0E0,0E0],"parents":[2147483647,0,0,1,1,2,2,5,5,6,6],"right_children":[2,4,6,-1,-1,8,10,-1,-1,-1,-1],"split_conditions":[2.86E0,3.13E0,4.21E0,3.3723605E-3,-1.7352384E-2,5.72E0,1.82E0,-3.8247523E-3,7.7390876E-3,3.0625695E-3,2.4893885E-2],"split_indices":[66,69,54,0,0,66,67,0,0,0,0],"split_type":[0,0,0,0,0,0,0,0,0,0,0],"sum_hessian":[1.7945872E3,1.6696484E2,1.6276223E3,7.065023E1,9.631461E1,8.2940137E2,7.9822095E2,7.059496E2,1.2345179E2,7.731265E2,2.5094412E1],"tree_param":{"num_deleted":"0","num_feature":"81","num_nodes":"11","size_leaf_vector":"1"}},{"base_weights":[-1.7344853E-2,-3.2182017E-1,9.21395E-3,-3.4824036E-2,-6.7103053E-3,1.4682223E-1,-5.8279794E-2,3.7454532E-3,2.2326622E-2,-1.5499186E-2,-8.203237E-4],"categories":[],"categories_nodes":[],"categories_segments":[],"categories_sizes":[],"default_left":[0,0,0,0,0,1,0,0,0,0,0],"id":57,"left_children":[1,3,5,-1,-1,7,9,-1,-1,-1,-1],"loss_changes":[1.4464588E1,1.2494423E1,1.5195454E1,0E0,0E0,9.92026E0,1.493747E1,0E0,0E0,0E0,0E0],"parents":[2147483647,0,0,1,1,2,2,5,5,6,6],"right_children":[2,4,6,-1,-1,8,10,-1,-1,-1,-1],"split_conditions":[2.79E0,2.94E0,8.5E0,-3.4824036E-2,-6.7103053E-3,3.87E0,2.88E0,3.7454532E-3,2.2326622E-2,-1.5499186E-2,-8.203237E-4],"split_indices":[54,66,80,0,0,20,66,0,0,0,0],"split_type":[0,0,0,0,0,0,0,0,0,0,0],"sum_hessian":[1.7696272E3,1.4229533E2,1.6273319E3,2.0483423E1,1.21811905E2,5.3622876E2,1.0911031E3,5.021486E2,3.408016E1,8.434223E1,1.00676086E3],"tree_param":{"num_deleted":"0","num_feature":"81","num_nodes":"11","size_leaf_vector":"1"}},{"base_weights":[2.972577E-2,-2.0569878E-2,3.772972E-2,1.666711E-1,-1.1205596E-2,7.150532E-3,-1.2577004E-2,-3.1530506E-3,2.9794832E-3],"categories":[],"categories_nodes":[],"categories_segments":[],"categories_sizes":[],"default_left":[0,0,0,0,1,0,0,0,0],"id":58,"left_children":[1,-1,3,5,7,-1,-1,-1,-1],"loss_changes":[9.115184E0,0E0,1.1016712E1,1.1921602E1,1.0384424E1,0E0,0E0,0E0,0E0],"parents":[2147483647,0,0,2,2,3,3,4,4],"right_children":[2,-1,4,6,8,-1,-1,-1,-1],"split_conditions":[4.91E0,-2.0569878E-2,7.07E-1,2.7906978E-1,4.4382715E0,7.150532E-3,-1.2577004E-2,-3.1530506E-3,2.9794832E-3],"split_indices":[58,0,24,61,14,0,0,0,0],"split_type":[0,0,0,0,0,0,0,0,0],"sum_hessian":[1.7557671E3,2.1239132E1,1.734528E3,4.7796695E2,1.256561E3,4.4108755E2,3.687941E1,6.887122E2,5.678488E2],"tree_param":{"num_deleted":"0","num_feature":"81","num_nodes":"9","size_leaf_vector":"1"}},{"base_weights":[-1.1095019E-2,-4.1288566E-2,6.71014E-3,-2.9051623E-1,-7.147389E-3,-2.3584196E-2,-5.3007826E-3,2.0079038E-3,-3.4576175E-3],"categories":[],"categories_nodes":[],"categories_segments":[],"categories_sizes":[],"default_left":[0,0,0,1,1,0,0,0,0],"id":59,"left_children":[1,3,-1,5,7,-1,-1,-1,-1],"loss_changes":[1.1255495E1,1.3168494E1,0E0,1.0137366E1,8.723475E0,0E0,0E0,0E0,0E0],"parents":[2147483647,0,0,1,1,3,3,4,4],"right_children":[2,4,-1,6,8,-1,-1,-1,-1],"split_conditions":[1.88E0,4.95E0,6.71014E-3,6.96E-1,7.31E-1,-2.3584196E-2,-5.3007826E-3,2.0079038E-3,-3.4576175E-3],"split_indices":[72,77,0,3,24,0,0,0,0],"split_type":[0,0,0,0,0,0,0,0,0],"sum_hessian":[1.7639642E3,1.5433668E3,2.2059746E2,1.85204E2,1.3581628E3,4.4903175E1,1.4030083E2,7.984407E2,5.5972217E2],"tree_param":{"num_deleted":"0","num_feature":"81","num_nodes":"9","size_leaf_vector":"1"}},{"base_weights":[-4.777738E-3,-8.211019E-2,9.928833E-2,-1.0019546E-1,2.1571096E-2,-8.637166E-3,3.0391195E-1,2.7422936E-6,-7.5438544E-3,-2.2170313E-2,8.251851E-4,2.8101735E-2,7.3958077E-3],"categories":[],"categories_nodes":[],"categories_segments":[],"categories_sizes":[],"default_left":[0,0,0,0,0,0,0,0,0,0,0,0,0],"id":60,"left_children":[1,3,5,7,-1,9,11,-1,-1,-1,-1,-1,-1],"loss_changes":[1.4160297E1,1.3292448E1,1.659981E1,1.2273249E1,0E0,1.0839204E1,1.1586113E1,0E0,0E0,0E0,0E0,0E0,0E0],"parents":[2147483647,0,0,1,1,2,2,3,3,5,5,6,6],"right_children":[2,4,6,8,-1,10,12,-1,-1,-1,-1,-1,-1],"split_conditions":[8.71E0,8.25E0,3.98E0,9E0,2.1571096E-2,1.5E0,2.81E-1,2.7422936E-6,-7.5438544E-3,-2.2170313E-2,8.251851E-4,2.8101735E-2,7.3958077E-3],"split_indices":[70,66,68,80,0,71,33,0,0,0,0,0,0],"split_type":[0,0,0,0,0,0,0,0,0,0,0,0,0],"sum_hessian":[1.7523933E3,1.0062431E3,7.4615027E2,9.820569E2,2.4186203E1,4.8810083E2,2.5804947E2,5.42015E2,4.4004184E2,2.3750523E1,4.643503E2,3.4873447E1,2.2317601E2],"tree_param":{"num_deleted":"0","num_feature":"81","num_nodes":"13","size_leaf_vector":"1"}},{"base_weights":[3.6826148E-3,-4.7893338E-2,1.2061251E-1,4.3026707E-3,-9.694766E-2,-1.8788554E-2,1.5252583E-1,5.314871E-3,-4.577416E-3,1.9707116E-3,1.8066693E-2],"categories":[],"categories_nodes":[],"categories_segments":[],"categories_sizes":[],"default_left":[0,0,0,0,0,0,0,0,0,0,0],"id":61,"left_children":[1,3,5,-1,7,-1,9,-1,-1,-1,-1],"loss_changes":[1.0621153E1,1.0512987E1,1.1764246E1,0E0,9.495792E0,0E0,1.8557285E1,0E0,0E0,0E0,0E0],"parents":[2147483647,0,0,1,1,2,2,4,4,6,6],"right_children":[2,4,6,-1,8,-1,10,-1,-1,-1,-1],"split_conditions":[2.4538745E-1,6.12855E-2,1.5E0,4.3026707E-3,3.84E0,-1.8788554E-2,4.13E0,5.314871E-3,-4.577416E-3,1.9707116E-3,1.8066693E-2],"split_indices":[73,74,71,0,44,0,68,0,0,0,0],"split_type":[0,0,0,0,0,0,0,0,0,0,0],"sum_hessian":[1.7499685E3,1.213458E3,5.3651044E2,2.6409702E2,9.49361E2,2.372881E1,5.127817E2,1.2535743E2,8.240036E2,4.1245343E2,1.0032822E2],"tree_param":{"num_deleted":"0","num_feature":"81","num_nodes":"11","size_leaf_vector":"1"}},{"base_weights":[-2.7017624E-3,7.5681927E-3,-4.3262262E-2,-1.3706894E-1,5.241674E-2,-3.236247E-3,-1.6705232E-2,7.6481644E-3,-7.8906666E-4],"categories":[],"categories_nodes":[],"categories_segments":[],"categories_sizes":[],"default_left":[0,0,0,0,0,0,0,0,0],"id":62,"left_children":[1,-1,3,5,7,-1,-1,-1,-1],"loss_changes":[1.6190645E1,0E0,1.33889475E1,1.1081888E1,9.829204E0,0E0,0E0,0E0,0E0],"parents":[2147483647,0,0,2,2,3,3,4,4],"right_children":[2,-1,4,6,8,-1,-1,-1,-1],"split_conditions":[-2E-1,7.5681927E-3,4.23E0,2.5483072E-1,8.296036E-2,-3.236247E-3,-1.6705232E-2,7.6481644E-3,-7.8906666E-4],"split_indices":[63,0,66,8,50,0,0,0,0],"split_type":[0,0,0,0,0,0,0,0,0],"sum_hessian":[1.7484697E3,2.6387628E2,1.4845935E3,7.50445E2,7.3414844E2,6.742108E2,7.623423E1,2.2277618E2,5.1137225E2],"tree_param":{"num_deleted":"0","num_feature":"81","num_nodes":"9","size_leaf_vector":"1"}},{"base_weights":[1.267585E-2,-7.4132144E-2,9.784061E-2,1.377777E-2,-9.774463E-2,1.4293079E-1,-1.853264E-1,-1.351302E-3,-1.0472238E-2,-1.728799E-3,7.938676E-3,7.5534303E-3,-1.353565E-2],"categories":[],"categories_nodes":[],"categories_segments":[],"categories_sizes":[],"default_left":[0,0,0,0,0,0,1,0,0,0,0,0,0],"id":63,"left_children":[1,3,5,-1,7,9,11,-1,-1,-1,-1,-1,-1],"loss_changes":[1.289421E1,9.900869E0,1.12772875E1,0E0,1.0091789E1,1.3739747E1,1.0849381E1,0E0,0E0,0E0,0E0,0E0,0E0],"parents":[2147483647,0,0,1,1,2,2,4,4,5,5,6,6],"right_children":[2,4,6,-1,8,10,12,-1,-1,-1,-1,-1,-1],"split_conditions":[4.17E0,6.94E-1,1.05E1,1.377777E-2,2.4302189E-1,5.05E0,3.75E0,-1.351302E-3,-1.0472238E-2,-1.728799E-3,7.938676E-3,7.5534303E-3,-1.353565E-2],"split_indices":[54,24,80,0,8,65,45,0,0,0,0,0,0],"split_type":[0,0,0,0,0,0,0,0,0,0,0,0,0],"sum_hessian":[1.7362289E3,8.588891E2,8.773398E2,3.9543625E1,8.1934546E2,7.5740216E2,1.19937614E2,6.4583514E2,1.7351033E2,2.4433864E2,5.130635E2,4.122642E1,7.871119E1],"tree_param":{"num_deleted":"0","num_feature":"81","num_nodes":"13","size_leaf_vector":"1"}},{"base_weights":[2.9986126E-2,-4.3416503E-3,7.37959E-2,1.7436595E-1,5.2075153E-3,-3.7185906E-3,7.93811E-3,1.9771764E-3,-6.647713E-3],"categories":[],"categories_nodes":[],"categories_segments":[],"categories_sizes":[],"default_left":[0,0,1,0,0,0,0,0,0],"id":64,"left_children":[1,-1,3,5,7,-1,-1,-1,-1],"loss_changes":[1.23709545E1,0E0,9.581558E0,9.902197E0,9.02232E0,0E0,0E0,0E0,0E0],"parents":[2147483647,0,0,2,2,3,3,4,4],"right_children":[2,-1,4,6,8,-1,-1,-1,-1],"split_conditions":[9.3E-1,-4.3416503E-3,8.306602E-2,2.83E-1,9.09E0,-3.7185906E-3,7.93811E-3,1.9771764E-3,-6.647713E-3],"split_indices":[72,0,50,6,46,0,0,0,0],"split_type":[0,0,0,0,0,0,0,0,0],"sum_hessian":[1.7696804E3,3.8155222E2,1.3881282E3,5.617637E2,8.263645E2,9.909246E1,4.626712E2,6.544703E2,1.7189426E2],"tree_param":{"num_deleted":"0","num_feature":"81","num_nodes":"9","size_leaf_vector":"1"}},{"base_weights":[-1.725751E-2,-6.1485488E-2,1.2835284E-1,-2.7191204E-1,-1.4816895E-2,-1.7762076E-2,1.6756764E-1,-1.4834765E-2,-7.727327E-4,-2.7444614E-3,6.602673E-3,2.9348906E-2,4.299259E-3],"categories":[],"categories_nodes":[],"categories_segments":[],"categories_sizes":[],"default_left":[1,0,0,0,0,0,0,0,0,0,0,0,0],"id":65,"left_children":[1,3,5,7,9,-1,11,-1,-1,-1,-1,-1,-1],"loss_changes":[1.1235894E1,1.312261E1,1.0532228E1,1.0121359E1,1.5432002E1,0E0,1.0803319E1,0E0,0E0,0E0,0E0,0E0,0E0],"parents":[2147483647,0,0,1,1,2,2,3,3,4,4,6,6],"right_children":[2,4,6,8,10,-1,12,-1,-1,-1,-1,-1,-1],"split_conditions":[4.3E-1,3.33E0,6.4E-1,1.35E0,9.21E0,-1.7762076E-2,2.98E0,-1.4834765E-2,-7.727327E-4,-2.7444614E-3,6.602673E-3,2.9348906E-2,4.299259E-3],"split_indices":[2,68,60,60,70,0,68,0,0,0,0,0,0],"split_type":[0,0,0,0,0,0,0,0,0,0,0,0,0],"sum_hessian":[1.7372582E3,1.3334558E3,4.0380237E2,2.4125372E2,1.092202E3,2.2414988E1,3.813874E2,1.4335777E2,9.789595E1,8.304898E2,2.6171222E2,2.0021933E1,3.6136545E2],"tree_param":{"num_deleted":"0","num_feature":"81","num_nodes":"13","size_leaf_vector":"1"}},{"base_weights":[3.8133652E-3,-6.519825E-3,2.2547958E-2,2.5769902E-2,-1.7446432E-1,-3.3888072E-3,3.041994E-3,-1.0484919E-2,1.5658751E-3],"categories":[],"categories_nodes":[],"categories_segments":[],"categories_sizes":[],"default_left":[0,0,0,0,0,0,0,0,0],"id":66,"left_children":[1,3,-1,5,7,-1,-1,-1,-1],"loss_changes":[1.248886E1,9.528181E0,0E0,1.1965097E1,8.6224165E0,0E0,0E0,0E0,0E0],"parents":[2147483647,0,0,1,1,3,3,4,4],"right_children":[2,4,-1,6,8,-1,-1,-1,-1],"split_conditions":[5.57E0,7.49E-1,2.2547958E-2,5.29E0,1.31E0,-3.3888072E-3,3.041994E-3,-1.0484919E-2,1.5658751E-3],"split_indices":[57,24,0,65,60,0,0,0,0],"split_type":[0,0,0,0,0,0,0,0,0],"sum_hessian":[1.7677247E3,1.7406555E3,2.706924E1,1.4592844E3,2.8137103E2,4.924895E2,9.66795E2,1.7413858E2,1.07232445E2],"tree_param":{"num_deleted":"0","num_feature":"81","num_nodes":"9","size_leaf_vector":"1"}},{"base_weights":[1.9757828E-2,-8.792887E-2,7.101999E-2,-4.4457994E-2,-1.5477652E-2,1.2122316E-3,1.3815212E-2,-4.5470748E-4,-2.0875294E-2],"categories":[],"categories_nodes":[],"categories_segments":[],"categories_sizes":[],"default_left":[0,0,1,1,0,0,0,0,0],"id":67,"left_children":[1,3,5,7,-1,-1,-1,-1,-1],"loss_changes":[9.643963E0,9.096937E0,1.4058079E1,9.027482E0,0E0,0E0,0E0,0E0,0E0],"parents":[2147483647,0,0,1,1,2,2,3,3],"right_children":[2,4,6,8,-1,-1,-1,-1,-1],"split_conditions":[3.63E0,9.704641E-2,5.25E0,1.45E0,-1.5477652E-2,1.2122316E-3,1.3815212E-2,-4.5470748E-4,-2.0875294E-2],"split_indices":[66,74,38,48,0,0,0,0,0],"split_type":[0,0,0,0,0,0,0,0,0],"sum_hessian":[1.7389271E3,5.597525E2,1.1791747E3,5.0172592E2,5.8026573E1,1.06946E3,1.09714645E2,4.7656876E2,2.5157175E1],"tree_param":{"num_deleted":"0","num_feature":"81","num_nodes":"9","size_leaf_vector":"1"}},{"base_weights":[2.8173102E-3,6.796274E-2,-8.3680056E-2,2.2856537E-2,4.8994496E-2,-1.560385E-1,7.3257186E-2,5.484846E-3,-2.4571419E-3,-7.126336E-3,5.0470335E-3,-1.3707046E-3,1.3858976E-2],"categories":[],"categories_nodes":[],"categories_segments":[],"categories_sizes":[],"default_left":[0,0,0,0,0,0,1,0,0,0,0,0,0],"id":68,"left_children":[1,3,5,-1,7,9,11,-1,-1,-1,-1,-1,-1],"loss_changes":[9.860582E0,1.1612526E1,8.547911E0,0E0,1.3482359E1,8.792376E0,9.254753E0,0E0,0E0,0E0,0E0,0E0,0E0],"parents":[2147483647,0,0,1,1,2,2,4,4,5,5,6,6],"right_children":[2,4,6,-1,8,10,12,-1,-1,-1,-1,-1,-1],"split_conditions":[7.31E-1,9.9E-1,9.52E0,2.2856537E-2,9E0,9.3603745E-2,3.86E0,5.484846E-3,-2.4571419E-3,-7.126336E-3,5.0470335E-3,-1.3707046E-3,1.3858976E-2],"split_indices":[24,55,58,0,80,62,18,0,0,0,0,0,0],"split_type":[0,0,0,0,0,0,0,0,0,0,0,0,0],"sum_hessian":[1.7414137E3,9.9439844E2,7.4701526E2,2.9492582E1,9.649058E2,5.1198868E2,2.3502657E2,4.9963025E2,4.6527557E2,4.337604E2,7.822827E1,1.755723E2,5.9454277E1],"tree_param":{"num_deleted":"0","num_feature":"81","num_nodes":"13","size_leaf_vector":"1"}},{"base_weights":[-2.857028E-3,-2.5019893E-2,1.2419184E-2,-1.0355808E-1,6.1228715E-2,-1.8557209E-3,-1.0895841E-2,5.498982E-3,-3.304628E-3],"categories":[],"categories_nodes":[],"categories_segments":[],"categories_sizes":[],"default_left":[0,0,0,0,0,0,0,0,0],"id":69,"left_children":[1,3,-1,5,7,-1,-1,-1,-1],"loss_changes":[1.4530225E1,1.127749E1,0E0,9.28008E0,1.2910503E1,0E0,0E0,0E0,0E0],"parents":[2147483647,0,0,1,1,3,3,4,4],"right_children":[2,4,-1,6,8,-1,-1,-1,-1],"split_conditions":[6.67E0,4.23E0,1.2419184E-2,1.7E1,4.49E0,-1.8557209E-3,-1.0895841E-2,5.498982E-3,-3.304628E-3],"split_indices":[66,54,0,53,17,0,0,0,0],"split_type":[0,0,0,0,0,0,0,0,0],"sum_hessian":[1.7549753E3,1.6567927E3,9.818265E1,8.6812085E2,7.886719E2,7.1224695E2,1.5587389E2,4.8137164E2,3.073002E2],"tree_param":{"num_deleted":"0","num_feature":"81","num_nodes":"9","size_leaf_vector":"1"}},{"base_weights":[-4.3464066E-3,-8.883838E-2,7.673402E-2,1.6397774E-1,-1.3639104E-1,1.9414483E-3,1.9985907E-2,2.7575128E-2,1.2029522E-3,-2.9309439E-2,-3.7226237E-3],"categories":[],"categories_nodes":[],"categories_segments":[],"categories_sizes":[],"default_left":[0,0,0,0,0,0,0,0,0,0,0],"id":70,"left_children":[1,3,5,7,9,-1,-1,-1,-1,-1,-1],"loss_changes":[1.2022124E1,1.0364867E1,8.8546715E0,1.1430526E1,1.3782401E1,0E0,0E0,0E0,0E0,0E0,0E0],"parents":[2147483647,0,0,1,1,2,2,3,3,4,4],"right_children":[2,4,6,8,10,-1,-1,-1,-1,-1,-1],"split_conditions":[2.85E0,7.01E-1,1.207E1,5.8165547E-2,5.61E0,1.9414483E-3,1.9985907E-2,2.7575128E-2,1.2029522E-3,-2.9309439E-2,-3.7226237E-3],"split_indices":[59,24,70,74,58,0,0,0,0,0,0],"split_type":[0,0,0,0,0,0,0,0,0,0,0],"sum_hessian":[1.7465896E3,8.56271E2,8.903186E2,1.3494579E2,7.213252E2,8.591252E2,3.119342E1,2.1723312E1,1.1322247E2,2.410653E1,6.972187E2],"tree_param":{"num_deleted":"0","num_feature":"81","num_nodes":"11","size_leaf_vector":"1"}},{"base_weights":[1.8915443E-2,-1.8581476E-2,3.0806249E-2,-1.10761195E-1,7.531899E-2,-6.1116004E-3,1.0917541E-2,1.6735489E-2,1.6901289E-3],"categories":[],"categories_nodes":[],"categories_segments":[],"categories_sizes":[],"default_left":[0,0,0,1,0,0,0,0,0],"id":71,"left_children":[1,-1,3,5,7,-1,-1,-1,-1],"loss_changes":[1.2050987E1,0E0,1.09185505E1,1.2789593E1,1.39781E1,0E0,0E0,0E0,0E0],"parents":[2147483647,0,0,2,2,3,3,4,4],"right_children":[2,-1,4,6,8,-1,-1,-1,-1],"split_conditions":[6.76E-1,-1.8581476E-2,3.56E0,4.4E-1,5E0,-6.1116004E-3,1.0917541E-2,1.6735489E-2,1.6901289E-3],"split_indices":[51,0,68,2,76,0,0,0,0],"split_type":[0,0,0,0,0,0,0,0,0],"sum_hessian":[1.7606301E3,3.5477715E1,1.7251523E3,4.1173883E2,1.3134136E3,3.5456726E2,5.7171562E1,7.330345E1,1.2401101E3],"tree_param":{"num_deleted":"0","num_feature":"81","num_nodes":"9","size_leaf_vector":"1"}},{"base_weights":[-1.3238983E-2,-4.990236E-2,1.4138311E-1,9.946277E-2,-3.2842495E-3,9.597709E-3,-2.5952396E-3,7.0578926E-3,-6.713222E-3],"categories":[],"categories_nodes":[],"categories_segments":[],"categories_sizes":[],"default_left":[0,0,0,0,0,0,0,0,0],"id":72,"left_children":[1,3,5,7,-1,-1,-1,-1,-1],"loss_changes":[9.983369E0,1.0138163E1,1.0628463E1,1.1370067E1,0E0,0E0,0E0,0E0,0E0],"parents":[2147483647,0,0,1,1,2,2,3,3],"right_children":[2,4,6,8,-1,-1,-1,-1,-1],"split_conditions":[5.3E0,3.33E0,1.9255456E-1,2.4020843E-1,-3.2842495E-3,9.597709E-3,-2.5952396E-3,7.0578926E-3,-6.713222E-3],"split_indices":[54,57,61,8,0,0,0,0,0],"split_type":[0,0,0,0,0,0,0,0,0],"sum_hessian":[1.753058E3,1.4180048E3,3.3505325E2,3.419627E2,1.0760421E3,2.0255562E2,1.3249763E2,2.5031049E2,9.165223E1],"tree_param":{"num_deleted":"0","num_feature":"81","num_nodes":"9","size_leaf_vector":"1"}},{"base_weights":[1.658012E-2,3.8351777E-1,-4.29749E-3,2.021935E-2,-3.004138E-3,4.5110524E-2,-1.3047235E-1,-5.494849E-4,7.404416E-3,-5.655299E-3,1.3587985E-2],"categories":[],"categories_nodes":[],"categories_segments":[],"categories_sizes":[],"default_left":[0,0,1,0,0,1,0,0,0,0,0],"id":73,"left_children":[1,3,5,-1,-1,7,9,-1,-1,-1,-1],"loss_changes":[1.3513474E1,9.842142E0,1.033358E1,0E0,0E0,1.2788334E1,9.40607E0,0E0,0E0,0E0,0E0],"parents":[2147483647,0,0,1,1,2,2,5,5,6,6],"right_children":[2,4,6,-1,-1,8,10,-1,-1,-1,-1],"split_conditions":[-8E-1,1.36E0,1.25E1,2.021935E-2,-3.004138E-3,4.6790123E0,8.1666666E-1,-5.494849E-4,7.404416E-3,-5.655299E-3,1.3587985E-2],"split_indices":[63,43,13,0,0,11,39,0,0,0,0],"split_type":[0,0,0,0,0,0,0,0,0,0,0],"sum_hessian":[1.7400123E3,9.391017E1,1.6461022E3,6.457133E1,2.9338846E1,1.1820638E3,4.6403836E2,8.740904E2,3.0797342E2,4.3401898E2,3.0019388E1],"tree_param":{"num_deleted":"0","num_feature":"81","num_nodes":"11","size_leaf_vector":"1"}},{"base_weights":[8.396316E-3,7.902148E-2,-9.139027E-2,1.8955484E-3,4.9229702E-1,-2.589319E-1,4.2496428E-2,-5.0753313E-3,3.2290045E-2,-2.1494847E-2,-3.7964806E-3,-1.2889941E-4,1.8796833E-2],"categories":[],"categories_nodes":[],"categories_segments":[],"categories_sizes":[],"default_left":[0,0,0,0,0,0,0,0,0,0,0,0,0],"id":74,"left_children":[1,3,5,-1,7,9,11,-1,-1,-1,-1,-1,-1],"loss_changes":[1.2309679E1,9.635551E0,1.6255575E1,0E0,1.6187172E1,1.7792023E1,9.809942E0,0E0,0E0,0E0,0E0,0E0,0E0],"parents":[2147483647,0,0,1,1,2,2,4,4,5,5,6,6],"right_children":[2,4,6,-1,8,10,12,-1,-1,-1,-1,-1,-1],"split_conditions":[9E0,2.1E0,4.26E0,1.8955484E-3,7.825679E-2,4.04E0,1.03E1,-5.0753313E-3,3.2290045E-2,-2.1494847E-2,-3.7964806E-3,-1.2889941E-4,1.8796833E-2],"split_indices":[80,72,66,0,36,56,70,0,0,0,0,0,0],"split_type":[0,0,0,0,0,0,0,0,0,0,0,0,0],"sum_hessian":[1.7391295E3,1.01934216E3,7.197873E2,9.667783E2,5.2563812E1,3.2016913E2,3.9961816E2,2.2011879E1,3.0551933E1,8.856787E1,2.3160127E2,3.6656644E2,3.305174E1],"tree_param":{"num_deleted":"0","num_feature":"81","num_nodes":"13","size_leaf_vector":"1"}},{"base_weights":[-1.1688605E-2,-2.2436064E-2,2.4457226E-2,-7.242019E-2,8.3449334E-2,-7.3116496E-3,-3.3824635E-4,1.1894545E-3,1.9314075E-2],"categories":[],"categories_nodes":[],"categories_segments":[],"categories_sizes":[],"default_left":[0,0,0,0,1,0,0,0,0],"id":75,"left_children":[1,3,-1,5,7,-1,-1,-1,-1],"loss_changes":[1.4077951E1,9.219917E0,0E0,1.06556015E1,1.3161169E1,0E0,0E0,0E0,0E0],"parents":[2147483647,0,0,1,1,3,3,4,4],"right_children":[2,4,-1,6,8,-1,-1,-1,-1],"split_conditions":[1.96E0,1.77E-1,2.4457226E-2,3.65E0,8.333333E-1,-7.3116496E-3,-3.3824635E-4,1.1894545E-3,1.9314075E-2],"split_indices":[67,5,0,54,39,0,0,0,0],"split_type":[0,0,0,0,0,0,0,0,0],"sum_hessian":[1.7586398E3,1.7337957E3,2.4844175E1,1.1788845E3,5.549111E2,3.5416385E2,8.247207E2,5.0578146E2,4.91296E1],"tree_param":{"num_deleted":"0","num_feature":"81","num_nodes":"9","size_leaf_vector":"1"}},{"base_weights":[-9.08462E-3,-2.8900906E-1,2.0752277E-2,1.6734809E-2,-1.3511326E-2,-1.0260418E-2,4.0693954E-2,1.0056674E-2,3.573695E-4],"categories":[],"categories_nodes":[],"categories_segments":[],"categories_sizes":[],"default_left":[0,0,0,0,0,0,0,0,0],"id":76,"left_children":[1,3,5,-1,-1,-1,7,-1,-1],"loss_changes":[1.4717687E1,1.5094849E1,1.029762E1,0E0,0E0,0E0,1.156942E1,0E0,0E0],"parents":[2147483647,0,0,1,1,2,2,6,6],"right_children":[2,4,6,-1,-1,-1,8,-1,-1],"split_conditions":[2.88E0,8E0,4.551201E-2,1.6734809E-2,-1.3511326E-2,-1.0260418E-2,5.6050956E-2,1.0056674E-2,3.573695E-4],"split_indices":[54,76,74,0,0,0,74,0,0],"split_type":[0,0,0,0,0,0,0,0,0],"sum_hessian":[1.7449508E3,1.6844026E2,1.5765106E3,2.0783407E1,1.4765685E2,9.039483E1,1.4861157E3,1.5446405E2,1.3316517E3],"tree_param":{"num_deleted":"0","num_feature":"81","num_nodes":"9","size_leaf_vector":"1"}},{"base_weights":[1.4914481E-3,-1.700308E-2,1.8558526E-2,2.769111E-2,-2.3336353E-2,-1.823963E-3,3.3041849E-3],"categories":[],"categories_nodes":[],"categories_segments":[],"categories_sizes":[],"default_left":[0,0,0,0,0,0,0],"id":77,"left_children":[1,-1,3,5,-1,-1,-1],"loss_changes":[1.5320336E1,0E0,1.120282E1,9.755634E0,0E0,0E0,0E0],"parents":[2147483647,0,0,2,2,3,3],"right_children":[2,-1,4,6,-1,-1,-1],"split_conditions":[2.38E0,-1.700308E-2,1.25E1,2.93E-1,-2.3336353E-2,-1.823963E-3,3.3041849E-3],"split_indices":[66,0,80,6,0,0,0],"split_type":[0,0,0,0,0,0,0],"sum_hessian":[1.7616912E3,5.6947304E1,1.7047439E3,1.6835486E3,2.1195312E1,7.7757733E2,9.0597125E2],"tree_param":{"num_deleted":"0","num_feature":"81","num_nodes":"7","size_leaf_vector":"1"}},{"base_weights":[-1.8480333E-2,-2.8532181E-2,-8.226509E-3,-7.432884E-2,8.710478E-2,-5.2921344E-3,2.3047642E-3,9.376506E-3,1.214013E-4],"categories":[],"categories_nodes":[],"categories_segments":[],"categories_sizes":[],"default_left":[0,0,0,1,0,0,0,0,0],"id":78,"left_children":[1,-1,3,5,7,-1,-1,-1,-1],"loss_changes":[1.5158773E1,0E0,1.1057824E1,1.2278465E1,1.1431803E1,0E0,0E0,0E0,0E0],"parents":[2147483647,0,0,2,2,3,3,4,4],"right_children":[2,-1,4,6,8,-1,-1,-1,-1],"split_conditions":[2.01E0,-2.8532181E-2,4.44E0,4.765432E0,1.0246913E0,-5.2921344E-3,2.3047642E-3,9.376506E-3,1.214013E-4],"split_indices":[66,0,54,11,10,0,0,0,0],"split_type":[0,0,0,0,0,0,0,0,0],"sum_hessian":[1.7680372E3,2.122146E1,1.7468158E3,1.0325751E3,7.1424066E2,6.5417615E2,3.7839896E2,2.1626694E2,4.979737E2],"tree_param":{"num_deleted":"0","num_feature":"81","num_nodes":"9","size_leaf_vector":"1"}},{"base_weights":[-1.8136854E-3,1.4547972E-1,-4.4952124E-2,6.09071E-2,1.5871895E-2,-0E0,-2.0129728E-1,1.3246715E-2,-9.2218077E-4,-2.2558188E-2,5.1335566E-4,-1.1400909E-2,5.746264E-3],"categories":[],"categories_nodes":[],"categories_segments":[],"categories_sizes":[],"default_left":[0,0,1,0,0,0,0,0,0,0,0,0,0],"id":79,"left_children":[1,3,5,7,-1,9,11,-1,-1,-1,-1,-1,-1],"loss_changes":[1.1202558E1,1.0972623E1,9.631168E0,9.447117E0,0E0,1.09046955E1,1.5669609E1,0E0,0E0,0E0,0E0,0E0,0E0],"parents":[2147483647,0,0,1,1,2,2,3,3,5,5,6,6],"right_children":[2,4,6,8,-1,10,12,-1,-1,-1,-1,-1,-1],"split_conditions":[8E0,9.41E0,9.23E0,2.141431E-1,1.5871895E-2,1.32E0,1.47E0,1.3246715E-2,-9.2218077E-4,-2.2558188E-2,5.1335566E-4,-1.1400909E-2,5.746264E-3],"split_indices":[80,19,19,8,0,71,60,0,0,0,0,0,0],"split_type":[0,0,0,0,0,0,0,0,0,0,0,0,0],"sum_hessian":[1.7556207E3,3.967455E2,1.3588751E3,3.155684E2,8.117712E1,1.0548579E3,3.0401724E2,6.6464516E1,2.4910388E2,2.3078318E1,1.0317797E3,2.2239404E2,8.162321E1],"tree_param":{"num_deleted":"0","num_feature":"81","num_nodes":"13","size_leaf_vector":"1"}},{"base_weights":[-2.8876498E-2,-3.9889817E-3,-8.809346E-3,5.1250137E-2,-1.6032018E-1,2.0436082E-2,1.1107374E-3,6.3288086E-3,-1.0580578E-2],"categories":[],"categories_nodes":[],"categories_segments":[],"categories_sizes":[],"default_left":[0,0,0,0,1,0,0,0,0],"id":80,"left_children":[1,3,-1,5,7,-1,-1,-1,-1],"loss_changes":[1.0176516E1,1.3755407E1,0E0,1.1946699E1,2.2333986E1,0E0,0E0,0E0,0E0],"parents":[2147483647,0,0,1,1,3,3,4,4],"right_children":[2,4,-1,6,8,-1,-1,-1,-1],"split_conditions":[8.8271606E-1,9.5E0,-8.809346E-3,6.86E-1,2.1637523E-1,2.0436082E-2,1.1107374E-3,6.3288086E-3,-1.0580578E-2],"split_indices":[12,80,0,24,35,0,0,0,0],"split_type":[0,0,0,0,0,0,0,0,0],"sum_hessian":[1.7510116E3,1.5826571E3,1.6835449E2,1.1687687E3,4.138885E2,3.671932E1,1.1320493E3,1.26501144E2,2.8738733E2],"tree_param":{"num_deleted":"0","num_feature":"81","num_nodes":"9","size_leaf_vector":"1"}},{"base_weights":[-1.5458898E-3,2.6382761E-2,-2.9191402E-1,1.2503955E-2,7.980822E-3,-7.93982E-2,-5.5097365E-1,-2.1872458E-3,2.983574E-3,-1.00382725E-2,2.0656643E-2,-2.8026393E-2,-1.9964906E-3],"categories":[],"categories_nodes":[],"categories_segments":[],"categories_sizes":[],"default_left":[0,0,0,0,0,0,0,0,0,0,0,0,0],"id":81,"left_children":[1,3,5,-1,7,9,11,-1,-1,-1,-1,-1,-1],"loss_changes":[1.45935755E1,1.0365536E1,8.63341E0,0E0,9.125522E0,1.3394233E1,9.679939E0,0E0,0E0,0E0,0E0,0E0,0E0],"parents":[2147483647,0,0,1,1,2,2,4,4,5,5,6,6],"right_children":[2,4,6,-1,8,10,12,-1,-1,-1,-1,-1,-1],"split_conditions":[1.05E1,6.86E-1,7.65E0,1.2503955E-2,4.24E0,4.46E-1,1.59E0,-2.1872458E-3,2.983574E-3,-1.00382725E-2,2.0656643E-2,-2.8026393E-2,-1.9964906E-3],"split_indices":[80,24,58,0,66,29,72,0,0,0,0,0,0],"split_type":[0,0,0,0,0,0,0,0,0,0,0,0,0],"sum_hessian":[1.7812003E3,1.6245604E3,1.5663983E2,8.164583E1,1.5429146E3,8.653151E1,7.010833E1,8.090375E2,7.3387714E2,6.603106E1,2.0500448E1,4.4300297E1,2.580803E1],"tree_param":{"num_deleted":"0","num_feature":"81","num_nodes":"13","size_leaf_vector":"1"}},{"base_weights":[1.918074E-2,4.2259917E-2,-1.0208932E-2,3.0282296E-2,1.7533045E-2,6.3572554E-3,-4.3582328E-4],"categories":[],"categories_nodes":[],"categories_segments":[],"categories_sizes":[],"default_left":[0,0,0,0,0,0,0],"id":82,"left_children":[1,3,-1,5,-1,-1,-1],"loss_changes":[1.291827E1,9.314123E0,0E0,1.0868016E1,0E0,0E0,0E0],"parents":[2147483647,0,0,1,1,3,3],"right_children":[2,4,-1,6,-1,-1,-1],"split_conditions":[4.6E0,1.167E1,-1.0208932E-2,8E0,1.7533045E-2,6.3572554E-3,-4.3582328E-4],"split_indices":[75,65,0,80,0,0,0],"split_type":[0,0,0,0,0,0,0],"sum_hessian":[1.7273813E3,1.612594E3,1.14787315E2,1.5737361E3,3.885788E1,3.378704E2,1.2358657E3],"tree_param":{"num_deleted":"0","num_feature":"81","num_nodes":"7","size_leaf_vector":"1"}},{"base_weights":[8.671897E-3,-2.573094E-1,3.7535664E-2,-2.1874255E-2,-1.0771109E-1,1.6480449E-1,-2.3498742E-2,-8.808833E-3,1.6792199E-2,1.5336198E-3,1.33016845E-2,-1.8416684E-2,-2.2948654E-4],"categories":[],"categories_nodes":[],"categories_segments":[],"categories_sizes":[],"default_left":[0,0,0,0,0,0,1,0,0,0,0,0,0],"id":83,"left_children":[1,3,5,-1,7,9,11,-1,-1,-1,-1,-1,-1],"loss_changes":[1.3405021E1,9.981811E0,1.225962E1,0E0,1.1707363E1,1.4000514E1,9.335235E0,0E0,0E0,0E0,0E0,0E0,0E0],"parents":[2147483647,0,0,1,1,2,2,4,4,5,5,6,6],"right_children":[2,4,6,-1,8,10,12,-1,-1,-1,-1,-1,-1],"split_conditions":[2.89E0,2.2E0,8.5E0,-2.1874255E-2,1.64E0,4.3703704E0,3.419753E0,-8.808833E-3,1.6792199E-2,1.5336198E-3,1.33016845E-2,-1.8416684E-2,-2.2948654E-4],"split_indices":[54,63,80,0,72,14,14,0,0,0,0,0,0],"split_type":[0,0,0,0,0,0,0,0,0,0,0,0,0],"sum_hessian":[1.7381989E3,1.694619E2,1.5687369E3,4.6308144E1,1.2315376E2,5.0922714E2,1.0595098E3,9.852727E1,2.4626495E1,3.360603E2,1.7316682E2,3.224044E1,1.0272693E3],"tree_param":{"num_deleted":"0","num_feature":"81","num_nodes":"13","size_leaf_vector":"1"}},{"base_weights":[1.2440443E-2,8.715535E-2,-9.506608E-2,2.7685119E-2,8.36886E-3,-2.940864E-1,-2.7479094E-2,1.1567951E-2,-7.513025E-4,9.789006E-3,-1.3071451E-2,-5.5508595E-3,3.3805333E-3],"categories":[],"categories_nodes":[],"categories_segments":[],"categories_sizes":[],"default_left":[0,0,0,0,0,0,0,0,0,0,0,0,0],"id":84,"left_children":[1,3,5,7,-1,9,11,-1,-1,-1,-1,-1,-1],"loss_changes":[1.4141787E1,9.953868E0,9.681267E0,1.2127846E1,0E0,1.0146143E1,9.522613E0,0E0,0E0,0E0,0E0,0E0,0E0],"parents":[2147483647,0,0,1,1,2,2,3,3,5,5,6,6],"right_children":[2,4,6,8,-1,10,12,-1,-1,-1,-1,-1,-1],"split_conditions":[9E0,4.25E-1,3.71E0,7.01E-1,8.36886E-3,7.09E0,4.49E0,1.1567951E-2,-7.513025E-4,9.789006E-3,-1.3071451E-2,-5.5508595E-3,3.3805333E-3],"split_indices":[80,2,66,24,0,70,54,0,0,0,0,0,0],"split_type":[0,0,0,0,0,0,0,0,0,0,0,0,0],"sum_hessian":[1.7535227E3,1.0354498E3,7.1807294E2,7.575095E2,2.779403E2,1.8126585E2,5.3680707E2,1.0381212E2,6.536974E2,2.4827925E1,1.5643793E2,2.5938193E2,2.7742514E2],"tree_param":{"num_deleted":"0","num_feature":"81","num_nodes":"13","size_leaf_vector":"1"}},{"base_weights":[1.3616511E-2],"categories":[],"categories_nodes":[],"categories_segments":[],"categories_sizes":[],"default_left":[0],"id":85,"left_children":[-1],"loss_changes":[0E0],"parents":[2147483647],"right_children":[-1],"split_conditions":[4.585257E-4],"split_indices":[0],"split_type":[0],"sum_hessian":[1.770768E3],"tree_param":{"num_deleted":"0","num_feature":"81","num_nodes":"1","size_leaf_vector":"1"}},{"base_weights":[-5.701301E-3,-2.5625793E-2,3.67458E-3,-5.4881955E-3,2.2216998E-2,3.6049794E-4,-1.2330074E-2],"categories":[],"categories_nodes":[],"categories_segments":[],"categories_sizes":[],"default_left":[0,0,0,0,0,0,0],"id":86,"left_children":[1,-1,3,5,-1,-1,-1],"loss_changes":[1.2750366E1,0E0,1.0702645E1,1.0125583E1,0E0,0E0,0E0],"parents":[2147483647,0,0,2,2,3,3],"right_children":[2,-1,4,6,-1,-1,-1],"split_conditions":[2E0,-2.5625793E-2,8.65E0,2.65E1,2.2216998E-2,3.6049794E-4,-1.2330074E-2],"split_indices":[66,0,54,26,0,0,0],"split_type":[0,0,0,0,0,0,0],"sum_hessian":[1.7481646E3,2.1458292E1,1.7267062E3,1.7028676E3,2.3838606E1,1.6294442E3,7.342344E1],"tree_param":{"num_deleted":"0","num_feature":"81","num_nodes":"7","size_leaf_vector":"1"}},{"base_weights":[2.2639844E-4,-1.2299927E-1,5.3396266E-2,-1.7258371E-1,1.5320724E-2,2.20315E-3,-2.1587243E-2,-1.6002495E-2,-3.0766684E-3],"categories":[],"categories_nodes":[],"categories_segments":[],"categories_sizes":[],"default_left":[0,0,0,1,0,0,0,0,0],"id":87,"left_children":[1,3,5,7,-1,-1,-1,-1,-1],"loss_changes":[1.1519941E1,1.523447E1,1.0354003E1,1.1966031E1,0E0,0E0,0E0,0E0,0E0],"parents":[2147483647,0,0,1,1,2,2,3,3],"right_children":[2,4,6,8,-1,-1,-1,-1,-1],"split_conditions":[3.58E0,5.86E0,1.25E1,4.04321E0,1.5320724E-2,2.20315E-3,-2.1587243E-2,-1.6002495E-2,-3.0766684E-3],"split_indices":[54,68,80,14,0,0,0,0,0],"split_type":[0,0,0,0,0,0,0,0,0],"sum_hessian":[1.7508817E3,5.26763E2,1.2241188E3,4.8552444E2,4.123852E1,1.2036764E3,2.0442303E1,1.0211211E2,3.8341235E2],"tree_param":{"num_deleted":"0","num_feature":"81","num_nodes":"9","size_leaf_vector":"1"}},{"base_weights":[-4.368814E-3,-1.3837859E-2,2.2378452E-2,-2.2793043E-2,-4.5133983E-3,9.134628E-4,-6.831662E-3],"categories":[],"categories_nodes":[],"categories_segments":[],"categories_sizes":[],"default_left":[0,0,0,0,0,0,0],"id":88,"left_children":[1,3,-1,-1,5,-1,-1],"loss_changes":[1.1391277E1,1.0960828E1,0E0,0E0,1.0972562E1,0E0,0E0],"parents":[2147483647,0,0,1,1,4,4],"right_children":[2,4,-1,-1,6,-1,-1],"split_conditions":[8.79E0,2.01E0,2.2378452E-2,-2.2793043E-2,1.79E1,9.134628E-4,-6.831662E-3],"split_indices":[54,54,0,0,53,0,0],"split_type":[0,0,0,0,0,0,0],"sum_hessian":[1.7800912E3,1.755669E3,2.4422224E1,2.3916552E1,1.7317523E3,1.4929642E3,2.3878816E2],"tree_param":{"num_deleted":"0","num_feature":"81","num_nodes":"7","size_leaf_vector":"1"}},{"base_weights":[9.236403E-3,1.8447973E-1,-6.013109E-4,-2.2899015E-1,9.559595E-3,-2.2807054E-2,7.1100066E-3],"categories":[],"categories_nodes":[],"categories_segments":[],"categories_sizes":[],"default_left":[0,0,0,0,0,0,0],"id":89,"left_children":[1,3,-1,5,-1,-1,-1],"loss_changes":[8.450922E0,9.85265E0,0E0,9.323801E0,0E0,0E0,0E0],"parents":[2147483647,0,0,1,1,3,3],"right_children":[2,4,-1,6,-1,-1,-1],"split_conditions":[6.97E-1,9.2E-1,-6.013109E-4,1.9281046E-1,9.559595E-3,-2.2807054E-2,7.1100066E-3],"split_indices":[24,72,0,61,0,0,0],"split_type":[0,0,0,0,0,0,0],"sum_hessian":[1.7607332E3,2.3641628E2,1.5243169E3,4.545734E1,1.9095894E2,2.2651043E1,2.2806297E1],"tree_param":{"num_deleted":"0","num_feature":"81","num_nodes":"7","size_leaf_vector":"1"}},{"base_weights":[3.116725E-2,-2.5122264E-2,4.0299114E-2,1.9979207E-1,-3.513499E-3,5.3203814E-3,3.0574473E-2,-2.9782243E-3,3.3542942E-3],"categories":[],"categories_nodes":[],"categories_segments":[],"categories_sizes":[],"default_left":[0,0,0,0,0,0,0,0,0],"id":90,"left_children":[1,-1,3,5,7,-1,-1,-1,-1],"loss_changes":[1.2669035E1,0E0,1.2283632E1,1.1239346E1,1.2048883E1,0E0,0E0,0E0,0E0],"parents":[2147483647,0,0,2,2,3,3,4,4],"right_children":[2,-1,4,6,8,-1,-1,-1,-1],"split_conditions":[6.5E0,-2.5122264E-2,8E0,5.016667E0,1.31E0,5.3203814E-3,3.0574473E-2,-2.9782243E-3,3.3542942E-3],"split_indices":[80,0,80,14,72,0,0,0,0],"split_type":[0,0,0,0,0,0,0,0,0],"sum_hessian":[1.765659E3,2.0118855E1,1.7455402E3,3.7681625E2,1.3687239E3,3.562533E2,2.0562943E1,7.51454E2,6.1726996E2],"tree_param":{"num_deleted":"0","num_feature":"81","num_nodes":"9","size_leaf_vector":"1"}},{"base_weights":[5.561433E-3,-8.731775E-3,1.906717E-2,1.280638E-4,-1.6379893E-2],"categories":[],"categories_nodes":[],"categories_segments":[],"categories_sizes":[],"default_left":[0,1,0,0,0],"id":91,"left_children":[1,3,-1,-1,-1],"loss_changes":[1.4242327E1,1.0410297E1,0E0,0E0,0E0],"parents":[2147483647,0,0,1,1],"right_children":[2,4,-1,-1,-1],"split_conditions":[7.44E0,7.68E-1,1.906717E-2,1.280638E-4,-1.6379893E-2],"split_indices":[54,51,0,0,0],"split_type":[0,0,0,0,0],"sum_hessian":[1.7426299E3,1.699211E3,4.3418865E1,1.6556179E3,4.3593052E1],"tree_param":{"num_deleted":"0","num_feature":"81","num_nodes":"5","size_leaf_vector":"1"}},{"base_weights":[-1.631331E-2,-1.9602398E-3,-1.4524745E-2,-4.14858E-2,1.3858618E-1,5.511217E-3,-2.8715082E-3,1.4507005E-2,8.058881E-4],"categories":[],"categories_nodes":[],"categories_segments":[],"categories_sizes":[],"default_left":[0,1,0,0,0,0,0,0,0],"id":92,"left_children":[1,3,-1,5,7,-1,-1,-1,-1],"loss_changes":[1.0562494E1,9.508974E0,0E0,1.2013479E1,1.2529299E1,0E0,0E0,0E0,0E0],"parents":[2147483647,0,0,1,1,3,3,4,4],"right_children":[2,4,-1,6,8,-1,-1,-1,-1],"split_conditions":[1.15E1,7.59E-1,-1.4524745E-2,7.01E-1,2.44E0,5.511217E-3,-2.8715082E-3,1.4507005E-2,8.058881E-4],"split_indices":[80,3,0,24,71,0,0,0,0],"split_type":[0,0,0,0,0,0,0,0,0],"sum_hessian":[1.7621205E3,1.70378E3,5.8340477E1,1.3308083E3,3.7297162E2,2.3334303E2,1.0974653E3,1.045537E2,2.684179E2],"tree_param":{"num_deleted":"0","num_feature":"81","num_nodes":"9","size_leaf_vector":"1"}},{"base_weights":[-1.44701945E-2,-7.964178E-2,9.40717E-2,-3.7671512E-1,-4.4605866E-2,-3.612137E-2,7.396979E-3,-6.539036E-3,-3.119487E-2,5.1124925E-3,-3.1568846E-3,-3.1702875E-3,2.2747494E-2],"categories":[],"categories_nodes":[],"categories_segments":[],"categories_sizes":[],"default_left":[0,0,1,0,0,1,0,0,0,0,0,0,0],"id":93,"left_children":[1,3,5,7,9,11,-1,-1,-1,-1,-1,-1,-1],"loss_changes":[1.2528741E1,1.1521828E1,1.0890734E1,1.1650131E1,9.591049E0,1.3536715E1,0E0,0E0,0E0,0E0,0E0,0E0,0E0],"parents":[2147483647,0,0,1,1,2,2,3,3,4,4,5,5],"right_children":[2,4,6,8,10,12,-1,-1,-1,-1,-1,-1,-1],"split_conditions":[4.51E0,5.09E0,5.308642E-1,4.14E0,0E0,2.6266822E-1,7.396979E-3,-6.539036E-3,-3.119487E-2,5.1124925E-3,-3.1568846E-3,-3.1702875E-3,2.2747494E-2],"split_indices":[54,65,39,18,75,8,0,0,0,0,0,0,0],"split_type":[0,0,0,0,0,0,0,0,0,0,0,0,0],"sum_hessian":[1.7637721E3,1.103028E3,6.6074414E2,1.1567849E2,9.873494E2,3.2386154E2,3.3688263E2,8.7256905E1,2.8421589E1,1.9684178E2,7.905076E2,2.9981042E2,2.4051128E1],"tree_param":{"num_deleted":"0","num_feature":"81","num_nodes":"13","size_leaf_vector":"1"}},{"base_weights":[8.3426945E-3,1.1923717E-1,-4.621027E-2,1.7517948E-1,-1.6763826E-1,5.5995635E-3,-2.4060006E-1,8.889439E-3,-1.9151028E-3,-1.36598E-2,1.2242399E-2,-8.5691473E-4,1.4689435E-2,5.4321215E-3,-1.33321015E-2],"categories":[],"categories_nodes":[],"categories_segments":[],"categories_sizes":[],"default_left":[0,0,0,0,0,1,0,0,0,0,0,0,0,0,0],"id":94,"left_children":[1,3,5,7,9,11,13,-1,-1,-1,-1,-1,-1,-1,-1],"loss_changes":[1.0670348E1,9.3735485E0,1.19300375E1,1.00821E1,1.2130836E1,1.2606296E1,1.5620241E1,0E0,0E0,0E0,0E0,0E0,0E0,0E0,0E0],"parents":[2147483647,0,0,1,1,2,2,3,3,4,4,5,5,6,6],"right_children":[2,4,6,8,10,12,14,-1,-1,-1,-1,-1,-1,-1,-1],"split_conditions":[7.1E-1,1.05E1,9.5E0,2.5E0,9.1E0,5.0864196E0,1.8685831E-1,8.889439E-3,-1.9151028E-3,-1.36598E-2,1.2242399E-2,-8.5691473E-4,1.4689435E-2,5.4321215E-3,-1.33321015E-2],"split_indices":[24,80,80,75,46,41,61,0,0,0,0,0,0,0,0],"split_type":[0,0,0,0,0,0,0,0,0,0,0,0,0,0,0],"sum_hessian":[1.7530605E3,5.789412E2,1.1741193E3,4.8500278E2,9.393844E1,9.265284E2,2.4759094E2,3.512534E2,1.3374939E2,6.51139E1,2.8824537E1,8.6403766E2,6.2490734E1,6.871704E1,1.788739E2],"tree_param":{"num_deleted":"0","num_feature":"81","num_nodes":"15","size_leaf_vector":"1"}},{"base_weights":[-3.6345457E-4,1.084953E-1,-5.9144016E-2,-4.207115E-2,9.343803E-3,-8.5538015E-2,8.07703E-3,5.199825E-3,-9.910235E-3,-1.4030911E-3,-1.1374103E-2],"categories":[],"categories_nodes":[],"categories_segments":[],"categories_sizes":[],"default_left":[0,0,0,0,0,0,0,0,0,0,0],"id":95,"left_children":[1,3,5,7,-1,9,-1,-1,-1,-1,-1],"loss_changes":[1.1242131E1,1.5693609E1,9.03948E0,1.6199505E1,0E0,1.160087E1,0E0,0E0,0E0,0E0,0E0],"parents":[2147483647,0,0,1,1,2,2,3,3,5,5],"right_children":[2,4,6,8,-1,10,-1,-1,-1,-1,-1],"split_conditions":[8.5E0,4.4382715E0,6.58E0,7.26E-1,9.343803E-3,9.681698E-2,8.07703E-3,5.199825E-3,-9.910235E-3,-1.4030911E-3,-1.1374103E-2],"split_indices":[80,11,54,24,0,23,0,0,0,0,0],"split_type":[0,0,0,0,0,0,0,0,0,0,0],"sum_hessian":[1.7493086E3,6.123486E2,1.1369601E3,3.233871E2,2.8896152E2,1.0453613E3,9.159872E1,1.814598E2,1.4192728E2,8.912153E2,1.5414607E2],"tree_param":{"num_deleted":"0","num_feature":"81","num_nodes":"11","size_leaf_vector":"1"}},{"base_weights":[2.412442E-2],"categories":[],"categories_nodes":[],"categories_segments":[],"categories_sizes":[],"default_left":[0],"id":96,"left_children":[-1],"loss_changes":[0E0],"parents":[2147483647],"right_children":[-1],"split_conditions":[8.1237155E-4],"split_indices":[0],"split_type":[0],"sum_hessian":[1.7581564E3],"tree_param":{"num_deleted":"0","num_feature":"81","num_nodes":"1","size_leaf_vector":"1"}},{"base_weights":[-2.3557218E-2,-3.628712E-2,1.6438892E-2,-8.8029134E-4,-2.2861872E-2],"categories":[],"categories_nodes":[],"categories_segments":[],"categories_sizes":[],"default_left":[0,0,0,0,0],"id":97,"left_children":[1,3,-1,-1,-1],"loss_changes":[1.147171E1,1.1214847E1,0E0,0E0,0E0],"parents":[2147483647,0,0,1,1],"right_children":[2,4,-1,-1,-1],"split_conditions":[7.44E0,1.2E1,1.6438892E-2,-8.8029134E-4,-2.2861872E-2],"split_indices":[54,80,0,0,0],"split_type":[0,0,0,0,0],"sum_hessian":[1.7466085E3,1.7046974E3,4.1911182E1,1.678647E3,2.6050365E1],"tree_param":{"num_deleted":"0","num_feature":"81","num_nodes":"5","size_leaf_vector":"1"}},{"base_weights":[1.8296935E-2,-7.898582E-3,2.5877735E-1,-1.789536E-1,2.5459439E-2,5.188075E-3,2.7508782E-2,5.202713E-4,-1.687844E-2,-1.189315E-3,6.2858034E-3],"categories":[],"categories_nodes":[],"categories_segments":[],"categories_sizes":[],"default_left":[0,0,1,0,1,0,0,0,0,0,0],"id":98,"left_children":[1,3,5,7,9,-1,-1,-1,-1,-1,-1],"loss_changes":[1.11521225E1,9.097004E0,1.0137397E1,1.6380424E1,1.3025978E1,0E0,0E0,0E0,0E0,0E0,0E0],"parents":[2147483647,0,0,1,1,2,2,3,3,4,4],"right_children":[2,4,6,8,10,-1,-1,-1,-1,-1,-1],"split_conditions":[1.98E0,5.05E0,4.49E-1,8.882382E-2,3.48E0,5.188075E-3,2.7508782E-2,5.202713E-4,-1.687844E-2,-1.189315E-3,6.2858034E-3],"split_indices":[60,65,29,50,20,0,0,0,0,0,0],"split_type":[0,0,0,0,0,0,0,0,0,0,0],"sum_hessian":[1.750823E3,1.5783997E3,1.7242342E2,2.5823425E2,1.3201654E3,1.4563608E2,2.6787342E1,1.6087186E2,9.736238E1,9.5809064E2,3.6207474E2],"tree_param":{"num_deleted":"0","num_feature":"81","num_nodes":"11","size_leaf_vector":"1"}},{"base_weights":[-2.458261E-2,2.1020286E-2,-1.1029007E-3],"categories":[],"categories_nodes":[],"categories_segments":[],"categories_sizes":[],"default_left":[0,0,0],"id":99,"left_children":[1,-1,-1],"loss_changes":[9.50685E0,0E0,0E0],"parents":[2147483647,0,0],"right_children":[2,-1,-1],"split_conditions":[6.68E-1,2.1020286E-2,-1.1029007E-3],"split_indices":[24,0,0],"split_type":[0,0,0],"sum_hessian":[1.7720869E3,2.1609003E1,1.7504779E3],"tree_param":{"num_deleted":"0","num_feature":"81","num_nodes":"3","size_leaf_vector":"1"}},{"base_weights":[-5.5954703E-3,1.8162124E-2,-9.243241E-3,-1.8442525E-4,8.139591E-3],"categories":[],"categories_nodes":[],"categories_segments":[],"categories_sizes":[],"default_left":[1,1,0,0,0],"id":100,"left_children":[1,3,