{"learner":{"attributes":{"best_iteration":"73","best_score":"0.499669093315685"},"feature_names":[],"feature_types":[],"gradient_booster":{"model":{"cats":{"enc":[],"feature_segments":[],"sorted_idx":[]},"gbtree_model_param":{"num_parallel_tree":"1","num_trees":"174"},"iteration_indptr":[0,1,2,3,4,5,6,7,8,9,10,11,12,13,14,15,16,17,18,19,20,21,22,23,24,25,26,27,28,29,30,31,32,33,34,35,36,37,38,39,40,41,42,43,44,45,46,47,48,49,50,51,52,53,54,55,56,57,58,59,60,61,62,63,64,65,66,67,68,69,70,71,72,73,74,75,76,77,78,79,80,81,82,83,84,85,86,87,88,89,90,91,92,93,94,95,96,97,98,99,100,101,102,103,104,105,106,107,108,109,110,111,112,113,114,115,116,117,118,119,120,121,122,123,124,125,126,127,128,129,130,131,132,133,134,135,136,137,138,139,140,141,142,143,144,145,146,147,148,149,150,151,152,153,154,155,156,157,158,159,160,161,162,163,164,165,166,167,168,169,170,171,172,173,174],"tree_info":[0,0,0,0,0,0,0,0,0,0,0,0,0,0,0,0,0,0,0,0,0,0,0,0,0,0,0,0,0,0,0,0,0,0,0,0,0,0,0,0,0,0,0,0,0,0,0,0,0,0,0,0,0,0,0,0,0,0,0,0,0,0,0,0,0,0,0,0,0,0,0,0,0,0,0,0,0,0,0,0,0,0,0,0,0,0,0,0,0,0,0,0,0,0,0,0,0,0,0,0,0,0,0,0,0,0,0,0,0,0,0,0,0,0,0,0,0,0,0,0,0,0,0,0,0,0,0,0,0,0,0,0,0,0,0,0,0,0,0,0,0,0,0,0,0,0,0,0,0,0,0,0,0,0,0,0,0,0,0,0,0,0,0,0,0,0,0,0,0,0,0,0,0,0],"trees":[{"base_weights":[-3.1957957E-3,2.6103925E-2,-1.3663603E-1,-9.3255185E-2,8.265895E-2,-2.999123E-1,2.9347487E-2,-1.159509E-4,-1.1876341E-3,4.449488E-4,-7.047585E-4,-2.6430783E-4,-2.065267E-3,-3.6150945E-4,1.7058881E-3],"categories":[],"categories_nodes":[],"categories_segments":[],"categories_sizes":[],"default_left":[0,0,0,0,0,0,0,0,0,0,0,0,0,0,0],"id":0,"left_children":[1,3,5,7,9,11,13,-1,-1,-1,-1,-1,-1,-1,-1],"loss_changes":[9.53278E0,1.3520669E1,1.1941716E1,8.554949E0,1.1036739E1,1.1514547E1,1.1103985E1,0E0,0E0,0E0,0E0,0E0,0E0,0E0,0E0],"parents":[2147483647,0,0,1,1,2,2,3,3,4,4,5,5,6,6],"right_children":[2,4,6,8,10,12,14,-1,-1,-1,-1,-1,-1,-1,-1],"split_conditions":[1.94E1,1.95E1,4.44E1,2E1,1.149E2,2.66E1,2E1,-1.159509E-4,-1.1876341E-3,4.449488E-4,-7.047585E-4,-2.6430783E-4,-2.065267E-3,-3.6150945E-4,1.7058881E-3],"split_indices":[63,74,68,93,24,9,78,0,0,0,0,0,0,0,0],"split_type":[0,0,0,0,0,0,0,0,0,0,0,0,0,0,0],"sum_hessian":[2.4269775E3,1.9926516E3,4.3432584E2,6.395755E2,1.353076E3,2.173069E2,2.1701895E2,4.9420715E2,1.4536838E2,1.2134012E3,1.3967484E2,1.0997757E2,1.0732932E2,1.6945343E2,4.7565517E1],"tree_param":{"num_deleted":"0","num_feature":"107","num_nodes":"15","size_leaf_vector":"1"}},{"base_weights":[1.6309267E-2,9.6984275E-2,-6.350171E-2,1.2984926E-1,-5.3618744E-4,1.2261154E-1,-1.1865551E-1,5.5535435E-4,-2.0753485E-3,-1.6877122E-3,7.005799E-4,-3.756303E-4,-2.5578698E-3],"categories":[],"categories_nodes":[],"categories_segments":[],"categories_sizes":[],"default_left":[0,0,0,0,0,0,0,0,0,0,0,0,0],"id":1,"left_children":[1,3,5,7,-1,9,11,-1,-1,-1,-1,-1,-1],"loss_changes":[1.5756171E1,9.422078E0,1.2695103E1,8.557159E0,0E0,9.097369E0,1.1374923E1,0E0,0E0,0E0,0E0,0E0,0E0],"parents":[2147483647,0,0,1,1,2,2,3,3,5,5,6,6],"right_children":[2,4,6,8,-1,10,12,-1,-1,-1,-1,-1,-1],"split_conditions":[1.6E1,4.29E1,4.45E-1,3E1,-5.3618744E-4,4.26E-1,2.34E2,5.5535435E-4,-2.0753485E-3,-1.6877122E-3,7.005799E-4,-3.756303E-4,-2.5578698E-3],"split_indices":[84,57,59,102,0,7,104,0,0,0,0,0,0],"split_type":[0,0,0,0,0,0,0,0,0,0,0,0,0],"sum_hessian":[2.4373655E3,1.2118429E3,1.2255225E3,1.0641533E3,1.476896E2,2.788509E2,9.466716E2,1.0489333E3,1.5220011E1,2.2965912E1,2.5588498E2,9.1249457E2,3.4177063E1],"tree_param":{"num_deleted":"0","num_feature":"107","num_nodes":"13","size_leaf_vector":"1"}},{"base_weights":[-3.8973838E-3,3.6942244E-2,-1.964309E-1,-1.759626E-1,6.2093902E-2,-1.4062761E-1,-2.8869384E-3,-3.6942496E-4,-2.5554264E-3,2.0641852E-4,2.1994857E-3,1.9111688E-3,-7.400911E-4],"categories":[],"categories_nodes":[],"categories_segments":[],"categories_sizes":[],"default_left":[0,0,0,0,0,0,0,0,0,0,0,0,0],"id":2,"left_children":[1,3,5,7,9,11,-1,-1,-1,-1,-1,-1,-1],"loss_changes":[1.9400827E1,1.0946242E1,1.2559799E1,8.145535E0,8.507939E0,1.2347744E1,0E0,0E0,0E0,0E0,0E0,0E0,0E0],"parents":[2147483647,0,0,1,1,2,2,3,3,4,4,5,5],"right_children":[2,4,6,8,10,12,-1,-1,-1,-1,-1,-1,-1],"split_conditions":[1.94E1,4E0,2.335E2,2.7E1,2.24E1,5.4E0,-2.8869384E-3,-3.6942496E-4,-2.5554264E-3,2.0641852E-4,2.1994857E-3,1.9111688E-3,-7.400911E-4],"split_indices":[63,50,104,92,11,60,0,0,0,0,0,0,0],"split_type":[0,0,0,0,0,0,0,0,0,0,0,0,0],"sum_hessian":[2.456972E3,2.0297192E3,4.2725272E2,2.1163945E2,1.8180798E3,3.920873E2,3.5165413E1,1.849481E2,2.6691341E1,1.7887751E3,2.930473E1,2.5041508E1,3.670458E2],"tree_param":{"num_deleted":"0","num_feature":"107","num_nodes":"13","size_leaf_vector":"1"}},{"base_weights":[7.3979273E-3,-3.236413E-1,2.4956496E-2,-5.53585E-1,-6.8004444E-2,-8.594186E-2,6.835909E-2,-3.3207584E-4,-3.0908822E-3,1.6495278E-3,-1.3323174E-3,3.7432046E-4,-6.392467E-4,1.560614E-4,1.0822043E-3],"categories":[],"categories_nodes":[],"categories_segments":[],"categories_sizes":[],"default_left":[0,0,0,0,0,0,0,0,0,0,0,0,0,0,0],"id":3,"left_children":[1,3,5,7,9,11,13,-1,-1,-1,-1,-1,-1,-1,-1],"loss_changes":[1.4113295E1,7.0185394E0,1.1113907E1,6.6974907E0,8.961893E0,9.140121E0,9.786552E0,0E0,0E0,0E0,0E0,0E0,0E0,0E0,0E0],"parents":[2147483647,0,0,1,1,2,2,3,3,4,4,5,5,6,6],"right_children":[2,4,6,8,10,12,14,-1,-1,-1,-1,-1,-1,-1,-1],"split_conditions":[8.2E0,1.6E1,9E0,1.05E1,1.5E1,9E0,1.23E1,-3.3207584E-4,-3.0908822E-3,1.6495278E-3,-1.3323174E-3,3.7432046E-4,-6.392467E-4,1.560614E-4,1.0822043E-3],"split_indices":[66,32,50,14,40,94,66,0,0,0,0,0,0,0,0],"split_type":[0,0,0,0,0,0,0,0,0,0,0,0,0,0,0],"sum_hessian":[2.4160515E3,1.1788477E2,2.2981667E3,5.939736E1,5.8487408E1,6.45087E2,1.6530797E3,2.1743444E1,3.765392E1,2.0029718E1,3.8457687E1,1.9180434E2,4.5328262E2,1.4574193E3,1.956605E2],"tree_param":{"num_deleted":"0","num_feature":"107","num_nodes":"15","size_leaf_vector":"1"}},{"base_weights":[2.6247383E-3,9.925795E-2,-7.521211E-2,-1.698452E-3,1.165695E-1,-3.0611342E-1,-3.815511E-2,1.4651868E-4,9.823478E-4,4.4486827E-5,-1.8235445E-3,1.9550213E-4,-5.660375E-4],"categories":[],"categories_nodes":[],"categories_segments":[],"categories_sizes":[],"default_left":[0,0,0,0,0,0,0,0,0,0,0,0,0],"id":4,"left_children":[1,3,5,-1,7,9,11,-1,-1,-1,-1,-1,-1],"loss_changes":[1.8255806E1,1.0200363E1,1.1451126E1,0E0,1.1107832E1,9.36344E0,1.08939E1,0E0,0E0,0E0,0E0,0E0,0E0],"parents":[2147483647,0,0,1,1,2,2,4,4,5,5,6,6],"right_children":[2,4,6,-1,8,10,12,-1,-1,-1,-1,-1,-1],"split_conditions":[4.54E-1,1.36E-1,5E0,-1.698452E-3,2E1,2E1,1.2E1,1.4651868E-4,9.823478E-4,4.4486827E-5,-1.8235445E-3,1.9550213E-4,-5.660375E-4],"split_indices":[59,55,31,0,37,75,95,0,0,0,0,0,0],"split_type":[0,0,0,0,0,0,0,0,0,0,0,0,0],"sum_hessian":[2.4172676E3,1.0780632E3,1.3392043E3,3.0705988E1,1.0473573E3,1.8083449E2,1.1583699E3,6.613228E2,3.8603445E2,6.150202E1,1.1933247E2,6.343422E2,5.2402765E2],"tree_param":{"num_deleted":"0","num_feature":"107","num_nodes":"13","size_leaf_vector":"1"}},{"base_weights":[-1.563142E-2,7.348506E-2,-1.03769556E-1,-1.3260664E-1,1.178188E-1,-8.363288E-2,-2.2128248E-3,-7.898687E-4,1.9308567E-3,-1.4997913E-4,6.364959E-4,-3.735901E-4,1.8385603E-3],"categories":[],"categories_nodes":[],"categories_segments":[],"categories_sizes":[],"default_left":[0,0,0,0,0,0,0,0,0,0,0,0,0],"id":5,"left_children":[1,3,5,7,9,11,-1,-1,-1,-1,-1,-1,-1],"loss_changes":[1.9281197E1,1.1225201E1,1.1240524E1,9.793884E0,7.006448E0,7.790166E0,0E0,0E0,0E0,0E0,0E0,0E0,0E0],"parents":[2147483647,0,0,1,1,2,2,3,3,4,4,5,5],"right_children":[2,4,6,8,10,12,-1,-1,-1,-1,-1,-1,-1],"split_conditions":[1.6E1,6E0,2.33E2,4.83E1,3.42E-1,6E0,-2.2128248E-3,-7.898687E-4,1.9308567E-3,-1.4997913E-4,6.364959E-4,-3.735901E-4,1.8385603E-3],"split_indices":[84,50,104,16,3,105,0,0,0,0,0,0,0],"split_type":[0,0,0,0,0,0,0,0,0,0,0,0,0],"sum_hessian":[2.4451372E3,1.2160125E3,1.2291248E3,2.1366556E2,1.0023469E3,1.1824592E3,4.666552E1,1.95133E2,1.8532562E1,2.2197537E2,7.803716E2,1.1616752E3,2.0784086E1],"tree_param":{"num_deleted":"0","num_feature":"107","num_nodes":"13","size_leaf_vector":"1"}},{"base_weights":[6.988996E-3,1.0404554E-1,-5.0576657E-2,-1.4827297E-2,2.1198271E-1,4.5338325E-2,-1.4101529E-1,-1.84002E-4,2.6049707E-3,1.0881962E-3,-7.705571E-4,-9.878587E-4,3.429047E-4,1.458739E-3,-6.8234385E-4],"categories":[],"categories_nodes":[],"categories_segments":[],"categories_sizes":[],"default_left":[0,0,0,0,0,0,0,0,0,0,0,0,0,0,0],"id":6,"left_children":[1,3,5,7,9,11,13,-1,-1,-1,-1,-1,-1,-1,-1],"loss_changes":[1.3549081E1,1.1602707E1,1.3233637E1,9.581847E0,1.2875944E1,9.366327E0,1.3510872E1,0E0,0E0,0E0,0E0,0E0,0E0,0E0,0E0],"parents":[2147483647,0,0,1,1,2,2,3,3,4,4,5,5,6,6],"right_children":[2,4,6,8,10,12,14,-1,-1,-1,-1,-1,-1,-1,-1],"split_conditions":[1.2E1,1.44E1,4.55E-1,2.9E1,8.01E-1,4.25E-1,3.6E0,-1.84002E-4,2.6049707E-3,1.0881962E-3,-7.705571E-4,-9.878587E-4,3.429047E-4,1.458739E-3,-6.8234385E-4],"split_indices":[84,70,7,26,13,7,73,0,0,0,0,0,0,0,0],"split_type":[0,0,0,0,0,0,0,0,0,0,0,0,0,0,0],"sum_hessian":[2.4150466E3,8.980249E2,1.5170219E3,4.2898215E2,4.690428E2,7.370969E2,7.7992487E2,4.1344388E2,1.5538276E1,4.0558136E2,6.3461407E1,8.868174E1,6.4841516E2,4.430226E1,7.356226E2],"tree_param":{"num_deleted":"0","num_feature":"107","num_nodes":"15","size_leaf_vector":"1"}},{"base_weights":[1.604756E-2,3.2265104E-2,-2.4773243E-1,-5.4799E-2,8.603E-2,-8.420082E-2,-2.8579102E-3,-7.841204E-5,-2.021001E-3,9.851608E-4,1.3568578E-4,-1.1498464E-3,1.205662E-3],"categories":[],"categories_nodes":[],"categories_segments":[],"categories_sizes":[],"default_left":[0,0,0,0,0,0,0,0,0,0,0,0,0],"id":7,"left_children":[1,3,5,7,9,11,-1,-1,-1,-1,-1,-1,-1],"loss_changes":[1.0420249E1,1.0742795E1,1.082162E1,1.4010834E1,1.1999092E1,9.40082E0,0E0,0E0,0E0,0E0,0E0,0E0,0E0],"parents":[2147483647,0,0,1,1,2,2,3,3,4,4,5,5],"right_children":[2,4,6,8,10,12,-1,-1,-1,-1,-1,-1,-1],"split_conditions":[4.89E1,1.2E1,2.4E1,2.335E2,8E0,1.8E1,-2.8579102E-3,-7.841204E-5,-2.021001E-3,9.851608E-4,1.3568578E-4,-1.1498464E-3,1.205662E-3],"split_indices":[4,36,102,104,92,86,0,0,0,0,0,0,0],"split_type":[0,0,0,0,0,0,0,0,0,0,0,0,0],"sum_hessian":[2.42161E3,2.2849617E3,1.3664833E2,8.7210803E2,1.4128538E3,1.0572286E2,3.0925474E1,8.149509E2,5.7157124E1,3.31746E2,1.0811078E3,6.968686E1,3.6036E1],"tree_param":{"num_deleted":"0","num_feature":"107","num_nodes":"13","size_leaf_vector":"1"}},{"base_weights":[2.190488E-3,7.837384E-2,-6.1144903E-2,-8.513301E-2,1.423535E-1,5.031396E-2,-1.431666E-1,4.8929676E-5,-1.3508884E-3,7.6411804E-4,-1.15368224E-4,-2.031432E-3,3.2943944E-4,-3.3665475E-4,-1.423574E-3],"categories":[],"categories_nodes":[],"categories_segments":[],"categories_sizes":[],"default_left":[0,0,0,0,0,0,0,0,0,0,0,0,0,0,0],"id":8,"left_children":[1,3,5,7,9,11,13,-1,-1,-1,-1,-1,-1,-1,-1],"loss_changes":[1.1746393E1,1.1615793E1,1.2183653E1,7.9635744E0,7.1905746E0,1.1020525E1,9.529491E0,0E0,0E0,0E0,0E0,0E0,0E0,0E0,0E0],"parents":[2147483647,0,0,1,1,2,2,3,3,4,4,5,5,6,6],"right_children":[2,4,6,8,10,12,14,-1,-1,-1,-1,-1,-1,-1,-1],"split_conditions":[4.54E-1,6E0,1.5E1,2.4E1,2.4E1,1.48E1,4.17E1,4.8929676E-5,-1.3508884E-3,7.6411804E-4,-1.15368224E-4,-2.031432E-3,3.2943944E-4,-3.3665475E-4,-1.423574E-3],"split_indices":[59,26,84,44,41,63,5,0,0,0,0,0,0,0,0],"split_type":[0,0,0,0,0,0,0,0,0,0,0,0,0,0,0],"sum_hessian":[2.4242622E3,1.1002533E3,1.3240089E3,3.0892282E2,7.9133044E2,5.618336E2,7.621753E2,2.2725879E2,8.166404E1,6.0609625E2,1.8523419E2,2.7951536E1,5.338821E2,6.09094E2,1.5308127E2],"tree_param":{"num_deleted":"0","num_feature":"107","num_nodes":"15","size_leaf_vector":"1"}},{"base_weights":[1.9904187E-2,4.2340808E-2,-2.264095E-1,-8.234274E-3,1.3180895E-1,-1.19486354E-1,-2.4167835E-3,-1.8021799E-4,5.7209417E-4,7.9938886E-4,-3.85441E-4,-1.10074994E-4,-2.4318243E-3],"categories":[],"categories_nodes":[],"categories_segments":[],"categories_sizes":[],"default_left":[0,0,0,0,0,0,0,0,0,0,0,0,0],"id":9,"left_children":[1,3,5,7,9,11,-1,-1,-1,-1,-1,-1,-1],"loss_changes":[1.3457453E1,1.0091694E1,8.154102E0,8.319191E0,1.3410553E1,7.470499E0,0E0,0E0,0E0,0E0,0E0,0E0,0E0],"parents":[2147483647,0,0,1,1,2,2,3,3,4,4,5,5],"right_children":[2,4,6,8,10,12,-1,-1,-1,-1,-1,-1,-1],"split_conditions":[1.155E2,2E1,2.5E1,2.5E1,1.92E1,2.5E1,-2.4167835E-3,-1.8021799E-4,5.7209417E-4,7.9938886E-4,-3.85441E-4,-1.10074994E-4,-2.4318243E-3],"split_indices":[24,100,92,37,63,84,0,0,0,0,0,0,0],"split_type":[0,0,0,0,0,0,0,0,0,0,0,0,0],"sum_hessian":[2.421886E3,2.223023E3,1.9886313E2,1.4224642E3,8.005587E2,1.6044078E2,3.8422344E1,1.145345E3,2.7711917E2,6.1036523E2,1.9019348E2,1.3948677E2,2.0954012E1],"tree_param":{"num_deleted":"0","num_feature":"107","num_nodes":"13","size_leaf_vector":"1"}},{"base_weights":[-3.9725564E-3,-2.3739076E-1,2.0581981E-2,-5.3103402E-2,-2.169246E-3,-1.1571746E-1,5.0792016E-2,-1.8074501E-3,4.5593665E-4,2.0310169E-3,-6.087861E-4,1.4132453E-4,1.6011791E-3],"categories":[],"categories_nodes":[],"categories_segments":[],"categories_sizes":[],"default_left":[0,0,0,0,0,0,0,0,0,0,0,0,0],"id":10,"left_children":[1,3,5,7,-1,9,11,-1,-1,-1,-1,-1,-1],"loss_changes":[1.4034395E1,1.3413454E1,9.143131E0,1.0733918E1,0E0,1.0415361E1,9.526041E0,0E0,0E0,0E0,0E0,0E0,0E0],"parents":[2147483647,0,0,1,1,2,2,3,3,5,5,6,6],"right_children":[2,4,6,8,-1,10,12,-1,-1,-1,-1,-1,-1],"split_conditions":[8.6E0,4.63E-1,8E0,4E0,-2.169246E-3,3.3E0,3E1,-1.8074501E-3,4.5593665E-4,2.0310169E-3,-6.087861E-4,1.4132453E-4,1.6011791E-3],"split_indices":[66,7,1,99,0,73,32,0,0,0,0,0,0],"split_type":[0,0,0,0,0,0,0,0,0,0,0,0,0],"sum_hessian":[2.4372168E3,2.2858667E2,2.2086301E3,1.4747554E2,8.111112E1,3.9836444E2,1.8102657E3,4.1188847E1,1.06286705E2,2.0286955E1,3.7807748E2,1.7429308E3,6.733498E1],"tree_param":{"num_deleted":"0","num_feature":"107","num_nodes":"13","size_leaf_vector":"1"}},{"base_weights":[7.5237644E-3,-2.8336763E-1,2.4910662E-2,9.546044E-4,-1.721561E-3,-3.3875618E-2,9.260307E-2,-5.6641264E-4,9.0831905E-5,1.0752031E-3,1.7234015E-4],"categories":[],"categories_nodes":[],"categories_segments":[],"categories_sizes":[],"default_left":[0,0,0,0,0,0,0,0,0,0,0],"id":11,"left_children":[1,3,5,-1,-1,7,9,-1,-1,-1,-1],"loss_changes":[1.2448948E1,1.1824024E1,9.249541E0,0E0,0E0,7.862403E0,9.484274E0,0E0,0E0,0E0,0E0],"parents":[2147483647,0,0,1,1,2,2,5,5,6,6],"right_children":[2,4,6,-1,-1,8,10,-1,-1,-1,-1],"split_conditions":[6E0,1.74E-1,4.41E1,9.546044E-4,-1.721561E-3,1.1E1,7E0,-5.6641264E-4,9.0831905E-5,1.0752031E-3,1.7234015E-4],"split_indices":[52,3,68,0,0,39,19,0,0,0,0],"split_type":[0,0,0,0,0,0,0,0,0,0,0],"sum_hessian":[2.4492979E3,1.3438492E2,2.314913E3,3.0024172E1,1.0436075E2,1.2398723E3,1.0750408E3,4.2006952E2,8.198028E2,2.231813E2,8.5185944E2],"tree_param":{"num_deleted":"0","num_feature":"107","num_nodes":"11","size_leaf_vector":"1"}},{"base_weights":[-1.4016478E-2,-2.1433908E-1,6.9141565E-3,-1.0318013E-3,1.7281466E-3,5.0905388E-2,-9.222675E-2,4.8041195E-5,9.416012E-4,-4.906337E-4,1.5814502E-3],"categories":[],"categories_nodes":[],"categories_segments":[],"categories_sizes":[],"default_left":[0,0,0,0,0,0,0,0,0,0,0],"id":12,"left_children":[1,3,5,-1,-1,7,9,-1,-1,-1,-1],"loss_changes":[1.0255063E1,7.8693743E0,9.679345E0,0E0,0E0,1.1218727E1,1.1304825E1,0E0,0E0,0E0,0E0],"parents":[2147483647,0,0,1,1,2,2,5,5,6,6],"right_children":[2,4,6,-1,-1,8,10,-1,-1,-1,-1],"split_conditions":[8.6E0,4.88E1,1.84E1,-1.0318013E-3,1.7281466E-3,2.6E1,2.77E1,4.8041195E-5,9.416012E-4,-4.906337E-4,1.5814502E-3],"split_indices":[66,16,63,0,0,38,12,0,0,0,0],"split_type":[0,0,0,0,0,0,0,0,0,0,0],"sum_hessian":[2.4358943E3,2.268519E2,2.2090425E3,2.135799E2,1.3272006E1,1.5317283E3,6.773143E2,1.275546E3,2.5618222E2,6.382637E2,3.9050594E1],"tree_param":{"num_deleted":"0","num_feature":"107","num_nodes":"11","size_leaf_vector":"1"}},{"base_weights":[-1.8306293E-2,1.6784336E-2,-1.6106388E-1,-2.3141826E-2,1.5168159E-1,-1.08386695E-1,-2.336963E-3,2.3513667E-3,-1.3100378E-4,1.1530741E-4,1.392827E-3,-6.760602E-4,5.8038643E-4],"categories":[],"categories_nodes":[],"categories_segments":[],"categories_sizes":[],"default_left":[0,0,0,0,0,0,0,0,0,0,0,0,0],"id":13,"left_children":[1,3,5,7,9,11,-1,-1,-1,-1,-1,-1,-1],"loss_changes":[1.2140477E1,1.0503575E1,1.0671793E1,9.694402E0,1.1018959E1,7.1855793E0,0E0,0E0,0E0,0E0,0E0,0E0,0E0],"parents":[2147483647,0,0,1,1,2,2,3,3,4,4,5,5],"right_children":[2,4,6,8,10,12,-1,-1,-1,-1,-1,-1,-1],"split_conditions":[1.92E1,2.4E1,4.8E-1,4.1E-1,1.7E1,2.6E1,-2.336963E-3,2.3513667E-3,-1.3100378E-4,1.1530741E-4,1.392827E-3,-6.760602E-4,5.8038643E-4],"split_indices":[63,45,59,7,82,96,0,0,0,0,0,0,0],"split_type":[0,0,0,0,0,0,0,0,0,0,0,0,0],"sum_hessian":[2.414364E3,1.9408433E3,4.7352078E2,1.5001467E3,4.406965E2,4.271099E2,4.6410873E1,2.0292746E1,1.479854E3,2.7827444E2,1.6242206E2,3.4307248E2,8.403741E1],"tree_param":{"num_deleted":"0","num_feature":"107","num_nodes":"13","size_leaf_vector":"1"}},{"base_weights":[1.2321573E-2,-9.730318E-2,6.0665E-2,-3.1038232E-3,-8.138979E-2,1.8237881E-1,-1.4450982E-2,-6.2835106E-4,2.3490601E-4,1.2185003E-3,-8.7040724E-5,-2.532615E-4,7.6254405E-4],"categories":[],"categories_nodes":[],"categories_segments":[],"categories_sizes":[],"default_left":[0,0,0,0,0,0,0,0,0,0,0,0,0],"id":14,"left_children":[1,3,5,-1,7,9,11,-1,-1,-1,-1,-1,-1],"loss_changes":[1.2930644E1,7.983866E0,1.5491063E1,0E0,8.218847E0,1.6982513E1,1.1043736E1,0E0,0E0,0E0,0E0,0E0,0E0],"parents":[2147483647,0,0,1,1,2,2,4,4,5,5,6,6],"right_children":[2,4,6,-1,8,10,12,-1,-1,-1,-1,-1,-1],"split_conditions":[1E1,2E0,1.3E1,-3.1038232E-3,2E1,2.35E1,1.13E1,-6.2835106E-4,2.3490601E-4,1.2185003E-3,-8.7040724E-5,-2.532615E-4,7.6254405E-4],"split_indices":[96,87,84,0,37,64,66,0,0,0,0,0,0],"split_type":[0,0,0,0,0,0,0,0,0,0,0,0,0],"sum_hessian":[2.4295786E3,7.4203564E2,1.687543E3,1.1962593E1,7.3007306E2,6.418447E2,1.0456982E3,4.6852737E2,2.6154565E2,3.933605E2,2.4848422E2,8.4583307E2,1.9986513E2],"tree_param":{"num_deleted":"0","num_feature":"107","num_nodes":"13","size_leaf_vector":"1"}},{"base_weights":[1.2304637E-2,-1.09297015E-1,5.9806373E-2,-3.0370846E-1,-3.930506E-2,5.017128E-2,2.1559803E-3,-2.7563082E-4,-2.5178418E-3,3.9586506E-5,-1.4928568E-3,1.0949802E-3,6.0431248E-5],"categories":[],"categories_nodes":[],"categories_segments":[],"categories_sizes":[],"default_left":[0,0,0,0,0,0,0,0,0,0,0,0,0],"id":15,"left_children":[1,3,5,7,9,11,-1,-1,-1,-1,-1,-1,-1],"loss_changes":[1.4073468E1,9.260462E0,8.154942E0,1.4039698E1,8.605297E0,1.36873E1,0E0,0E0,0E0,0E0,0E0,0E0,0E0],"parents":[2147483647,0,0,1,1,2,2,3,3,4,4,5,5],"right_children":[2,4,6,8,10,12,-1,-1,-1,-1,-1,-1,-1],"split_conditions":[9E0,4.25E1,2.49E1,9E0,2.5E1,5E0,2.1559803E-3,-2.7563082E-4,-2.5178418E-3,3.9586506E-5,-1.4928568E-3,1.0949802E-3,6.0431248E-5],"split_indices":[50,68,23,27,92,92,0,0,0,0,0,0,0],"split_type":[0,0,0,0,0,0,0,0,0,0,0,0,0],"sum_hessian":[2.4260771E3,6.797749E2,1.7463024E3,1.7608716E2,5.036877E2,1.7172493E3,2.9053133E1,1.0722501E2,6.886215E1,4.4351035E2,6.017737E1,2.2243501E2,1.4948142E3],"tree_param":{"num_deleted":"0","num_feature":"107","num_nodes":"13","size_leaf_vector":"1"}},{"base_weights":[8.893249E-3,-4.7495298E-2,8.286725E-2,-1.8514176E-1,1.8365087E-2,-1.0786692E-2,1.6696304E-1,-9.2314166E-4,8.367513E-4,-1.0303763E-3,2.3774151E-4,1.2861751E-3,-2.4135917E-4,4.0922323E-4,1.8868849E-3],"categories":[],"categories_nodes":[],"categories_segments":[],"categories_sizes":[],"default_left":[0,0,0,0,0,0,0,0,0,0,0,0,0,0,0],"id":16,"left_children":[1,3,5,7,9,11,13,-1,-1,-1,-1,-1,-1,-1,-1],"loss_changes":[1.0130758E1,1.251376E1,8.285139E0,9.137878E0,1.1173645E1,8.693952E0,1.0683751E1,0E0,0E0,0E0,0E0,0E0,0E0,0E0,0E0],"parents":[2147483647,0,0,1,1,2,2,3,3,4,4,5,5,6,6],"right_children":[2,4,6,8,10,12,14,-1,-1,-1,-1,-1,-1,-1,-1],"split_conditions":[4.43E1,1.1E1,1.2E1,2.8E1,1.4E1,3.27E-1,1.8E1,-9.2314166E-4,8.367513E-4,-1.0303763E-3,2.3774151E-4,1.2861751E-3,-2.4135917E-4,4.0922323E-4,1.8868849E-3],"split_indices":[68,100,30,83,94,10,93,0,0,0,0,0,0,0,0],"split_type":[0,0,0,0,0,0,0,0,0,0,0,0,0,0,0],"sum_hessian":[2.4185525E3,1.3730494E3,1.045503E3,4.42006E2,9.310434E2,4.9623413E2,5.4926886E2,3.9422406E2,4.7781944E1,1.18656136E2,8.1238727E2,6.156279E1,4.3467136E2,4.626415E2,8.662737E1],"tree_param":{"num_deleted":"0","num_feature":"107","num_nodes":"15","size_leaf_vector":"1"}},{"base_weights":[8.0272565E-3,-1.8704683E-2,1.8337548E-1,-7.605373E-2,5.6093592E-2,4.00421E-1,8.494633E-2,-8.4153505E-4,-9.6751006E-5,-8.445488E-4,3.8890034E-4,-2.0534864E-4,2.2994587E-3,-8.5708394E-4,7.970832E-4],"categories":[],"categories_nodes":[],"categories_segments":[],"categories_sizes":[],"default_left":[0,0,0,0,0,0,0,0,0,0,0,0,0,0,0],"id":17,"left_children":[1,3,5,7,9,11,13,-1,-1,-1,-1,-1,-1,-1,-1],"loss_changes":[1.1435979E1,9.098128E0,6.746915E0,8.5109005E0,1.0840829E1,8.507382E0,8.356583E0,0E0,0E0,0E0,0E0,0E0,0E0,0E0,0E0],"parents":[2147483647,0,0,1,1,2,2,3,3,4,4,5,5,6,6],"right_children":[2,4,6,8,10,12,14,-1,-1,-1,-1,-1,-1,-1,-1],"split_conditions":[2.7E1,4.43E1,1.023E2,9E0,5E0,3.08E1,2.085E2,-8.4153505E-4,-9.6751006E-5,-8.445488E-4,3.8890034E-4,-2.0534864E-4,2.2994587E-3,-8.5708394E-4,7.970832E-4],"split_indices":[38,68,76,36,31,67,104,0,0,0,0,0,0,0,0],"split_type":[0,0,0,0,0,0,0,0,0,0,0,0,0,0,0],"sum_hessian":[2.4290464E3,2.1108748E3,3.1817148E2,1.1949746E3,9.1590027E2,9.511599E1,2.230555E2,3.197937E2,8.7518085E2,1.2291921E2,7.92981E2,2.8495014E1,6.662097E1,6.1458218E1,1.6159727E2],"tree_param":{"num_deleted":"0","num_feature":"107","num_nodes":"15","size_leaf_vector":"1"}},{"base_weights":[-5.73766E-4,-6.5010235E-2,8.27796E-2,-1.8676773E-1,5.504212E-3,1.997886E-3,5.853435E-2,7.0158025E-4,-9.252418E-4,1.6242279E-4,-1.1384913E-3,-2.7528018E-4,4.915126E-4],"categories":[],"categories_nodes":[],"categories_segments":[],"categories_sizes":[],"default_left":[0,0,0,0,0,0,0,0,0,0,0,0,0],"id":18,"left_children":[1,3,5,7,9,-1,11,-1,-1,-1,-1,-1,-1],"loss_changes":[1.3104908E1,1.1826023E1,1.08734865E1,9.238602E0,9.346211E0,0E0,8.724811E0,0E0,0E0,0E0,0E0,0E0,0E0],"parents":[2147483647,0,0,1,1,2,2,3,3,4,4,6,6],"right_children":[2,4,6,8,10,-1,12,-1,-1,-1,-1,-1,-1],"split_conditions":[4.43E1,1.2E1,3.25E1,1.012E2,2.55E1,1.997886E-3,1.1E1,7.0158025E-4,-9.252418E-4,1.6242279E-4,-1.1384913E-3,-2.7528018E-4,4.915126E-4],"split_indices":[68,31,67,24,64,0,45,0,0,0,0,0,0],"split_type":[0,0,0,0,0,0,0,0,0,0,0,0,0],"sum_hessian":[2.4299841E3,1.3712274E3,1.0587566E3,5.0046768E2,8.7075977E2,5.233401E1,1.0064226E3,5.778218E1,4.4268552E2,7.7984155E2,9.091819E1,3.4342877E2,6.6299384E2],"tree_param":{"num_deleted":"0","num_feature":"107","num_nodes":"13","size_leaf_vector":"1"}},{"base_weights":[1.7908365E-3,9.501941E-2,-5.2141134E-2,1.3042615E-1,-2.0646545E-1,1.1284235E-1,-9.5624976E-2,-4.630164E-6,9.203596E-4,9.329479E-4,-1.794728E-3,-2.9656838E-4,9.799702E-4,-2.6219618E-4,-1.601255E-3],"categories":[],"categories_nodes":[],"categories_segments":[],"categories_sizes":[],"default_left":[0,0,0,0,0,0,0,0,0,0,0,0,0,0,0],"id":19,"left_children":[1,3,5,7,9,11,13,-1,-1,-1,-1,-1,-1,-1,-1],"loss_changes":[1.219694E1,9.610183E0,1.1070006E1,1.0945987E1,1.1077448E1,8.405347E0,1.0851356E1,0E0,0E0,0E0,0E0,0E0,0E0,0E0,0E0],"parents":[2147483647,0,0,1,1,2,2,3,3,4,4,5,5,6,6],"right_children":[2,4,6,8,10,12,14,-1,-1,-1,-1,-1,-1,-1,-1],"split_conditions":[1.2E1,9.24E1,7E0,1.2E1,1.2E1,1.041E2,1.154E2,-4.630164E-6,9.203596E-4,9.329479E-4,-1.794728E-3,-2.9656838E-4,9.799702E-4,-2.6219618E-4,-1.601255E-3],"split_indices":[84,58,19,30,32,76,24,0,0,0,0,0,0,0,0],"split_type":[0,0,0,0,0,0,0,0,0,0,0,0,0,0,0],"sum_hessian":[2.4154995E3,8.8424786E2,1.5312517E3,7.935549E2,9.069296E1,3.178529E2,1.2133988E3,3.5224966E2,4.413052E2,3.2775616E1,5.791735E1,1.3446907E2,1.8338383E2,1.1157743E3,9.7624535E1],"tree_param":{"num_deleted":"0","num_feature":"107","num_nodes":"15","size_leaf_vector":"1"}},{"base_weights":[1.003167E-2,4.2229656E-2,-1.3294473E-1,5.5073902E-2,-3.2225868E-1,-2.101743E-3,-3.914282E-1,1.919757E-5,6.705832E-4,1.0649423E-3,-2.3827173E-3,-5.00163E-4,9.547625E-4,1.5774735E-3,-1.8619887E-3],"categories":[],"categories_nodes":[],"categories_segments":[],"categories_sizes":[],"default_left":[0,0,0,0,0,0,0,0,0,0,0,0,0,0,0],"id":20,"left_children":[1,3,5,7,9,11,13,-1,-1,-1,-1,-1,-1,-1,-1],"loss_changes":[1.121863E1,9.388966E0,1.5137102E1,1.117509E1,1.2274747E1,9.424871E0,1.0749277E1,0E0,0E0,0E0,0E0,0E0,0E0,0E0,0E0],"parents":[2147483647,0,0,1,1,2,2,3,3,4,4,5,5,6,6],"right_children":[2,4,6,8,10,12,14,-1,-1,-1,-1,-1,-1,-1,-1],"split_conditions":[1.93E1,4.91E-1,1.9E1,2.12E1,1.2E1,2E1,6.8E0,1.919757E-5,6.705832E-4,1.0649423E-3,-2.3827173E-3,-5.00163E-4,9.547625E-4,1.5774735E-3,-1.8619887E-3],"split_indices":[63,7,94,74,91,33,8,0,0,0,0,0,0,0,0],"split_type":[0,0,0,0,0,0,0,0,0,0,0,0,0,0,0],"sum_hessian":[2.4260564E3,1.9827377E3,4.4331863E2,1.9188031E3,6.3934536E1,2.9724506E2,1.4607358E2,1.3420146E3,5.767885E2,2.0769361E1,4.3165173E1,1.9817244E2,9.90726E1,1.2269239E1,1.3380434E2],"tree_param":{"num_deleted":"0","num_feature":"107","num_nodes":"15","size_leaf_vector":"1"}},{"base_weights":[3.633095E-3,-2.3655605E-2,1.4755581E-1,2.5298724E-1,-4.4865586E-2,-2.383639E-1,2.0806356E-1,2.7855067E-4,3.0956047E-3,-7.6646E-4,-3.956485E-5,-1.7310231E-3,1.3315699E-3,-3.750893E-4,1.1402114E-3],"categories":[],"categories_nodes":[],"categories_segments":[],"categories_sizes":[],"default_left":[0,0,0,0,0,0,0,0,0,0,0,0,0,0,0],"id":21,"left_children":[1,3,5,7,9,11,13,-1,-1,-1,-1,-1,-1,-1,-1],"loss_changes":[9.561723E0,1.2051689E1,9.278973E0,1.4022453E1,9.95018E0,7.0487356E0,8.588279E0,0E0,0E0,0E0,0E0,0E0,0E0,0E0,0E0],"parents":[2147483647,0,0,1,1,2,2,3,3,4,4,5,5,6,6],"right_children":[2,4,6,8,10,12,14,-1,-1,-1,-1,-1,-1,-1,-1],"split_conditions":[2.6E1,1.92E2,5E0,8.2E0,8.32E1,1.14E1,3.13E-1,2.7855067E-4,3.0956047E-3,-7.6646E-4,-3.956485E-5,-1.7310231E-3,1.3315699E-3,-3.750893E-4,1.1402114E-3],"split_indices":[88,104,40,60,6,8,62,0,0,0,0,0,0,0,0],"split_type":[0,0,0,0,0,0,0,0,0,0,0,0,0,0,0],"sum_hessian":[2.4232593E3,2.0398439E3,3.8341537E2,1.4185718E2,1.8979867E3,5.0212162E1,3.3320322E2,1.0952346E2,3.2333714E1,3.5254617E2,1.5454406E3,3.794583E1,1.2266331E1,7.097862E1,2.622246E2],"tree_param":{"num_deleted":"0","num_feature":"107","num_nodes":"15","size_leaf_vector":"1"}},{"base_weights":[-1.0947115E-2,3.701433E-2,-1.15562916E-1,-1.3726214E-1,7.450022E-2,1.1479685E-1,-1.7925033E-1,1.709219E-3,-7.305962E-4,-1.6171067E-3,3.5440864E-4,-3.2241666E-4,1.5696146E-3,-8.715896E-4,9.7613025E-4],"categories":[],"categories_nodes":[],"categories_segments":[],"categories_sizes":[],"default_left":[0,0,0,0,0,0,0,0,0,0,0,0,0,0,0],"id":22,"left_children":[1,3,5,7,9,11,13,-1,-1,-1,-1,-1,-1,-1,-1],"loss_changes":[1.2191622E1,1.0929927E1,1.1296614E1,8.664171E0,1.0743903E1,9.595509E0,1.1253284E1,0E0,0E0,0E0,0E0,0E0,0E0,0E0,0E0],"parents":[2147483647,0,0,1,1,2,2,3,3,4,4,5,5,6,6],"right_children":[2,4,6,8,10,12,14,-1,-1,-1,-1,-1,-1,-1,-1],"split_conditions":[1.84E1,1.53E1,7E0,3E0,1.59E1,1.3E1,6.2E0,1.709219E-3,-7.305962E-4,-1.6171067E-3,3.5440864E-4,-3.2241666E-4,1.5696146E-3,-8.715896E-4,9.7613025E-4],"split_indices":[63,63,41,44,9,50,73,0,0,0,0,0,0,0,0],"split_type":[0,0,0,0,0,0,0,0,0,0,0,0,0,0,0],"sum_hessian":[2.4199055E3,1.660924E3,7.589816E2,2.9188034E2,1.3690436E3,1.6355302E2,5.954286E2,2.0281061E1,2.715993E2,3.9697342E1,1.3293463E3,9.847285E1,6.508018E1,5.43138E2,5.2290577E1],"tree_param":{"num_deleted":"0","num_feature":"107","num_nodes":"15","size_leaf_vector":"1"}},{"base_weights":[-4.2999745E-3,1.7196562E-2,-2.028617E-1,7.5434167E-3,1.7139519E-3,5.2815113E-2,-3.7590262E-1,4.981451E-4,-1.0512681E-4,8.5895084E-4,-1.5078452E-3,-2.1337627E-3,2.8659447E-4],"categories":[],"categories_nodes":[],"categories_segments":[],"categories_sizes":[],"default_left":[0,0,0,0,0,0,0,0,0,0,0,0,0],"id":23,"left_children":[1,3,5,7,-1,9,11,-1,-1,-1,-1,-1,-1],"loss_changes":[1.0415937E1,8.903756E0,1.0640325E1,8.855394E0,0E0,7.625351E0,1.0941477E1,0E0,0E0,0E0,0E0,0E0,0E0],"parents":[2147483647,0,0,1,1,2,2,3,3,5,5,6,6],"right_children":[2,4,6,8,-1,10,12,-1,-1,-1,-1,-1,-1],"split_conditions":[4.81E-1,2.45E1,4.54E-1,4E0,1.7139519E-3,5.5E0,2.2E1,4.981451E-4,-1.0512681E-4,8.5895084E-4,-1.5078452E-3,-2.1337627E-3,2.8659447E-4],"split_indices":[7,22,59,78,0,72,100,0,0,0,0,0,0],"split_type":[0,0,0,0,0,0,0,0,0,0,0,0,0],"sum_hessian":[2.4284514E3,2.1945981E3,2.3385324E2,2.1495361E3,4.5062008E1,9.55139E1,1.3833934E2,4.776753E2,1.6718608E3,7.079674E1,2.4717163E1,1.00081505E2,3.825783E1],"tree_param":{"num_deleted":"0","num_feature":"107","num_nodes":"13","size_leaf_vector":"1"}},{"base_weights":[-8.957817E-3,-1.8316779E-3,-2.5523296E-3,-6.651421E-2,7.590591E-2,-7.2253513E-4,1.4801071E-6,8.125767E-4,1.06436884E-4],"categories":[],"categories_nodes":[],"categories_segments":[],"categories_sizes":[],"default_left":[0,0,0,0,0,0,0,0,0],"id":24,"left_children":[1,3,-1,5,7,-1,-1,-1,-1],"loss_changes":[1.1039624E1,1.2046486E1,0E0,1.0295099E1,6.9354467E0,0E0,0E0,0E0,0E0],"parents":[2147483647,0,0,1,1,3,3,4,4],"right_children":[2,4,-1,6,8,-1,-1,-1,-1],"split_conditions":[1.06E1,1.3E1,-2.5523296E-3,3.29E1,3.43E-1,-7.2253513E-4,1.4801071E-6,8.125767E-4,1.06436884E-4],"split_indices":[71,26,0,67,10,0,0,0,0],"split_type":[0,0,0,0,0,0,0,0,0],"sum_hessian":[2.4079177E3,2.385718E3,2.219973E1,1.3027363E3,1.0829818E3,4.697415E2,8.329948E2,2.8967618E2,7.933056E2],"tree_param":{"num_deleted":"0","num_feature":"107","num_nodes":"9","size_leaf_vector":"1"}},{"base_weights":[1.03196995E-2,2.8569814E-2,-1.8293823E-1,2.0605592E-2,4.720103E-1,-2.621559E-1,1.6325045E-3,-4.3698636E-4,1.8893299E-4,-4.3110046E-4,3.0104723E-3,-4.8096396E-4,-2.2781587E-3],"categories":[],"categories_nodes":[],"categories_segments":[],"categories_sizes":[],"default_left":[0,0,0,0,0,0,0,0,0,0,0,0,0],"id":25,"left_children":[1,3,5,7,9,11,-1,-1,-1,-1,-1,-1,-1],"loss_changes":[8.559367E0,7.7889166E0,1.0409626E1,7.949426E0,7.0636997E0,8.029699E0,0E0,0E0,0E0,0E0,0E0,0E0,0E0],"parents":[2147483647,0,0,1,1,2,2,3,3,4,4,5,5],"right_children":[2,4,6,8,10,12,-1,-1,-1,-1,-1,-1,-1],"split_conditions":[1.154E2,6E0,2.71E1,3E0,1.41E1,2.33E2,1.6325045E-3,-4.3698636E-4,1.8893299E-4,-4.3110046E-4,3.0104723E-3,-4.8096396E-4,-2.2781587E-3],"split_indices":[24,105,69,26,70,104,0,0,0,0,0,0,0],"split_type":[0,0,0,0,0,0,0,0,0,0,0,0,0],"sum_hessian":[2.4143027E3,2.2094229E3,2.0487971E2,2.1748696E3,3.4553238E1,1.8309883E2,2.178088E1,3.7312482E2,1.8017449E3,1.2494549E1,2.205869E1,1.3144632E2,5.165251E1],"tree_param":{"num_deleted":"0","num_feature":"107","num_nodes":"13","size_leaf_vector":"1"}},{"base_weights":[1.25774965E-2,8.388694E-2,-5.6864586E-2,3.8238527E-4,-1.8083721E-3,-1.7613381E-1,1.2348898E-2,-1.0683201E-3,3.8277087E-4,1.9381382E-4,-1.266251E-3],"categories":[],"categories_nodes":[],"categories_segments":[],"categories_sizes":[],"default_left":[0,0,0,0,0,0,0,0,0,0,0],"id":26,"left_children":[1,3,5,-1,-1,7,9,-1,-1,-1,-1],"loss_changes":[1.19985E1,9.031781E0,1.0150413E1,0E0,0E0,1.1992986E1,9.764216E0,0E0,0E0,0E0,0E0],"parents":[2147483647,0,0,1,1,2,2,5,5,6,6],"right_children":[2,4,6,-1,-1,8,10,-1,-1,-1,-1],"split_conditions":[1.6E1,4.92E1,1.1E1,3.8238527E-4,-1.8083721E-3,5.5E0,1.152E2,-1.0683201E-3,3.8277087E-4,1.9381382E-4,-1.266251E-3],"split_indices":[84,4,100,0,0,20,24,0,0,0,0],"split_type":[0,0,0,0,0,0,0,0,0,0,0],"sum_hessian":[2.4130679E3,1.1902915E3,1.2227764E3,1.1648315E3,2.546002E1,4.4676138E2,7.76015E2,3.3072968E2,1.16031685E2,7.020947E2,7.392033E1],"tree_param":{"num_deleted":"0","num_feature":"107","num_nodes":"11","size_leaf_vector":"1"}},{"base_weights":[1.4414975E-2,3.4809805E-2,-2.6861626E-1,6.736982E-2,-1.1809811E-1,-1.5025313E-3,1.7601702E-1,3.4383105E-4,-1.0303834E-3,-2.6364913E-4,-2.761017E-3,-8.857867E-4,2.5963169E-3],"categories":[],"categories_nodes":[],"categories_segments":[],"categories_sizes":[],"default_left":[0,0,0,0,0,0,0,0,0,0,0,0,0],"id":27,"left_children":[1,3,5,7,9,-1,11,-1,-1,-1,-1,-1,-1],"loss_changes":[1.4044985E1,1.1319868E1,8.610333E0,1.2609361E1,1.1711113E1,0E0,7.762153E0,0E0,0E0,0E0,0E0,0E0,0E0],"parents":[2147483647,0,0,1,1,2,2,3,3,4,4,6,6],"right_children":[2,4,6,8,10,-1,12,-1,-1,-1,-1,-1,-1],"split_conditions":[2.33E2,6.76E-1,3.84E1,4.89E1,9.8E0,-1.5025313E-3,1.5E1,3.4383105E-4,-1.0303834E-3,-2.6364913E-4,-2.761017E-3,-8.857867E-4,2.5963169E-3],"split_indices":[104,55,61,4,71,0,89,0,0,0,0,0,0],"split_type":[0,0,0,0,0,0,0,0,0,0,0,0,0],"sum_hessian":[2.4203293E3,2.2612136E3,1.5911583E2,1.8663547E3,3.9485895E2,1.2709803E2,3.20178E1,1.7614392E3,1.04915474E2,3.6767358E2,2.7185352E1,1.8734125E1,1.3283672E1],"tree_param":{"num_deleted":"0","num_feature":"107","num_nodes":"13","size_leaf_vector":"1"}},{"base_weights":[-5.3152344E-3,1.3270535E-2,-2.6954117E-1,8.443523E-2,-5.29469E-2,-2.9569354E-3,-1.3165423E-1,5.161812E-4,-2.1002632E-4,-2.5047753E-3,-1.5062504E-4,-1.040807E-3,1.3167403E-3],"categories":[],"categories_nodes":[],"categories_segments":[],"categories_sizes":[],"default_left":[0,0,0,0,0,0,0,0,0,0,0,0,0],"id":28,"left_children":[1,3,5,7,9,-1,11,-1,-1,-1,-1,-1,-1],"loss_changes":[1.2017774E1,1.0785485E1,1.0307685E1,7.201717E0,1.0013116E1,0E0,8.528464E0,0E0,0E0,0E0,0E0,0E0,0E0],"parents":[2147483647,0,0,1,1,2,2,3,3,4,4,6,6],"right_children":[2,4,6,8,10,-1,12,-1,-1,-1,-1,-1,-1],"split_conditions":[2.33E2,1.6E1,8.75E1,2.3E1,-1.07E1,-2.9569354E-3,2.4E1,5.161812E-4,-2.1002632E-4,-2.5047753E-3,-1.5062504E-4,-1.040807E-3,1.3167403E-3],"split_indices":[104,84,58,48,77,0,42,0,0,0,0,0,0],"split_type":[0,0,0,0,0,0,0,0,0,0,0,0,0],"sum_hessian":[2.435189E3,2.278822E3,1.5636685E2,1.0980221E3,1.1808E3,3.0420002E1,1.2594685E2,8.1881586E2,2.7920627E2,2.4196882E1,1.1566031E3,9.941725E1,2.65296E1],"tree_param":{"num_deleted":"0","num_feature":"107","num_nodes":"13","size_leaf_vector":"1"}},{"base_weights":[6.303995E-3,5.1645152E-2,-9.810443E-2,2.644348E-2,2.6343235E-1,-5.277531E-2,-1.8961703E-3,2.4082544E-4,-6.1830867E-4,2.7548748E-3,5.088801E-4,-9.355234E-4,9.964705E-5],"categories":[],"categories_nodes":[],"categories_segments":[],"categories_sizes":[],"default_left":[0,0,0,0,0,0,0,0,0,0,0,0,0],"id":29,"left_children":[1,3,5,7,9,11,-1,-1,-1,-1,-1,-1,-1],"loss_changes":[1.154738E1,9.046543E0,1.2785086E1,9.842231E0,1.0189587E1,9.69551E0,0E0,0E0,0E0,0E0,0E0,0E0,0E0],"parents":[2147483647,0,0,1,1,2,2,3,3,4,4,5,5],"right_children":[2,4,6,8,10,12,-1,-1,-1,-1,-1,-1,-1],"split_conditions":[2.2E1,2.8E1,4.24E1,1.97E1,2.09E1,1E1,-1.8961703E-3,2.4082544E-4,-6.1830867E-4,2.7548748E-3,5.088801E-4,-9.355234E-4,9.964705E-5],"split_indices":[92,86,5,63,69,34,0,0,0,0,0,0,0],"split_type":[0,0,0,0,0,0,0,0,0,0,0,0,0],"sum_hessian":[2.4290195E3,1.6952462E3,7.3377344E2,1.5193596E3,1.7588649E2,6.6088824E2,7.288519E1,1.2794767E3,2.3988301E2,3.6833744E1,1.3905275E2,1.9335846E2,4.675298E2],"tree_param":{"num_deleted":"0","num_feature":"107","num_nodes":"13","size_leaf_vector":"1"}},{"base_weights":[1.0793656E-2,3.317038E-2,-2.2764984E-1,6.661304E-2,-1.06481574E-1,-2.997201E-1,1.5285949E-3,-6.4224104E-4,3.6466515E-4,-1.4544777E-3,-4.9027087E-5,-4.923613E-4,-2.2147929E-3],"categories":[],"categories_nodes":[],"categories_segments":[],"categories_sizes":[],"default_left":[0,0,0,0,0,0,0,0,0,0,0,0,0],"id":30,"left_children":[1,3,5,7,9,11,-1,-1,-1,-1,-1,-1,-1],"loss_changes":[1.3079776E1,1.0488861E1,9.86473E0,1.1033579E1,1.075762E1,8.491461E0,0E0,0E0,0E0,0E0,0E0,0E0,0E0],"parents":[2147483647,0,0,1,1,2,2,3,3,4,4,5,5],"right_children":[2,4,6,8,10,12,-1,-1,-1,-1,-1,-1,-1],"split_conditions":[1.154E2,1.92E1,2.71E1,4E0,1.1E1,1.2E1,1.5285949E-3,-6.4224104E-4,3.6466515E-4,-1.4544777E-3,-4.9027087E-5,-4.923613E-4,-2.2147929E-3],"split_indices":[24,63,69,45,88,35,0,0,0,0,0,0,0],"split_type":[0,0,0,0,0,0,0,0,0,0,0,0,0],"sum_hessian":[2.4395498E3,2.2337024E3,2.058475E2,1.8040958E3,4.2960648E2,1.8632106E2,1.952645E1,1.8266046E2,1.6214354E3,1.0937389E2,3.2023257E2,1.1619836E2,7.01227E1],"tree_param":{"num_deleted":"0","num_feature":"107","num_nodes":"13","size_leaf_vector":"1"}},{"base_weights":[-7.6737744E-3,6.856155E-2,-8.305463E-2,8.2476586E-2,-2.15948E-3,9.191248E-2,-1.3460785E-1,1.1043951E-4,8.0107094E-4,-4.411802E-4,1.208673E-3,4.363591E-4,-6.550092E-4],"categories":[],"categories_nodes":[],"categories_segments":[],"categories_sizes":[],"default_left":[0,0,0,0,0,0,0,0,0,0,0,0,0],"id":31,"left_children":[1,3,5,7,-1,9,11,-1,-1,-1,-1,-1,-1],"loss_changes":[1.3776862E1,1.0470163E1,1.0928187E1,7.703824E0,0E0,1.2384635E1,7.494993E0,0E0,0E0,0E0,0E0,0E0,0E0],"parents":[2147483647,0,0,1,1,2,2,3,3,5,5,6,6],"right_children":[2,4,6,8,-1,10,12,-1,-1,-1,-1,-1,-1],"split_conditions":[1.6E1,1.04E1,4.45E-1,1.9E1,-2.15948E-3,1.3E1,1.95E2,1.1043951E-4,8.0107094E-4,-4.411802E-4,1.208673E-3,4.363591E-4,-6.550092E-4],"split_indices":[84,71,59,30,0,26,104,0,0,0,0,0,0],"split_type":[0,0,0,0,0,0,0,0,0,0,0,0,0],"sum_hessian":[2.387419E3,1.1869869E3,1.2004321E3,1.16453E3,2.2456825E1,2.7232227E2,9.281098E2,8.0881647E2,3.5571362E2,1.4095132E2,1.3137096E2,1.0653501E2,8.2157477E2],"tree_param":{"num_deleted":"0","num_feature":"107","num_nodes":"13","size_leaf_vector":"1"}},{"base_weights":[-1.0698588E-2,2.0678807E-2,-1.5910776E-1,1.955527E-3,1.1450578E-2,-6.238297E-2,-4.2668158E-1,-1.5344443E-3,9.4046256E-5,-4.2559367E-4,1.6598837E-3,-2.5811172E-3,-4.443222E-4],"categories":[],"categories_nodes":[],"categories_segments":[],"categories_sizes":[],"default_left":[0,0,0,0,0,0,0,0,0,0,0,0,0],"id":32,"left_children":[1,3,5,-1,7,9,11,-1,-1,-1,-1,-1,-1],"loss_changes":[1.1230926E1,8.759331E0,1.077568E1,0E0,9.907664E0,7.233599E0,7.711216E0,0E0,0E0,0E0,0E0,0E0,0E0],"parents":[2147483647,0,0,1,1,2,2,4,4,5,5,6,6],"right_children":[2,4,6,-1,8,10,12,-1,-1,-1,-1,-1,-1],"split_conditions":[1.94E1,1.31E1,1.17E1,1.955527E-3,7.95E1,2.33E1,1.2E1,-1.5344443E-3,9.4046256E-5,-4.2559367E-4,1.6598837E-3,-2.5811172E-3,-4.443222E-4],"split_indices":[63,11,60,0,58,63,102,0,0,0,0,0,0],"split_type":[0,0,0,0,0,0,0,0,0,0,0,0,0],"sum_hessian":[2.401645E3,1.9853561E3,4.16289E2,3.3304363E1,1.9520516E3,3.0968402E2,1.0660498E2,5.4931564E1,1.8971201E3,2.8590033E2,2.3783691E1,5.8626183E1,4.7978798E1],"tree_param":{"num_deleted":"0","num_feature":"107","num_nodes":"13","size_leaf_vector":"1"}},{"base_weights":[3.0961146E-3,3.527432E-2,-1.2233757E-1,-9.3456335E-2,7.472429E-2,-4.390789E-2,-4.257423E-1,-1.5782837E-4,-1.745194E-3,1.7789102E-4,1.1734555E-3,7.3887004E-6,-1.8288783E-3,-3.2347294E-3,-8.820762E-4],"categories":[],"categories_nodes":[],"categories_segments":[],"categories_sizes":[],"default_left":[0,0,0,0,0,0,0,0,0,0,0,0,0,0,0],"id":33,"left_children":[1,3,5,7,9,11,13,-1,-1,-1,-1,-1,-1,-1,-1],"loss_changes":[9.772031E0,9.814695E0,1.16778145E1,8.410816E0,9.680943E0,7.7191415E0,7.298311E0,0E0,0E0,0E0,0E0,0E0,0E0,0E0,0E0],"parents":[2147483647,0,0,1,1,2,2,3,3,4,4,5,5,6,6],"right_children":[2,4,6,8,10,12,14,-1,-1,-1,-1,-1,-1,-1,-1],"split_conditions":[2.5E1,8E0,1.92E1,2.4E1,6E0,3.68E1,2.24E1,-1.5782837E-4,-1.745194E-3,1.7789102E-4,1.1734555E-3,7.3887004E-6,-1.8288783E-3,-3.2347294E-3,-8.820762E-4],"split_indices":[32,36,63,26,73,9,12,0,0,0,0,0,0,0,0],"split_type":[0,0,0,0,0,0,0,0,0,0,0,0,0,0,0],"sum_hessian":[2.4107393E3,1.9211685E3,4.8957068E2,4.491151E2,1.4720533E3,3.929483E2,9.662239E1,3.9419272E2,5.49224E1,1.3061564E3,1.65897E2,3.582512E2,3.4697113E1,2.7921951E1,6.870044E1],"tree_param":{"num_deleted":"0","num_feature":"107","num_nodes":"15","size_leaf_vector":"1"}},{"base_weights":[3.5189067E-3,-1.664414E-2,7.357923E-4,-9.639189E-3,-2.167797E-3,-9.275482E-5,1.6441148E-3],"categories":[],"categories_nodes":[],"categories_segments":[],"categories_sizes":[],"default_left":[0,0,0,0,0,0,0],"id":34,"left_children":[1,3,-1,5,-1,-1,-1],"loss_changes":[9.049879E0,8.231187E0,0E0,1.3082931E1,0E0,0E0,0E0],"parents":[2147483647,0,0,1,1,3,3],"right_children":[2,4,-1,6,-1,-1,-1],"split_conditions":[2.8E1,1.06E1,7.357923E-4,4.87E1,-2.167797E-3,-9.275482E-5,1.6441148E-3],"split_indices":[90,71,0,16,0,0,0],"split_type":[0,0,0,0,0,0,0],"sum_hessian":[2.4272427E3,2.1908635E3,2.3637904E2,2.1669097E3,2.3953882E1,2.1023274E3,6.458216E1],"tree_param":{"num_deleted":"0","num_feature":"107","num_nodes":"7","size_leaf_vector":"1"}},{"base_weights":[-7.607043E-3,7.107677E-2,-8.725315E-2,-1.20161295E-1,1.039072E-1,-6.3127E-2,-3.3204213E-1,-2.2461868E-6,-2.3167199E-3,7.0496975E-4,1.3749588E-5,-3.1240753E-4,1.539778E-3,2.3254627E-4,-2.1512455E-3],"categories":[],"categories_nodes":[],"categories_segments":[],"categories_sizes":[],"default_left":[0,0,0,0,0,0,0,0,0,0,0,0,0,0,0],"id":35,"left_children":[1,3,5,7,9,11,13,-1,-1,-1,-1,-1,-1,-1,-1],"loss_changes":[1.5256941E1,7.7459817E0,7.0582848E0,1.0197357E1,7.960067E0,8.454004E0,9.251174E0,0E0,0E0,0E0,0E0,0E0,0E0,0E0,0E0],"parents":[2147483647,0,0,1,1,2,2,3,3,4,4,5,5,6,6],"right_children":[2,4,6,8,10,12,14,-1,-1,-1,-1,-1,-1,-1,-1],"split_conditions":[1.6E1,-5.7E0,1.154E2,1.9E1,2.32E1,4.82E1,7.3E0,-2.2461868E-6,-2.3167199E-3,7.0496975E-4,1.3749588E-5,-3.1240753E-4,1.539778E-3,2.3254627E-4,-2.1512455E-3],"split_indices":[84,77,24,92,12,16,19,0,0,0,0,0,0,0,0],"split_type":[0,0,0,0,0,0,0,0,0,0,0,0,0,0,0],"sum_hessian":[2.4246633E3,1.2197516E3,1.2049119E3,1.769364E2,1.0428152E3,1.1017787E3,1.03133156E2,1.4449976E2,3.2436653E1,5.923106E2,4.5050455E2,1.0667344E3,3.5044315E1,3.775245E1,6.538071E1],"tree_param":{"num_deleted":"0","num_feature":"107","num_nodes":"15","size_leaf_vector":"1"}},{"base_weights":[-1.15323135E-4,-2.7468356E-1,1.7101347E-2,6.6538885E-2,-4.62921E-1,7.3153446E-3,1.7301239E-3,-1.5388961E-3,1.2149351E-3,-1.1470066E-3,-4.021731E-3,4.6711945E-4,-1.0078987E-4],"categories":[],"categories_nodes":[],"categories_segments":[],"categories_sizes":[],"default_left":[0,0,0,0,0,0,0,0,0,0,0,0,0],"id":36,"left_children":[1,3,5,7,9,11,-1,-1,-1,-1,-1,-1,-1],"loss_changes":[1.1642732E1,9.477932E0,9.590209E0,6.710438E0,7.7630386E0,8.3747E0,0E0,0E0,0E0,0E0,0E0,0E0,0E0],"parents":[2147483647,0,0,1,1,2,2,3,3,4,4,5,5],"right_children":[2,4,6,8,10,12,-1,-1,-1,-1,-1,-1,-1],"split_conditions":[6E0,3E0,5E0,9E0,1.75E1,4E0,1.7301239E-3,-1.5388961E-3,1.2149351E-3,-1.1470066E-3,-4.021731E-3,4.6711945E-4,-1.0078987E-4],"split_indices":[52,0,106,95,18,78,0,0,0,0,0,0,0],"split_type":[0,0,0,0,0,0,0,0,0,0,0,0,0],"sum_hessian":[2.4494612E3,1.4087923E2,2.308582E3,5.100919E1,8.987004E1,2.260766E3,4.781592E1,1.672551E1,3.428368E1,7.393101E1,1.5939034E1,5.131721E2,1.747594E3],"tree_param":{"num_deleted":"0","num_feature":"107","num_nodes":"13","size_leaf_vector":"1"}},{"base_weights":[-1.0561844E-2,-1.0334705E-1,2.972642E-2,-1.6292183E-1,1.8921791E-1,-5.7789244E-2,1.2103486E-1,4.229177E-4,-8.5297914E-4,1.9302962E-3,-3.915022E-4,1.5755619E-4,-1.1930795E-3,-9.79782E-4,5.995356E-4],"categories":[],"categories_nodes":[],"categories_segments":[],"categories_sizes":[],"default_left":[0,0,0,0,0,0,0,0,0,0,0,0,0,0,0],"id":37,"left_children":[1,3,5,7,9,11,13,-1,-1,-1,-1,-1,-1,-1,-1],"loss_changes":[9.070744E0,1.2937681E1,1.3551493E1,9.135942E0,1.1270156E1,2.0964447E1,9.934182E0,0E0,0E0,0E0,0E0,0E0,0E0,0E0,0E0],"parents":[2147483647,0,0,1,1,2,2,3,3,4,4,5,5,6,6],"right_children":[2,4,6,8,10,12,14,-1,-1,-1,-1,-1,-1,-1,-1],"split_conditions":[1E1,2.4E1,1.6E1,3.8E0,4.9E0,2.44E1,3.9E0,4.229177E-4,-8.5297914E-4,1.9302962E-3,-3.915022E-4,1.5755619E-4,-1.1930795E-3,-9.79782E-4,5.995356E-4],"split_indices":[96,88,33,73,21,64,73,0,0,0,0,0,0,0,0],"split_type":[0,0,0,0,0,0,0,0,0,0,0,0,0,0,0],"sum_hessian":[2.4163872E3,7.297659E2,1.6866212E3,6.079482E2,1.2181778E2,8.61835E2,8.247862E2,1.0103116E2,5.0691702E2,5.808826E1,6.3729515E1,6.1906287E2,2.4277213E2,6.270032E1,7.620859E2],"tree_param":{"num_deleted":"0","num_feature":"107","num_nodes":"15","size_leaf_vector":"1"}},{"base_weights":[4.135471E-3,8.8377856E-2,-4.520712E-2,-7.1097E-2,1.7254989E-1,-8.556154E-2,1.21225156E-1,-8.388296E-4,1.1936972E-3,-1.542486E-4,9.62024E-4,-7.9015613E-4,-6.799454E-5,-1.7322298E-5,1.3022532E-3],"categories":[],"categories_nodes":[],"categories_segments":[],"categories_sizes":[],"default_left":[0,0,0,0,0,0,0,0,0,0,0,0,0,0,0],"id":38,"left_children":[1,3,5,7,9,11,13,-1,-1,-1,-1,-1,-1,-1,-1],"loss_changes":[1.0098257E1,1.2100761E1,1.0333166E1,1.7041521E1,9.103476E0,9.742486E0,7.976442E0,0E0,0E0,0E0,0E0,0E0,0E0,0E0,0E0],"parents":[2147483647,0,0,1,1,2,2,3,3,4,4,5,5,6,6],"right_children":[2,4,6,8,10,12,14,-1,-1,-1,-1,-1,-1,-1,-1],"split_conditions":[1.2E1,1E1,2.5E1,7.95E-1,1.2E1,1.1E1,8.71E1,-8.388296E-4,1.1936972E-3,-1.542486E-4,9.62024E-4,-7.9015613E-4,-6.799454E-5,-1.7322298E-5,1.3022532E-3],"split_indices":[84,96,45,65,91,50,6,0,0,0,0,0,0,0,0],"split_type":[0,0,0,0,0,0,0,0,0,0,0,0,0,0,0],"sum_hessian":[2.4189915E3,8.9247876E2,1.5265126E3,3.0843427E2,5.8404456E2,1.2304109E3,2.9610165E2,2.2485684E2,8.3577415E1,1.4948224E2,4.345623E2,4.5295935E2,7.774516E2,1.8799529E2,1.0810636E2],"tree_param":{"num_deleted":"0","num_feature":"107","num_nodes":"15","size_leaf_vector":"1"}},{"base_weights":[-1.7314382E-2,-5.3717595E-1,-7.633434E-3,5.488354E-4,-3.0558293E-3,-2.735936E-2,2.813985E-1,-1.5266496E-4,1.4142938E-3,1.7873904E-3,-4.255222E-4],"categories":[],"categories_nodes":[],"categories_segments":[],"categories_sizes":[],"default_left":[0,0,0,0,0,0,0,0,0,0,0],"id":39,"left_children":[1,3,5,-1,-1,7,9,-1,-1,-1,-1],"loss_changes":[1.2258446E1,7.7684565E0,1.3704006E1,0E0,0E0,1.0132432E1,1.0645289E1,0E0,0E0,0E0,0E0],"parents":[2147483647,0,0,1,1,2,2,5,5,6,6],"right_children":[2,4,6,-1,-1,8,10,-1,-1,-1,-1],"split_conditions":[1.36E-1,1.41E1,2.9E1,5.488354E-4,-3.0558293E-3,5E0,4.53E-1,-1.5266496E-4,1.4142938E-3,1.7873904E-3,-4.255222E-4],"split_indices":[55,18,100,0,0,105,59,0,0,0,0],"split_type":[0,0,0,0,0,0,0,0,0,0,0],"sum_hessian":[2.432086E3,4.017923E1,2.3919067E3,1.1005889E1,2.9173344E1,2.242783E3,1.4912376E2,2.1817153E3,6.1067554E1,1.02640656E2,4.648311E1],"tree_param":{"num_deleted":"0","num_feature":"107","num_nodes":"11","size_leaf_vector":"1"}},{"base_weights":[1.3840315E-2,1.0000485E-1,-7.121905E-2,-1.9852001E-2,1.6135249E-1,9.0505295E-2,-1.3521618E-1,7.531373E-4,-5.5329944E-4,9.4964146E-4,-6.133789E-5,9.184243E-5,2.09833E-3,-1.2658886E-3,-2.9722045E-4],"categories":[],"categories_nodes":[],"categories_segments":[],"categories_sizes":[],"default_left":[0,0,0,0,0,0,0,0,0,0,0,0,0,0,0],"id":40,"left_children":[1,3,5,7,9,11,13,-1,-1,-1,-1,-1,-1,-1,-1],"loss_changes":[1.7620993E1,8.798563E0,1.2579704E1,1.059255E1,1.1306833E1,1.02511635E1,9.577199E0,0E0,0E0,0E0,0E0,0E0,0E0,0E0,0E0],"parents":[2147483647,0,0,1,1,2,2,3,3,4,4,5,5,6,6],"right_children":[2,4,6,8,10,12,14,-1,-1,-1,-1,-1,-1,-1,-1],"split_conditions":[1.6E1,1E1,5E0,1.2E1,2.4E1,2.8E1,8E0,7.531373E-4,-5.5329944E-4,9.4964146E-4,-6.133789E-5,9.184243E-5,2.09833E-3,-1.2658886E-3,-2.9722045E-4],"split_indices":[84,96,78,87,64,97,50,0,0,0,0,0,0,0,0],"split_type":[0,0,0,0,0,0,0,0,0,0,0,0,0,0,0],"sum_hessian":[2.3945535E3,1.189343E3,1.2052103E3,4.0347437E2,7.8586865E2,3.4108057E2,8.641298E2,1.4583315E2,2.5764124E2,5.38882E2,2.469866E2,3.0026166E2,4.0818893E1,2.0353952E2,6.605903E2],"tree_param":{"num_deleted":"0","num_feature":"107","num_nodes":"15","size_leaf_vector":"1"}},{"base_weights":[-1.1552926E-2,4.2816326E-3,-1.0965676E-3,7.056005E-2,-6.1714675E-2,-5.4528017E-4,4.1964484E-4,-1.5404388E-4,-2.345904E-3],"categories":[],"categories_nodes":[],"categories_segments":[],"categories_sizes":[],"default_left":[0,0,0,0,0,0,0,0,0],"id":41,"left_children":[1,3,-1,5,7,-1,-1,-1,-1],"loss_changes":[1.03634815E1,1.0106081E1,0E0,8.853804E0,1.3842183E1,0E0,0E0,0E0,0E0],"parents":[2147483647,0,0,1,1,3,3,4,4],"right_children":[2,4,-1,6,8,-1,-1,-1,-1],"split_conditions":[4.89E1,1.6E1,-1.0965676E-3,1.88E1,2.33E2,-5.4528017E-4,4.1964484E-4,-1.5404388E-4,-2.345904E-3],"split_indices":[4,84,0,75,104,0,0,0,0],"split_type":[0,0,0,0,0,0,0,0,0],"sum_hessian":[2.432122E3,2.300237E3,1.3188498E2,1.1477325E3,1.1525046E3,1.6793031E2,9.798022E2,1.1105933E3,4.1911346E1],"tree_param":{"num_deleted":"0","num_feature":"107","num_nodes":"9","size_leaf_vector":"1"}},{"base_weights":[2.3386125E-3,-2.9915307E-2,1.16462596E-1,1.4882244E-1,-6.023211E-2,5.253731E-2,4.2122948E-1,-1.1964625E-3,1.0306732E-3,-8.29621E-4,-8.996273E-5,-1.0653668E-3,3.9512187E-4,2.7874839E-3,2.282943E-4],"categories":[],"categories_nodes":[],"categories_segments":[],"categories_sizes":[],"default_left":[0,0,0,0,0,0,0,0,0,0,0,0,0,0,0],"id":42,"left_children":[1,3,5,7,9,11,13,-1,-1,-1,-1,-1,-1,-1,-1],"loss_changes":[8.947855E0,1.0303591E1,1.0339243E1,1.4598555E1,9.129331E0,7.109484E0,9.491364E0,0E0,0E0,0E0,0E0,0E0,0E0,0E0,0E0],"parents":[2147483647,0,0,1,1,2,2,3,3,4,4,5,5,6,6],"right_children":[2,4,6,8,10,12,14,-1,-1,-1,-1,-1,-1,-1,-1],"split_conditions":[8.9E1,1.95E2,2.4E1,1.69E1,6E0,-5.5E0,4.49E1,-1.1964625E-3,1.0306732E-3,-8.29621E-4,-8.996273E-5,-1.0653668E-3,3.9512187E-4,2.7874839E-3,2.282943E-4],"split_indices":[58,104,96,9,31,77,16,0,0,0,0,0,0,0,0],"split_type":[0,0,0,0,0,0,0,0,0,0,0,0,0,0,0],"sum_hessian":[2.4197188E3,1.8887913E3,5.3092737E2,2.7136768E2,1.6174236E3,4.430651E2,8.7862274E1,5.2948906E1,2.1841876E2,3.160343E2,1.3013893E3,5.470224E1,3.8836285E2,4.660474E1,4.1257534E1],"tree_param":{"num_deleted":"0","num_feature":"107","num_nodes":"15","size_leaf_vector":"1"}},{"base_weights":[3.1676868E-3,-2.5922948E-2,1.5646823E-1,4.848714E-2,-9.324673E-2,2.9262392E-2,3.5562322E-1,1.3224914E-4,2.3125901E-3,-2.8859172E-4,-2.5049795E-3,1.4104077E-3,-2.2166292E-4,2.209443E-3,3.3459606E-4],"categories":[],"categories_nodes":[],"categories_segments":[],"categories_sizes":[],"default_left":[0,0,0,0,0,0,0,0,0,0,0,0,0,0,0],"id":43,"left_children":[1,3,5,7,9,11,13,-1,-1,-1,-1,-1,-1,-1,-1],"loss_changes":[1.0940202E1,1.0344429E1,9.861276E0,7.7738857E0,1.1445521E1,7.0040784E0,8.313257E0,0E0,0E0,0E0,0E0,0E0,0E0,0E0,0E0],"parents":[2147483647,0,0,1,1,2,2,3,3,4,4,5,5,6,6],"right_children":[2,4,6,8,10,12,14,-1,-1,-1,-1,-1,-1,-1,-1],"split_conditions":[2.6E1,1.6E1,1.9E1,2.45E1,2.34E2,7.25E-1,1.78E1,1.3224914E-4,2.3125901E-3,-2.8859172E-4,-2.5049795E-3,1.4104077E-3,-2.2166292E-4,2.209443E-3,3.3459606E-4],"split_indices":[88,84,49,22,104,65,63,0,0,0,0,0,0,0,0],"split_type":[0,0,0,0,0,0,0,0,0,0,0,0,0,0,0],"sum_hessian":[2.4419707E3,2.0552974E3,3.8667322E2,9.766343E2,1.0786632E3,2.3901805E2,1.4765518E2,9.5509045E2,2.1543808E1,1.0457413E3,3.2921864E1,4.655249E1,1.9246556E2,8.0888466E1,6.6766716E1],"tree_param":{"num_deleted":"0","num_feature":"107","num_nodes":"15","size_leaf_vector":"1"}},{"base_weights":[-1.1368367E-2,-2.711595E-2,8.498436E-4,-6.417291E-3,-2.4262127E-1,-1.04802704E-4,9.869982E-4,-4.387999E-4,-2.9752194E-3],"categories":[],"categories_nodes":[],"categories_segments":[],"categories_sizes":[],"default_left":[0,0,0,0,0,0,0,0,0],"id":44,"left_children":[1,3,-1,5,7,-1,-1,-1,-1],"loss_changes":[8.725293E0,1.0120218E1,0E0,1.089631E1,1.3043907E1,0E0,0E0,0E0,0E0],"parents":[2147483647,0,0,1,1,3,3,4,4],"right_children":[2,4,-1,6,8,-1,-1,-1,-1],"split_conditions":[2.9E1,4.88E1,8.498436E-4,2.9E1,6.23E-1,-1.04802704E-4,9.869982E-4,-4.387999E-4,-2.9752194E-3],"split_indices":[100,4,0,97,3,0,0,0,0],"split_type":[0,0,0,0,0,0,0,0,0],"sum_hessian":[2.417365E3,2.2647688E3,1.525961E2,2.0704155E3,1.9435336E2,1.9230577E3,1.4735776E2,1.5919185E2,3.5161507E1],"tree_param":{"num_deleted":"0","num_feature":"107","num_nodes":"9","size_leaf_vector":"1"}},{"base_weights":[7.152929E-3,3.0176552E-2,-2.4418652E-1,1.1514921E-2,2.7878326E-1,-1.6469653E-3,-5.3243723E-2,-2.691125E-4,2.402697E-4,1.4570224E-3,-1.3986131E-3,8.229352E-4,-1.4006911E-3],"categories":[],"categories_nodes":[],"categories_segments":[],"categories_sizes":[],"default_left":[0,0,0,0,0,0,0,0,0,0,0,0,0],"id":45,"left_children":[1,3,5,7,9,-1,11,-1,-1,-1,-1,-1,-1],"loss_changes":[1.39849E1,1.0252476E1,6.6944895E0,8.233522E0,9.646253E0,0E0,8.495066E0,0E0,0E0,0E0,0E0,0E0,0E0],"parents":[2147483647,0,0,1,1,2,2,3,3,4,4,6,6],"right_children":[2,4,6,8,10,-1,12,-1,-1,-1,-1,-1,-1],"split_conditions":[1.155E2,2.7E1,3.61E1,1.2E1,6.88E-1,-1.6469653E-3,1.7E1,-2.691125E-4,2.402697E-4,1.4570224E-3,-1.3986131E-3,8.229352E-4,-1.4006911E-3],"split_indices":[24,82,9,85,3,0,44,0,0,0,0,0,0],"split_type":[0,0,0,0,0,0,0,0,0,0,0,0,0],"sum_hessian":[2.405496E3,2.207161E3,1.9833507E2,2.0572878E3,1.4987323E2,1.0060979E2,9.772528E1,7.8707434E2,1.2702134E3,1.3239616E2,1.7477064E1,5.3030926E1,4.4694355E1],"tree_param":{"num_deleted":"0","num_feature":"107","num_nodes":"13","size_leaf_vector":"1"}},{"base_weights":[-8.6188475E-3,-1.2693596E-1,3.6393534E-2,-7.8732766E-2,-4.9972922E-1,-9.955601E-2,7.6766655E-2,-5.381165E-4,7.7589136E-4,-2.7460614E-3,1.5743982E-4,5.9657392E-5,-9.962876E-4,-1.1336735E-3,3.8718412E-4],"categories":[],"categories_nodes":[],"categories_segments":[],"categories_sizes":[],"default_left":[0,0,0,0,0,0,0,0,0,0,0,0,0,0,0],"id":46,"left_children":[1,3,5,7,9,11,13,-1,-1,-1,-1,-1,-1,-1,-1],"loss_changes":[1.29611435E1,1.1885884E1,9.71027E0,9.792897E0,8.347527E0,7.208157E0,1.103508E1,0E0,0E0,0E0,0E0,0E0,0E0,0E0,0E0],"parents":[2147483647,0,0,1,1,2,2,3,3,4,4,5,5,6,6],"right_children":[2,4,6,8,10,12,14,-1,-1,-1,-1,-1,-1,-1,-1],"split_conditions":[9E0,2.31E2,4.22E1,2.235E2,7.94E-1,3.84E1,6E0,-5.381165E-4,7.7589136E-4,-2.7460614E-3,1.5743982E-4,5.9657392E-5,-9.962876E-4,-1.1336735E-3,3.8718412E-4],"split_indices":[36,104,68,104,65,5,0,0,0,0,0,0,0,0,0],"split_type":[0,0,0,0,0,0,0,0,0,0,0,0,0,0,0],"sum_hessian":[2.4236316E3,6.659775E2,1.7576542E3,5.9434607E2,7.16314E1,4.008698E2,1.3567843E3,4.9253976E2,1.01806305E2,5.1381687E1,2.0249714E1,2.3200763E2,1.6886218E2,7.36822E1,1.2831022E3],"tree_param":{"num_deleted":"0","num_feature":"107","num_nodes":"15","size_leaf_vector":"1"}},{"base_weights":[-6.1043072E-3,1.3340158E-2,-2.0756002E-1,-6.5868977E-3,2.7880576E-1,-2.4695085E-2,-4.7093543E-1,-5.183123E-4,1.4596514E-4,2.8528841E-3,5.7157787E-4,9.611363E-4,-8.536459E-4,-2.5367024E-4,-2.7147874E-3],"categories":[],"categories_nodes":[],"categories_segments":[],"categories_sizes":[],"default_left":[0,0,0,0,0,0,0,0,0,0,0,0,0,0,0],"id":47,"left_children":[1,3,5,7,9,11,13,-1,-1,-1,-1,-1,-1,-1,-1],"loss_changes":[9.4508E0,1.1654433E1,1.0167795E1,1.1286288E1,8.727032E0,6.9958167E0,7.578907E0,0E0,0E0,0E0,0E0,0E0,0E0,0E0,0E0],"parents":[2147483647,0,0,1,1,2,2,3,3,4,4,5,5,6,6],"right_children":[2,4,6,8,10,12,14,-1,-1,-1,-1,-1,-1,-1,-1],"split_conditions":[1.154E2,2.7E1,1.2E1,8.33E1,6E0,4.9E0,2.04E1,-5.183123E-4,1.4596514E-4,2.8528841E-3,5.7157787E-4,9.611363E-4,-8.536459E-4,-2.5367024E-4,-2.7147874E-3],"split_indices":[24,82,35,6,40,72,75,0,0,0,0,0,0,0,0],"split_type":[0,0,0,0,0,0,0,0,0,0,0,0,0,0,0],"sum_hessian":[2.4008994E3,2.1930518E3,2.0784764E2,2.0436788E3,1.4937294E2,1.2547835E2,8.2369286E1,5.2653876E2,1.51714E3,2.9821844E1,1.19551094E2,5.1783688E1,7.3694664E1,3.099026E1,5.137903E1],"tree_param":{"num_deleted":"0","num_feature":"107","num_nodes":"15","size_leaf_vector":"1"}},{"base_weights":[-5.599102E-3,4.205925E-3,-4.780363E-1,3.180102E-2,-1.2684707E-1,-2.9337439E-3,5.593183E-4,4.910498E-5,1.1017574E-3,2.4110911E-4,-1.0142557E-3],"categories":[],"categories_nodes":[],"categories_segments":[],"categories_sizes":[],"default_left":[0,0,0,0,0,0,0,0,0,0,0],"id":48,"left_children":[1,3,5,7,9,-1,-1,-1,-1,-1,-1],"loss_changes":[1.1287357E1,8.633747E0,8.762207E0,9.45333E0,1.0365032E1,0E0,0E0,0E0,0E0,0E0,0E0],"parents":[2147483647,0,0,1,1,2,2,3,3,4,4],"right_children":[2,4,6,8,10,-1,-1,-1,-1,-1,-1],"split_conditions":[1.56E1,1.94E1,1.09E1,2.9E1,1.3E1,-2.9337439E-3,5.593183E-4,4.910498E-5,1.1017574E-3,2.4110911E-4,-1.0142557E-3],"split_indices":[8,63,66,38,42,0,0,0,0,0,0],"split_type":[0,0,0,0,0,0,0,0,0,0,0],"sum_hessian":[2.4218994E3,2.3767217E3,4.5177765E1,1.9661516E3,4.1057E2,3.0920359E1,1.4257407E1,1.8290376E3,1.3711398E2,1.6976932E2,2.4080069E2],"tree_param":{"num_deleted":"0","num_feature":"107","num_nodes":"11","size_leaf_vector":"1"}},{"base_weights":[-1.39944E-2,4.9777154E-2,-7.6454125E-2,1.1203892E-1,-6.918461E-2,5.9091836E-2,-1.3293102E-1,6.298949E-4,-5.7147344E-4,-2.9622957E-5,-1.4049987E-3,4.734513E-4,-1.9735496E-3,-1.0989663E-3,5.0700705E-6],"categories":[],"categories_nodes":[],"categories_segments":[],"categories_sizes":[],"default_left":[0,0,0,0,0,0,0,0,0,0,0,0,0,0,0],"id":49,"left_children":[1,3,5,7,9,11,13,-1,-1,-1,-1,-1,-1,-1,-1],"loss_changes":[9.685725E0,8.949381E0,9.438139E0,9.996138E0,7.3956003E0,1.28666115E1,1.715709E1,0E0,0E0,0E0,0E0,0E0,0E0,0E0,0E0],"parents":[2147483647,0,0,1,1,2,2,3,3,4,4,5,5,6,6],"right_children":[2,4,6,8,10,12,14,-1,-1,-1,-1,-1,-1,-1,-1],"split_conditions":[1.6E1,1.6E1,1E1,4.75E1,2.5E1,6.1E0,2.3E1,6.298949E-4,-5.7147344E-4,-2.9622957E-5,-1.4049987E-3,4.734513E-4,-1.9735496E-3,-1.0989663E-3,5.0700705E-6],"split_indices":[84,92,40,68,27,72,84,0,0,0,0,0,0,0,0],"split_type":[0,0,0,0,0,0,0,0,0,0,0,0,0,0,0],"sum_hessian":[2.421589E3,1.1984147E3,1.2231744E3,7.870012E2,4.114134E2,3.5954974E2,8.6362463E2,6.6380634E2,1.2319491E2,3.4273932E2,6.8674065E1,3.2710477E2,3.2444977E1,4.098976E2,4.5372705E2],"tree_param":{"num_deleted":"0","num_feature":"107","num_nodes":"15","size_leaf_vector":"1"}},{"base_weights":[-2.8769805E-3,-8.318542E-2,4.634472E-2,-1.13750614E-1,2.724189E-1,-1.3232229E-3,6.392493E-2,-9.872891E-4,-2.0167348E-4,-6.530904E-6,2.5019958E-3,3.8895739E-4,-4.2102445E-4],"categories":[],"categories_nodes":[],"categories_segments":[],"categories_sizes":[],"default_left":[0,0,0,0,0,0,0,0,0,0,0,0,0],"id":50,"left_children":[1,3,5,7,9,-1,11,-1,-1,-1,-1,-1,-1],"loss_changes":[9.584349E0,1.0151833E1,1.0231388E1,7.261757E0,7.4555745E0,0E0,8.72978E0,0E0,0E0,0E0,0E0,0E0,0E0],"parents":[2147483647,0,0,1,1,2,2,3,3,4,4,6,6],"right_children":[2,4,6,8,10,-1,12,-1,-1,-1,-1,-1,-1],"split_conditions":[1.2E1,2.9E1,7.96E1,1E1,4.68E-1,-1.3232229E-3,1.12E2,-9.872891E-4,-2.0167348E-4,-6.530904E-6,2.5019958E-3,3.8895739E-4,-4.2102445E-4],"split_indices":[36,45,58,96,7,0,24,0,0,0,0,0,0],"split_type":[0,0,0,0,0,0,0,0,0,0,0,0,0],"sum_hessian":[2.4141663E3,9.164922E2,1.4976741E3,8.466848E2,6.9807365E1,6.218247E1,1.4354916E3,2.595466E2,5.8713824E2,4.2249115E1,2.7558254E1,1.192333E3,2.4315855E2],"tree_param":{"num_deleted":"0","num_feature":"107","num_nodes":"13","size_leaf_vector":"1"}},{"base_weights":[-1.1982995E-2,1.5913007E-1,-4.713377E-2,-4.842332E-2,2.6347557E-1,-1.6826067E-2,-2.1539599E-1,7.6159165E-4,-1.1733349E-3,-2.2421444E-3,1.2698683E-3,9.63841E-5,-6.065593E-4,-6.767751E-5,-1.2857273E-3],"categories":[],"categories_nodes":[],"categories_segments":[],"categories_sizes":[],"default_left":[0,0,0,0,0,0,0,0,0,0,0,0,0,0,0],"id":51,"left_children":[1,3,5,7,9,11,13,-1,-1,-1,-1,-1,-1,-1,-1],"loss_changes":[1.4540308E1,8.984764E0,1.0205178E1,8.856916E0,1.4606991E1,9.734872E0,6.7644243E0,0E0,0E0,0E0,0E0,0E0,0E0,0E0,0E0],"parents":[2147483647,0,0,1,1,2,2,3,3,4,4,5,5,6,6],"right_children":[2,4,6,8,10,12,14,-1,-1,-1,-1,-1,-1,-1,-1],"split_conditions":[6E0,1.1E1,1.96E1,1.46E1,3.7E0,2.4E1,1.2E1,7.6159165E-4,-1.1733349E-3,-2.2421444E-3,1.2698683E-3,9.63841E-5,-6.065593E-4,-6.767751E-5,-1.2857273E-3],"split_indices":[92,36,63,18,72,87,32,0,0,0,0,0,0,0,0],"split_type":[0,0,0,0,0,0,0,0,0,0,0,0,0,0,0],"sum_hessian":[2.4065989E3,4.0743494E2,1.9991638E3,1.3697789E2,2.7045706E2,1.6981321E3,3.010317E2,7.004106E1,6.693682E1,1.5716521E1,2.5474054E2,1.3083184E3,3.8981375E2,1.1073332E2,1.902984E2],"tree_param":{"num_deleted":"0","num_feature":"107","num_nodes":"15","size_leaf_vector":"1"}},{"base_weights":[1.8546408E-2,3.566084E-2,-2.6807642E-1,6.6745095E-2,-1.1021654E-1,-1.3728751E-3,1.5499338E-3,-1.155747E-4,4.977518E-4,-7.235945E-4,9.2277303E-4],"categories":[],"categories_nodes":[],"categories_segments":[],"categories_sizes":[],"default_left":[0,0,0,0,0,0,0,0,0,0,0],"id":52,"left_children":[1,3,5,7,9,-1,-1,-1,-1,-1,-1],"loss_changes":[1.19533415E1,1.04386215E1,8.049666E0,1.097213E1,1.0560341E1,0E0,0E0,0E0,0E0,0E0,0E0],"parents":[2147483647,0,0,1,1,2,2,3,3,4,4],"right_children":[2,4,6,8,10,-1,-1,-1,-1,-1,-1],"split_conditions":[4.89E1,1.94E1,3.99E-1,1.2E1,2.86E1,-1.3728751E-3,1.5499338E-3,-1.155747E-4,4.977518E-4,-7.235945E-4,9.2277303E-4],"split_indices":[4,63,62,36,64,0,0,0,0,0,0],"split_type":[0,0,0,0,0,0,0,0,0,0,0],"sum_hessian":[2.4223115E3,2.289425E3,1.328863E2,1.8893339E3,4.0009125E2,1.201178E2,1.2768509E1,7.2716693E2,1.162167E3,3.310446E2,6.904667E1],"tree_param":{"num_deleted":"0","num_feature":"107","num_nodes":"11","size_leaf_vector":"1"}},{"base_weights":[3.871837E-3,8.78141E-2,-7.80379E-2,9.843134E-2,-2.259484E-3,-1.3887684E-1,7.832023E-2,3.331907E-4,2.3560904E-3,-7.933903E-4,2.142148E-4,1.4252937E-3,-1.3094225E-4],"categories":[],"categories_nodes":[],"categories_segments":[],"categories_sizes":[],"default_left":[0,0,0,0,0,0,0,0,0,0,0,0,0],"id":53,"left_children":[1,3,5,7,-1,9,11,-1,-1,-1,-1,-1,-1],"loss_changes":[1.6704844E1,8.710405E0,1.1745922E1,7.8336334E0,0E0,1.0914564E1,1.1114764E1,0E0,0E0,0E0,0E0,0E0,0E0],"parents":[2147483647,0,0,1,1,2,2,3,3,5,5,6,6],"right_children":[2,4,6,8,-1,10,12,-1,-1,-1,-1,-1,-1],"split_conditions":[1.6E1,1.06E1,2.2E1,2.47E1,-2.259484E-3,2.5E1,9E0,3.331907E-4,2.3560904E-3,-7.933903E-4,2.142148E-4,1.4252937E-3,-1.3094225E-4],"split_indices":[84,71,91,23,0,102,40,0,0,0,0,0,0],"split_type":[0,0,0,0,0,0,0,0,0,0,0,0,0],"sum_hessian":[2.419703E3,1.1950437E3,1.2246593E3,1.1798271E3,1.5216523E1,8.8209247E2,3.425668E2,1.1537748E3,2.6052326E1,6.6456476E2,2.175277E2,9.385194E1,2.4871487E2],"tree_param":{"num_deleted":"0","num_feature":"107","num_nodes":"13","size_leaf_vector":"1"}},{"base_weights":[4.28693E-3,-1.2884028E-1,4.6942983E-2,-4.111642E-2,-2.9562455E-1,1.7789012E-1,9.746995E-3,-5.550174E-4,5.2780827E-4,-7.316321E-4,-2.933014E-3,3.822144E-4,2.0514948E-3,-2.3736636E-4,4.741852E-4],"categories":[],"categories_nodes":[],"categories_segments":[],"categories_sizes":[],"default_left":[0,0,0,0,0,0,0,0,0,0,0,0,0,0,0],"id":54,"left_children":[1,3,5,7,9,11,13,-1,-1,-1,-1,-1,-1,-1,-1],"loss_changes":[1.3799325E1,8.571718E0,8.953546E0,6.9867797E0,9.396986E0,1.1074641E1,1.1255674E1,0E0,0E0,0E0,0E0,0E0,0E0,0E0,0E0],"parents":[2147483647,0,0,1,1,2,2,3,3,4,4,5,5,6,6],"right_children":[2,4,6,8,10,12,14,-1,-1,-1,-1,-1,-1,-1,-1],"split_conditions":[8E0,2E1,4E0,3.63E-1,1.92E1,1.58E1,5.2E0,-5.550174E-4,5.2780827E-4,-7.316321E-4,-2.933014E-3,3.822144E-4,2.0514948E-3,-2.3736636E-4,4.741852E-4],"split_indices":[50,94,78,62,63,18,73,0,0,0,0,0,0,0,0],"split_type":[0,0,0,0,0,0,0,0,0,0,0,0,0,0,0],"sum_hessian":[2.4199556E3,5.849904E2,1.8349651E3,3.869358E2,1.9805466E2,4.022028E2,1.4327622E3,2.4688783E2,1.4004794E2,1.6439476E2,3.3659904E1,3.3058908E2,7.161371E1,8.7882355E2,5.5393866E2],"tree_param":{"num_deleted":"0","num_feature":"107","num_nodes":"15","size_leaf_vector":"1"}},{"base_weights":[1.5755146E-3,3.7116706E-2,-1.5811363E-1,-8.975912E-2,7.826658E-2,-2.4723168E-2,-3.476577E-1,-2.4545175E-4,-3.1029633E-3,-3.554784E-4,4.22679E-4,9.446813E-4,-6.1031245E-4,-6.8371114E-4,-2.354249E-3],"categories":[],"categories_nodes":[],"categories_segments":[],"categories_sizes":[],"default_left":[0,0,0,0,0,0,0,0,0,0,0,0,0,0,0],"id":55,"left_children":[1,3,5,7,9,11,13,-1,-1,-1,-1,-1,-1,-1,-1],"loss_changes":[1.3877524E1,1.0473117E1,1.1209984E1,9.180325E0,7.566848E0,9.4045E0,7.5783863E0,0E0,0E0,0E0,0E0,0E0,0E0,0E0,0E0],"parents":[2147483647,0,0,1,1,2,2,3,3,4,4,5,5,6,6],"right_children":[2,4,6,8,10,12,14,-1,-1,-1,-1,-1,-1,-1,-1],"split_conditions":[1.93E1,8E0,1.9E1,1.5E1,7E0,8E0,3.58E-1,-2.4545175E-4,-3.1029633E-3,-3.554784E-4,4.22679E-4,9.446813E-4,-6.1031245E-4,-6.8371114E-4,-2.354249E-3],"split_indices":[63,34,32,35,54,40,62,0,0,0,0,0,0,0,0],"split_type":[0,0,0,0,0,0,0,0,0,0,0,0,0,0,0],"sum_hessian":[2.4351829E3,1.9946747E3,4.4050818E2,4.8710385E2,1.5075708E3,2.614581E2,1.7905008E2,4.7339633E2,1.3707518E1,2.2243462E2,1.2851362E3,8.505731E1,1.7640079E2,1.10435425E2,6.8614655E1],"tree_param":{"num_deleted":"0","num_feature":"107","num_nodes":"15","size_leaf_vector":"1"}},{"base_weights":[1.5842536E-2,5.880494E-2,-7.5265884E-2,-4.1007947E-2,1.1087664E-1,1.6484553E-1,-1.401947E-1,4.7524045E-6,-2.398602E-3,3.6270398E-4,2.178264E-3,1.7252803E-4,2.914683E-3,-7.3683565E-4,1.3476029E-3],"categories":[],"categories_nodes":[],"categories_segments":[],"categories_sizes":[],"default_left":[0,0,0,0,0,0,0,0,0,0,0,0,0,0,0],"id":56,"left_children":[1,3,5,7,9,11,13,-1,-1,-1,-1,-1,-1,-1,-1],"loss_changes":[9.557254E0,8.641256E0,1.2302312E1,1.3803925E1,8.729807E0,1.1632832E1,1.4512053E1,0E0,0E0,0E0,0E0,0E0,0E0,0E0,0E0],"parents":[2147483647,0,0,1,1,2,2,3,3,4,4,5,5,6,6],"right_children":[2,4,6,8,10,12,14,-1,-1,-1,-1,-1,-1,-1,-1],"split_conditions":[1.83E1,1.95E1,7E0,2.14E1,2.48E1,3.5E1,6.2E0,4.7524045E-6,-2.398602E-3,3.6270398E-4,2.178264E-3,1.7252803E-4,2.914683E-3,-7.3683565E-4,1.3476029E-3],"split_indices":[63,74,41,75,64,9,73,0,0,0,0,0,0,0,0],"split_type":[0,0,0,0,0,0,0,0,0,0,0,0,0,0,0],"sum_hessian":[2.4310298E3,1.6532507E3,7.77779E2,5.669195E2,1.0863313E3,1.6406929E2,6.137097E2,5.317403E2,3.5179207E1,1.0480134E3,3.8317757E1,1.3950914E2,2.4560162E1,5.611546E2,5.2555122E1],"tree_param":{"num_deleted":"0","num_feature":"107","num_nodes":"15","size_leaf_vector":"1"}},{"base_weights":[8.373899E-3,-4.4210527E-2,7.648653E-2,3.130528E-1,-6.487263E-2,-1.9088165E-1,1.1059604E-1,1.8001425E-3,-1.2044956E-3,-4.1072053E-4,6.1531813E-4,-2.0166128E-3,6.009793E-4,5.274869E-4,-1.2701272E-3],"categories":[],"categories_nodes":[],"categories_segments":[],"categories_sizes":[],"default_left":[0,0,0,0,0,0,0,0,0,0,0,0,0,0,0],"id":57,"left_children":[1,3,5,7,9,11,13,-1,-1,-1,-1,-1,-1,-1,-1],"loss_changes":[8.759872E0,1.02795E1,9.810017E0,7.498979E0,1.1613901E1,1.3921909E1,9.999944E0,0E0,0E0,0E0,0E0,0E0,0E0,0E0,0E0],"parents":[2147483647,0,0,1,1,2,2,3,3,4,4,5,5,6,6],"right_children":[2,4,6,8,10,12,14,-1,-1,-1,-1,-1,-1,-1,-1],"split_conditions":[4.43E1,3.5E0,4E0,2.5E1,2.6E1,1.7E1,2.7E1,1.8001425E-3,-1.2044956E-3,-4.1072053E-4,6.1531813E-4,-2.0166128E-3,6.009793E-4,5.274869E-4,-1.2701272E-3],"split_indices":[68,73,85,78,88,82,80,0,0,0,0,0,0,0,0],"split_type":[0,0,0,0,0,0,0,0,0,0,0,0,0,0,0],"sum_hessian":[2.4354746E3,1.3750116E3,1.060463E3,7.181508E1,1.3031965E3,1.17680016E2,9.4278296E2,5.9081116E1,1.2733966E1,1.1068601E3,1.9633638E2,5.9653046E1,5.8026966E1,8.965814E2,4.620154E1],"tree_param":{"num_deleted":"0","num_feature":"107","num_nodes":"15","size_leaf_vector":"1"}},{"base_weights":[-6.2373015E-3,6.777721E-2,-8.044174E-2,-1.1961823E-1,1.1677206E-1,-2.0954232E-1,-2.2011379E-2,-7.36685E-4,1.2352582E-3,-9.296097E-4,5.67087E-4,-1.9387126E-3,-5.005893E-4,-2.2029987E-4,1.3712484E-3],"categories":[],"categories_nodes":[],"categories_segments":[],"categories_sizes":[],"default_left":[0,0,0,0,0,0,0,0,0,0,0,0,0,0,0],"id":58,"left_children":[1,3,5,7,9,11,13,-1,-1,-1,-1,-1,-1,-1,-1],"loss_changes":[1.3276629E1,1.1173386E1,9.082729E0,7.745805E0,9.588806E0,8.48959E0,1.0688229E1,0E0,0E0,0E0,0E0,0E0,0E0,0E0,0E0],"parents":[2147483647,0,0,1,1,2,2,3,3,4,4,5,5,6,6],"right_children":[2,4,6,8,10,12,14,-1,-1,-1,-1,-1,-1,-1,-1],"split_conditions":[1.6E1,7E0,1E1,2.7E1,3.8E0,8E0,2.7E1,-7.36685E-4,1.2352582E-3,-9.296097E-4,5.67087E-4,-1.9387126E-3,-5.005893E-4,-2.2029987E-4,1.3712484E-3],"split_indices":[84,45,34,86,21,86,82,0,0,0,0,0,0,0,0],"split_type":[0,0,0,0,0,0,0,0,0,0,0,0,0,0,0],"sum_hessian":[2.4073718E3,1.205222E3,1.2021498E3,2.4840927E2,9.5681274E2,3.7099005E2,8.3115967E2,2.1687697E2,3.1532299E1,6.719975E1,8.89613E2,7.812358E1,2.9286646E2,7.6458923E2,6.6570465E1],"tree_param":{"num_deleted":"0","num_feature":"107","num_nodes":"15","size_leaf_vector":"1"}},{"base_weights":[2.1654671E-2,5.865885E-2,-1.03793204E-1,4.0204577E-2,3.469203E-1,-5.7344716E-2,-4.4317672E-1,-5.017701E-5,5.902155E-4,2.4246336E-3,1.1010383E-4,7.828622E-5,-1.1797984E-3,-2.9483715E-3,-1.7054686E-4],"categories":[],"categories_nodes":[],"categories_segments":[],"categories_sizes":[],"default_left":[0,0,0,0,0,0,0,0,0,0,0,0,0,0,0],"id":59,"left_children":[1,3,5,7,9,11,13,-1,-1,-1,-1,-1,-1,-1,-1],"loss_changes":[1.1280619E1,9.91748E0,8.622448E0,1.0333545E1,9.611554E0,9.294748E0,7.97754E0,0E0,0E0,0E0,0E0,0E0,0E0,0E0,0E0],"parents":[2147483647,0,0,1,1,2,2,3,3,4,4,5,5,6,6],"right_children":[2,4,6,8,10,12,14,-1,-1,-1,-1,-1,-1,-1,-1],"split_conditions":[2.4E1,2.9E1,3.64E1,2.2E1,1.3E1,1.85E1,1.7E1,-5.017701E-5,5.902155E-4,2.4246336E-3,1.1010383E-4,7.828622E-5,-1.1797984E-3,-2.9483715E-3,-1.7054686E-4],"split_indices":[94,100,61,91,82,63,41,0,0,0,0,0,0,0,0],"split_type":[0,0,0,0,0,0,0,0,0,0,0,0,0,0,0],"sum_hessian":[2.4188164E3,1.8697654E3,5.49051E2,1.7619064E3,1.0785906E2,4.8739307E2,6.165797E1,1.1921677E3,5.697386E2,5.6106384E1,5.1752678E1,3.7276025E2,1.1463278E2,3.2665134E1,2.8992838E1],"tree_param":{"num_deleted":"0","num_feature":"107","num_nodes":"15","size_leaf_vector":"1"}},{"base_weights":[-2.8356032E-3,-3.440245E-2,1.5999825E-1,-4.806539E-3,-1.974565E-1,-2.6552352E-1,2.2916366E-1,-4.808854E-4,1.9328226E-4,5.399691E-4,-1.2784351E-3,7.8162196E-4,-2.027677E-3,3.809499E-4,1.6140129E-3],"categories":[],"categories_nodes":[],"categories_segments":[],"categories_sizes":[],"default_left":[0,0,0,0,0,0,0,0,0,0,0,0,0,0,0],"id":60,"left_children":[1,3,5,7,9,11,13,-1,-1,-1,-1,-1,-1,-1,-1],"loss_changes":[1.2473079E1,9.8018265E0,1.1862514E1,1.1009324E1,1.36189165E1,7.1202574E0,8.035273E0,0E0,0E0,0E0,0E0,0E0,0E0,0E0,0E0],"parents":[2147483647,0,0,1,1,2,2,3,3,4,4,5,5,6,6],"right_children":[2,4,6,8,10,12,14,-1,-1,-1,-1,-1,-1,-1,-1],"split_conditions":[2.6E1,2.54E1,5E0,1E1,9E0,1.3E1,2.2E1,-4.808854E-4,1.9328226E-4,5.399691E-4,-1.2784351E-3,7.8162196E-4,-2.027677E-3,3.809499E-4,1.6140129E-3],"split_indices":[88,64,40,34,40,35,2,0,0,0,0,0,0,0,0],"split_type":[0,0,0,0,0,0,0,0,0,0,0,0,0,0,0],"sum_hessian":[2.4163894E3,2.026966E3,3.894233E2,1.7194194E3,3.075466E2,5.270511E1,3.367182E2,5.39528E2,1.1798914E3,8.50314E1,2.2251521E2,1.8763107E1,3.3942E1,1.9905156E2,1.3766664E2],"tree_param":{"num_deleted":"0","num_feature":"107","num_nodes":"15","size_leaf_vector":"1"}},{"base_weights":[-1.3050042E-2,-2.9024467E-1,2.7132023E-3,-2.5442848E-3,-4.7474496E-2,-1.7080849E-2,2.3679972E-1,2.0555875E-3,-7.8522495E-4,-9.1090676E-4,4.103195E-5,-3.080318E-4,1.7649696E-3],"categories":[],"categories_nodes":[],"categories_segments":[],"categories_sizes":[],"default_left":[0,0,0,0,0,0,0,0,0,0,0,0,0],"id":61,"left_children":[1,3,5,-1,7,9,11,-1,-1,-1,-1,-1,-1],"loss_changes":[1.06235285E1,1.1229803E1,1.0688563E1,0E0,7.666808E0,1.2603922E1,1.2239171E1,0E0,0E0,0E0,0E0,0E0,0E0],"parents":[2147483647,0,0,1,1,2,2,4,4,5,5,6,6],"right_children":[2,4,6,-1,8,10,12,-1,-1,-1,-1,-1,-1],"split_conditions":[8.2E0,1.2E1,6.2E0,-2.5442848E-3,1.91E1,1.3E1,3.75E1,2.0555875E-3,-7.8522495E-4,-9.1090676E-4,4.103195E-5,-3.080318E-4,1.7649696E-3],"split_indices":[66,31,73,0,22,52,57,0,0,0,0,0,0],"split_type":[0,0,0,0,0,0,0,0,0,0,0,0,0],"sum_hessian":[2.4208135E3,1.2637479E2,2.2944387E3,4.8141693E1,7.823309E1,2.119069E3,1.7536958E2,1.4277622E1,6.3955467E1,2.3707547E2,1.8819937E3,7.1731445E1,1.0363814E2],"tree_param":{"num_deleted":"0","num_feature":"107","num_nodes":"13","size_leaf_vector":"1"}},{"base_weights":[-3.0939034E-3,-1.306664E-1,4.3504424E-2,-2.721668E-2,-2.4781145E-1,-5.1839635E-2,9.806288E-2,-5.3306855E-4,8.9910656E-4,8.7913196E-4,-1.1646987E-3,1.11029345E-4,-9.3298865E-4,2.2685202E-4,1.307033E-3],"categories":[],"categories_nodes":[],"categories_segments":[],"categories_sizes":[],"default_left":[0,0,0,0,0,0,0,0,0,0,0,0,0,0,0],"id":62,"left_children":[1,3,5,7,9,11,13,-1,-1,-1,-1,-1,-1,-1,-1],"loss_changes":[1.4467681E1,7.857561E0,9.294147E0,9.90804E0,7.3409367E0,9.743803E0,1.0656563E1,0E0,0E0,0E0,0E0,0E0,0E0,0E0,0E0],"parents":[2147483647,0,0,1,1,2,2,3,3,4,4,5,5,6,6],"right_children":[2,4,6,8,10,12,14,-1,-1,-1,-1,-1,-1,-1,-1],"split_conditions":[5E0,2.05E1,1.2E1,7.88E-1,3.8E0,2.2E1,4.65E-1,-5.3306855E-4,8.9910656E-4,8.7913196E-4,-1.1646987E-3,1.11029345E-4,-9.3298865E-4,2.2685202E-4,1.307033E-3],"split_indices":[26,75,31,13,73,94,7,0,0,0,0,0,0,0,0],"split_type":[0,0,0,0,0,0,0,0,0,0,0,0,0,0,0],"sum_hessian":[2.4233792E3,6.464724E2,1.7769067E3,3.4621088E2,3.0026154E2,6.4661096E2,1.1302958E3,2.4464444E2,1.0156642E2,2.676851E1,2.73493E2,4.5426855E2,1.9234242E2,9.696433E2,1.606525E2],"tree_param":{"num_deleted":"0","num_feature":"107","num_nodes":"15","size_leaf_vector":"1"}},{"base_weights":[2.6127861E-3,-2.7672014E-1,2.3513636E-2,-5.9012353E-1,-1.0986158E-1,-8.105947E-4,4.4949036E-2,-2.9684403E-3,3.293631E-4,6.2948046E-4,-1.6811723E-3,5.1506064E-5,8.0598023E-4],"categories":[],"categories_nodes":[],"categories_segments":[],"categories_sizes":[],"default_left":[0,0,0,0,0,0,0,0,0,0,0,0,0],"id":63,"left_children":[1,3,5,7,9,-1,11,-1,-1,-1,-1,-1,-1],"loss_changes":[1.4239909E1,8.597324E0,1.1230258E1,6.79455E0,1.0309855E1,0E0,1.06009E1,0E0,0E0,0E0,0E0,0E0,0E0],"parents":[2147483647,0,0,1,1,2,2,3,3,4,4,6,6],"right_children":[2,4,6,8,10,-1,12,-1,-1,-1,-1,-1,-1],"split_conditions":[8.4E0,1.2E1,3E0,2.4E1,5.1E0,-8.105947E-4,2.6E1,-2.9684403E-3,3.293631E-4,6.2948046E-4,-1.6811723E-3,5.1506064E-5,8.0598023E-4],"split_indices":[66,83,30,64,21,0,88,0,0,0,0,0,0],"split_type":[0,0,0,0,0,0,0,0,0,0,0,0,0],"sum_hessian":[2.4284194E3,1.6534264E2,2.263077E3,5.3644E1,1.1169864E2,1.8962636E2,2.0734504E3,4.264213E1,1.1001867E1,6.152228E1,5.0176353E1,1.734254E3,3.3919638E2],"tree_param":{"num_deleted":"0","num_feature":"107","num_nodes":"13","size_leaf_vector":"1"}},{"base_weights":[-1.7764587E-2,6.816886E-2,-8.4196515E-2,-4.386125E-1,8.7615736E-2,3.377515E-1,-1.0269906E-1,-2.9221894E-3,7.674015E-4,2.1346565E-4,1.4293422E-3,-2.194343E-4,3.3450807E-3,-1.4317925E-4,-8.608309E-4],"categories":[],"categories_nodes":[],"categories_segments":[],"categories_sizes":[],"default_left":[0,0,0,0,0,0,0,0,0,0,0,0,0,0,0],"id":64,"left_children":[1,3,5,7,9,11,13,-1,-1,-1,-1,-1,-1,-1,-1],"loss_changes":[1.3836244E1,1.0590581E1,1.0824043E1,8.36747E0,9.304323E0,1.2071067E1,1.0101405E1,0E0,0E0,0E0,0E0,0E0,0E0,0E0,0E0],"parents":[2147483647,0,0,1,1,2,2,3,3,4,4,5,5,6,6],"right_children":[2,4,6,8,10,12,14,-1,-1,-1,-1,-1,-1,-1,-1],"split_conditions":[4.53E-1,1.36E-1,1.92E2,1.89E1,2.9E1,8.1E0,2.35E1,-2.9221894E-3,7.674015E-4,2.1346565E-4,1.4293422E-3,-2.194343E-4,3.3450807E-3,-1.4317925E-4,-8.608309E-4],"split_indices":[59,55,104,11,100,60,64,0,0,0,0,0,0,0,0],"split_type":[0,0,0,0,0,0,0,0,0,0,0,0,0,0,0],"sum_hessian":[2.4137751E3,1.0521821E3,1.3615929E3,3.5447357E1,1.0167348E3,5.4055992E1,1.307537E3,2.3438946E1,1.2008412E1,9.123732E2,1.0436155E2,3.2743324E1,2.1312666E1,8.378831E2,4.696538E2],"tree_param":{"num_deleted":"0","num_feature":"107","num_nodes":"15","size_leaf_vector":"1"}},{"base_weights":[1.0201563E-2,-2.0860227E-2,1.7495723E-1,3.9750796E-2,-9.964908E-2,-1.6063508E-3,2.1908855E-1,-1.4756387E-3,2.3077815E-4,-6.7215995E-4,3.4883354E-4,-5.5239396E-4,1.1878429E-3],"categories":[],"categories_nodes":[],"categories_segments":[],"categories_sizes":[],"default_left":[0,0,0,0,0,0,0,0,0,0,0,0,0],"id":65,"left_children":[1,3,5,7,9,-1,11,-1,-1,-1,-1,-1,-1],"loss_changes":[1.2542699E1,9.866404E0,1.0417619E1,9.361454E0,1.2199313E1,0E0,1.1151279E1,0E0,0E0,0E0,0E0,0E0,0E0],"parents":[2147483647,0,0,1,1,2,2,3,3,4,4,6,6],"right_children":[2,4,6,8,10,-1,12,-1,-1,-1,-1,-1,-1],"split_conditions":[2.6E1,1.77E1,9.19E1,3.33E-1,4.53E1,-1.6063508E-3,7E0,-1.4756387E-3,2.3077815E-4,-6.7215995E-4,3.4883354E-4,-5.5239396E-4,1.1878429E-3],"split_indices":[88,11,76,62,68,0,40,0,0,0,0,0,0],"split_type":[0,0,0,0,0,0,0,0,0,0,0,0,0],"sum_hessian":[2.4407195E3,2.0565337E3,3.8418573E2,1.1633402E3,8.931935E2,2.4465324E1,3.597204E2,4.744129E1,1.1158989E3,6.476353E2,2.4555817E2,6.721901E1,2.925014E2],"tree_param":{"num_deleted":"0","num_feature":"107","num_nodes":"13","size_leaf_vector":"1"}},{"base_weights":[-1.0818115E-2,2.7599469E-2,-1.3582297E-1,5.1284206E-1,1.3731517E-2,3.7237874E-1,-6.7705975E-4,3.0782565E-3,-7.133716E-4,2.79796E-4,-3.054839E-4,-9.4469695E-4,2.5737025E-3],"categories":[],"categories_nodes":[],"categories_segments":[],"categories_sizes":[],"default_left":[0,0,0,0,0,0,0,0,0,0,0,0,0],"id":66,"left_children":[1,3,5,7,9,11,-1,-1,-1,-1,-1,-1,-1],"loss_changes":[1.1755301E1,1.257621E1,1.1020325E1,1.0426365E1,9.647018E0,7.671835E0,0E0,0E0,0E0,0E0,0E0,0E0,0E0],"parents":[2147483647,0,0,1,1,2,2,3,3,4,4,5,5],"right_children":[2,4,6,8,10,12,-1,-1,-1,-1,-1,-1,-1],"split_conditions":[2.4E1,3.5E0,9.49E1,8.83E1,1.7E1,5.8E0,-6.7705975E-4,3.0782565E-3,-7.133716E-4,2.79796E-4,-3.054839E-4,-9.4469695E-4,2.5737025E-3],"split_indices":[92,73,24,6,84,8,0,0,0,0,0,0,0],"split_type":[0,0,0,0,0,0,0,0,0,0,0,0,0],"sum_hessian":[2.4378142E3,1.8670878E3,5.7072656E2,4.7575665E1,1.8195121E3,3.5792454E1,5.349341E2,3.3835953E1,1.373971E1,1.1179602E3,7.015519E2,1.1488397E1,2.4304058E1],"tree_param":{"num_deleted":"0","num_feature":"107","num_nodes":"13","size_leaf_vector":"1"}},{"base_weights":[5.1233144E-3,3.3419058E-2,-1.2027951E-1,2.1192467E-1,8.712505E-3,-1.6091813E-1,2.5946277E-3,2.9995125E-3,5.2313146E-4,4.471773E-4,-1.3168878E-4,2.0448586E-4,-1.1244363E-3],"categories":[],"categories_nodes":[],"categories_segments":[],"categories_sizes":[],"default_left":[0,0,0,0,0,0,0,0,0,0,0,0,0],"id":67,"left_children":[1,3,5,7,9,11,-1,-1,-1,-1,-1,-1,-1],"loss_changes":[8.779214E0,8.891483E0,1.4928922E1,1.0216145E1,7.9289804E0,1.1749175E1,0E0,0E0,0E0,0E0,0E0,0E0,0E0],"parents":[2147483647,0,0,1,1,2,2,3,3,4,4,5,5],"right_children":[2,4,6,8,10,12,-1,-1,-1,-1,-1,-1,-1],"split_conditions":[1.93E1,1.52E1,9.7E0,7.03E-1,9E0,1.2E1,2.5946277E-3,2.9995125E-3,5.2313146E-4,4.471773E-4,-1.3168878E-4,2.0448586E-4,-1.1244363E-3],"split_indices":[63,11,19,13,47,32,0,0,0,0,0,0,0],"split_type":[0,0,0,0,0,0,0,0,0,0,0,0,0],"sum_hessian":[2.463427E3,2.0126378E3,4.5078915E2,2.406454E2,1.7719924E3,4.317464E2,1.9042763E1,2.5315203E1,2.153302E2,5.0589948E2,1.2660929E3,1.610057E2,2.707407E2],"tree_param":{"num_deleted":"0","num_feature":"107","num_nodes":"13","size_leaf_vector":"1"}},{"base_weights":[4.8285723E-3,-9.474226E-2,4.3082606E-2,1.1257359E-1,-1.754912E-1,9.228059E-2,-4.503439E-2,-4.4953977E-5,1.8760712E-3,-2.5266153E-3,-5.231884E-4,2.077262E-4,1.2048929E-3,5.482111E-4,-5.566041E-4],"categories":[],"categories_nodes":[],"categories_segments":[],"categories_sizes":[],"default_left":[0,0,0,0,0,0,0,0,0,0,0,0,0,0,0],"id":68,"left_children":[1,3,5,7,9,11,13,-1,-1,-1,-1,-1,-1,-1,-1],"loss_changes":[9.288445E0,1.1417446E1,7.6560106E0,8.764784E0,9.293231E0,9.495266E0,1.1425786E1,0E0,0E0,0E0,0E0,0E0,0E0,0E0,0E0],"parents":[2147483647,0,0,1,1,2,2,3,3,4,4,5,5,6,6],"right_children":[2,4,6,8,10,12,14,-1,-1,-1,-1,-1,-1,-1,-1],"split_conditions":[9E0,9E0,1.81E1,2.1E1,3E0,1.76E1,1.2E1,-4.4953977E-5,1.8760712E-3,-2.5266153E-3,-5.231884E-4,2.077262E-4,1.2048929E-3,5.482111E-4,-5.566041E-4],"split_indices":[50,94,63,45,95,63,42,0,0,0,0,0,0,0,0],"split_type":[0,0,0,0,0,0,0,0,0,0,0,0,0,0,0],"sum_hessian":[2.4281755E3,6.7200793E2,1.7561676E3,1.878069E2,4.8420102E2,1.1270348E3,6.291328E2,1.4323984E2,4.456706E1,3.4923317E1,4.4927768E2,9.571326E2,1.6990222E2,2.1557974E2,4.1355307E2],"tree_param":{"num_deleted":"0","num_feature":"107","num_nodes":"15","size_leaf_vector":"1"}},{"base_weights":[-2.1369327E-2,-1.0798771E-1,3.1838465E-2,-1.8303518E-1,7.767682E-2,1.9199036E-1,-1.8335113E-2,1.772804E-3,-8.3593494E-4,6.294234E-4,-1.4480783E-3,9.725405E-4,-1.0723642E-3,-3.793681E-4,5.00829E-4],"categories":[],"categories_nodes":[],"categories_segments":[],"categories_sizes":[],"default_left":[0,0,0,0,0,0,0,0,0,0,0,0,0,0,0],"id":69,"left_children":[1,3,5,7,9,11,13,-1,-1,-1,-1,-1,-1,-1,-1],"loss_changes":[1.1186939E1,1.29312725E1,1.211179E1,1.2970997E1,1.0194714E1,9.640031E0,1.3198738E1,0E0,0E0,0E0,0E0,0E0,0E0,0E0,0E0],"parents":[2147483647,0,0,1,1,2,2,3,3,4,4,5,5,6,6],"right_children":[2,4,6,8,10,12,14,-1,-1,-1,-1,-1,-1,-1,-1],"split_conditions":[1.2E1,1.16E1,8E0,3.5E0,2.72E1,2.64E1,2E1,1.772804E-3,-8.3593494E-4,6.294234E-4,-1.4480783E-3,9.725405E-4,-1.0723642E-3,-3.793681E-4,5.00829E-4],"split_indices":[36,60,92,73,17,64,37,0,0,0,0,0,0,0,0],"split_type":[0,0,0,0,0,0,0,0,0,0,0,0,0,0,0],"sum_hessian":[2.4179824E3,9.1864844E2,1.4993339E3,6.543612E2,2.6428723E2,3.5494003E2,1.1443938E3,2.6788681E1,6.275726E2,2.2534064E2,3.8946587E1,3.187233E2,3.621675E1,7.457568E2,3.9863705E2],"tree_param":{"num_deleted":"0","num_feature":"107","num_nodes":"15","size_leaf_vector":"1"}},{"base_weights":[-1.4015635E-2,1.1690408E-1,-5.3578917E-2,3.6031008E-2,3.2347035E-1,-1.8863249E-1,-5.837089E-3,7.3484576E-4,-3.2895626E-4,1.7598885E-3,-7.003427E-4,-1.1500935E-3,1.1697522E-5,6.548941E-5,-1.2252219E-3],"categories":[],"categories_nodes":[],"categories_segments":[],"categories_sizes":[],"default_left":[0,0,0,0,0,0,0,0,0,0,0,0,0,0,0],"id":70,"left_children":[1,3,5,7,9,11,13,-1,-1,-1,-1,-1,-1,-1,-1],"loss_changes":[1.2582701E1,9.366238E0,1.2013805E1,7.5111995E0,1.0273251E1,9.754654E0,9.58355E0,0E0,0E0,0E0,0E0,0E0,0E0,0E0,0E0],"parents":[2147483647,0,0,1,1,2,2,3,3,4,4,5,5,6,6],"right_children":[2,4,6,8,10,12,14,-1,-1,-1,-1,-1,-1,-1,-1],"split_conditions":[4E0,2.2E1,9E0,2E1,8.6E0,2E1,2.9E1,7.3484576E-4,-3.2895626E-4,1.7598885E-3,-7.003427E-4,-1.1500935E-3,1.1697522E-5,6.548941E-5,-1.2252219E-3],"split_indices":[78,91,36,75,19,100,42,0,0,0,0,0,0,0,0],"split_type":[0,0,0,0,0,0,0,0,0,0,0,0,0,0,0],"sum_hessian":[2.4185317E3,5.5916656E2,1.8593651E3,4.0552344E2,1.5364313E2,4.821946E2,1.3771705E3,1.7834325E2,2.271802E2,1.2341205E2,3.0231087E1,3.107064E2,1.7148824E2,1.2865099E3,9.066068E1],"tree_param":{"num_deleted":"0","num_feature":"107","num_nodes":"15","size_leaf_vector":"1"}},{"base_weights":[2.4745679E-3,-1.0019828E-1,4.2703487E-2,-2.943536E-1,-1.6141247E-2,5.028429E-2,-1.9559585E-3,-2.2311523E-3,-5.490485E-4,1.7467927E-4,-1.1512059E-3,2.3120324E-4,-2.1715104E-3],"categories":[],"categories_nodes":[],"categories_segments":[],"categories_sizes":[],"default_left":[0,0,0,0,0,0,0,0,0,0,0,0,0],"id":71,"left_children":[1,3,5,7,9,11,-1,-1,-1,-1,-1,-1,-1],"loss_changes":[1.0044431E1,1.1145826E1,7.285877E0,8.403074E0,8.184986E0,9.154487E0,0E0,0E0,0E0,0E0,0E0,0E0,0E0],"parents":[2147483647,0,0,1,1,2,2,3,3,4,4,5,5],"right_children":[2,4,6,8,10,12,-1,-1,-1,-1,-1,-1,-1],"split_conditions":[9E0,3.73E-1,1.87E1,1.1E1,2.6E1,1.04E1,-1.9559585E-3,-2.2311523E-3,-5.490485E-4,1.7467927E-4,-1.1512059E-3,2.3120324E-4,-2.1715104E-3],"split_indices":[36,10,18,45,92,71,0,0,0,0,0,0,0],"split_type":[0,0,0,0,0,0,0,0,0,0,0,0,0],"sum_hessian":[2.4216477E3,6.797493E2,1.7418984E3,2.0206305E2,4.776863E2,1.7216847E3,2.0213644E1,6.862587E1,1.334372E2,3.9477536E2,8.291093E1,1.7012257E3,2.0459085E1],"tree_param":{"num_deleted":"0","num_feature":"107","num_nodes":"13","size_leaf_vector":"1"}},{"base_weights":[-9.321715E-3,2.7418485E-2,-1.6478527E-1,-9.788375E-2,7.57397E-2,1.48612E-4,-2.7776352E-1,2.1106852E-4,-8.66002E-4,6.108834E-4,-1.616576E-4,-9.964046E-5,-1.6379467E-3],"categories":[],"categories_nodes":[],"categories_segments":[],"categories_sizes":[],"default_left":[0,0,0,0,0,0,0,0,0,0,0,0,0],"id":72,"left_children":[1,3,5,7,9,-1,11,-1,-1,-1,-1,-1,-1],"loss_changes":[1.3814762E1,1.1876683E1,1.0637117E1,1.0231987E1,1.3250815E1,0E0,1.0427023E1,0E0,0E0,0E0,0E0,0E0,0E0],"parents":[2147483647,0,0,1,1,2,2,3,3,4,4,6,6],"right_children":[2,4,6,8,10,-1,12,-1,-1,-1,-1,-1,-1],"split_conditions":[1.93E1,9E0,3.47E-1,9E0,1.79E1,1.48612E-4,1.2E1,2.1106852E-4,-8.66002E-4,6.108834E-4,-1.616576E-4,-9.964046E-5,-1.6379467E-3],"split_indices":[63,36,62,47,11,0,32,0,0,0,0,0,0],"split_type":[0,0,0,0,0,0,0,0,0,0,0,0,0],"sum_hessian":[2.4085596E3,1.9508398E3,4.5771964E2,5.415642E2,1.4092756E3,1.6475636E2,2.929633E2,2.432743E2,2.982899E2,8.363614E2,5.7291425E2,1.0622552E2,1.8673776E2],"tree_param":{"num_deleted":"0","num_feature":"107","num_nodes":"13","size_leaf_vector":"1"}},{"base_weights":[-2.3445692E-4,4.705788E-2,-8.616655E-2,-7.33264E-3,1.6005088E-1,-1.4979759E-1,9.7937204E-2,1.2282842E-4,-1.1007495E-3,-8.637095E-4,8.947707E-4,1.9762706E-4,-9.810225E-4,1.0897648E-3,-5.682808E-4],"categories":[],"categories_nodes":[],"categories_segments":[],"categories_sizes":[],"default_left":[0,0,0,0,0,0,0,0,0,0,0,0,0,0,0],"id":73,"left_children":[1,3,5,7,9,11,13,-1,-1,-1,-1,-1,-1,-1,-1],"loss_changes":[9.793964E0,9.559885E0,1.0088425E1,1.1166805E1,1.3278777E1,1.2847622E1,9.883992E0,0E0,0E0,0E0,0E0,0E0,0E0,0E0,0E0],"parents":[2147483647,0,0,1,1,2,2,3,3,4,4,5,5,6,6],"right_children":[2,4,6,8,10,12,14,-1,-1,-1,-1,-1,-1,-1,-1],"split_conditions":[1.81E1,2E1,2.4E1,3.68E1,6E0,1.1E1,1.6E1,1.2282842E-4,-1.1007495E-3,-8.637095E-4,8.947707E-4,1.9762706E-4,-9.810225E-4,1.0897648E-3,-5.682808E-4],"split_indices":[63,100,99,9,53,49,30,0,0,0,0,0,0,0,0],"split_type":[0,0,0,0,0,0,0,0,0,0,0,0,0,0,0],"sum_hessian":[2.3993713E3,1.548664E3,8.5070746E2,1.0479446E3,5.0071927E2,6.3290405E2,2.1780342E2,9.213077E2,1.2663693E2,7.444675E1,4.2627252E2,2.117595E2,4.2114453E2,1.2484842E2,9.2955E1],"tree_param":{"num_deleted":"0","num_feature":"107","num_nodes":"15","size_leaf_vector":"1"}},{"base_weights":[3.941394E-3,-7.193934E-3,2.1206455E-3,-1.1440021E-1,4.0090412E-2,-1.443733E-4,-1.3042649E-3,2.0123519E-4,-1.984435E-3],"categories":[],"categories_nodes":[],"categories_segments":[],"categories_sizes":[],"default_left":[0,0,0,0,0,0,0,0,0],"id":74,"left_children":[1,3,-1,5,7,-1,-1,-1,-1],"loss_changes":[1.4594879E1,1.2131632E1,0E0,1.233474E1,1.0265461E1,0E0,0E0,0E0,0E0],"parents":[2147483647,0,0,1,1,3,3,4,4],"right_children":[2,4,-1,6,8,-1,-1,-1,-1],"split_conditions":[6E0,1E1,2.1206455E-3,2E1,2.91E1,-1.443733E-4,-1.3042649E-3,2.0123519E-4,-1.984435E-3],"split_indices":[105,96,0,103,17,0,0,0,0],"split_type":[0,0,0,0,0,0,0,0,0],"sum_hessian":[2.4283977E3,2.383072E3,4.532566E1,7.277155E2,1.6553566E3,5.404087E2,1.8730678E2,1.6259131E3,2.9443594E1],"tree_param":{"num_deleted":"0","num_feature":"107","num_nodes":"9","size_leaf_vector":"1"}},{"base_weights":[-2.2388034E-4,1.5605019E-1,-4.7371097E-2,9.6276276E-2,1.6214468E-3,-2.76541E-1,-2.5820972E-2,-6.141814E-4,6.263666E-4,1.3090878E-3,-1.4141529E-3,-4.7144963E-4,1.7825511E-4],"categories":[],"categories_nodes":[],"categories_segments":[],"categories_sizes":[],"default_left":[0,0,0,0,0,0,0,0,0,0,0,0,0],"id":75,"left_children":[1,3,5,7,-1,9,11,-1,-1,-1,-1,-1,-1],"loss_changes":[1.7710688E1,8.394421E0,9.0917225E0,7.4428134E0,0E0,8.6236515E0,1.1404383E1,0E0,0E0,0E0,0E0,0E0,0E0],"parents":[2147483647,0,0,1,1,2,2,3,3,5,5,6,6],"right_children":[2,4,6,8,-1,10,12,-1,-1,-1,-1,-1,-1],"split_conditions":[4E0,2.4E1,3E0,6E0,1.6214468E-3,4E0,1.02E1,-6.141814E-4,6.263666E-4,1.3090878E-3,-1.4141529E-3,-4.7144963E-4,1.7825511E-4],"split_indices":[78,51,30,45,0,94,66,0,0,0,0,0,0],"split_type":[0,0,0,0,0,0,0,0,0,0,0,0,0],"sum_hessian":[2.3941194E3,5.5247595E2,1.8416436E3,4.5310498E2,9.9370995E1,1.5386317E2,1.6877803E3,8.945216E1,3.636528E2,1.7020174E1,1.3684299E2,7.2518933E2,9.62591E2],"tree_param":{"num_deleted":"0","num_feature":"107","num_nodes":"13","size_leaf_vector":"1"}},{"base_weights":[-9.967897E-3,4.8044312E-1,-1.851298E-2,-1.0535019E-3,3.2565387E-3,-1.27045885E-2,-2.6422786E-3,1.9653717E-3,-7.5080796E-5],"categories":[],"categories_nodes":[],"categories_segments":[],"categories_sizes":[],"default_left":[0,0,0,0,0,0,0,0,0],"id":76,"left_children":[1,3,5,-1,-1,7,-1,-1,-1],"loss_changes":[1.0256625E1,1.1937723E1,9.101176E0,0E0,0E0,7.916697E0,0E0,0E0,0E0],"parents":[2147483647,0,0,1,1,2,2,5,5],"right_children":[2,4,6,-1,-1,8,-1,-1,-1],"split_conditions":[1.31E1,1E1,1.9E1,-1.0535019E-3,3.2565387E-3,1E0,-2.6422786E-3,1.9653717E-3,-7.5080796E-5],"split_indices":[11,47,18,0,0,1,0,0,0],"split_type":[0,0,0,0,0,0,0,0,0],"sum_hessian":[2.4307937E3,3.7556705E1,2.393237E3,1.2236516E1,2.532019E1,2.3765298E3,1.6707138E1,2.5291414E1,2.3512385E3],"tree_param":{"num_deleted":"0","num_feature":"107","num_nodes":"9","size_leaf_vector":"1"}},{"base_weights":[-7.0762276E-3,-2.7713305E-1,9.499066E-3,-4.8190524E-4,-2.6164423E-3,2.0366336E-1,-1.2257683E-2,-2.3067094E-4,1.2620786E-3,2.303534E-5,-1.0376179E-3],"categories":[],"categories_nodes":[],"categories_segments":[],"categories_sizes":[],"default_left":[0,0,0,0,0,0,0,0,0,0,0],"id":77,"left_children":[1,3,5,-1,-1,7,9,-1,-1,-1,-1],"loss_changes":[1.097814E1,8.1745825E0,9.775161E0,0E0,0E0,7.3076735E0,9.531527E0,0E0,0E0,0E0,0E0],"parents":[2147483647,0,0,1,1,2,2,5,5,6,6],"right_children":[2,4,6,-1,-1,8,10,-1,-1,-1,-1],"split_conditions":[6E0,9.1E0,7.21E-1,-4.8190524E-4,-2.6164423E-3,1.44E1,2.33E2,-2.3067094E-4,1.2620786E-3,2.303534E-5,-1.0376179E-3],"split_indices":[52,71,65,0,0,70,104,0,0,0,0],"split_type":[0,0,0,0,0,0,0,0,0,0,0],"sum_hessian":[2.4405613E3,1.3737038E2,2.303191E3,1.0245146E2,3.491892E1,2.2862842E2,2.0745625E3,7.148509E1,1.5714333E2,1.939194E3,1.353684E2],"tree_param":{"num_deleted":"0","num_feature":"107","num_nodes":"11","size_leaf_vector":"1"}},{"base_weights":[4.1209026E-3,-1.5277399E-1,3.0357026E-2,-4.5825433E-2,-4.492977E-1,8.8868536E-2,-5.612756E-2,-6.4938236E-4,1.1222756E-3,-2.5331741E-3,1.0596279E-3,2.8953832E-4,2.4424624E-3,-3.319343E-4,1.359481E-3],"categories":[],"categories_nodes":[],"categories_segments":[],"categories_sizes":[],"default_left":[0,0,0,0,0,0,0,0,0,0,0,0,0,0,0],"id":78,"left_children":[1,3,5,7,9,11,13,-1,-1,-1,-1,-1,-1,-1,-1],"loss_changes":[1.0083061E1,1.103527E1,1.0639203E1,1.0641547E1,1.3818325E1,9.898802E0,9.861799E0,0E0,0E0,0E0,0E0,0E0,0E0,0E0,0E0],"parents":[2147483647,0,0,1,1,2,2,3,3,4,4,5,5,6,6],"right_children":[2,4,6,8,10,12,14,-1,-1,-1,-1,-1,-1,-1,-1],"split_conditions":[6E0,2.3E1,1.78E1,2.1E1,2.36E1,6E0,2.9E1,-6.4938236E-4,1.1222756E-3,-2.5331741E-3,1.0596279E-3,2.8953832E-4,2.4424624E-3,-3.319343E-4,1.359481E-3],"split_indices":[53,31,11,51,23,105,41,0,0,0,0,0,0,0,0],"split_type":[0,0,0,0,0,0,0,0,0,0,0,0,0,0,0],"sum_hessian":[2.4388896E3,3.4631726E2,2.0925725E3,2.5819202E2,8.812523E1,1.2482637E3,8.443087E2,1.9138727E2,6.680477E1,6.960804E1,1.8517189E1,1.2187036E3,2.9560104E1,7.9175397E2,5.2554794E1],"tree_param":{"num_deleted":"0","num_feature":"107","num_nodes":"15","size_leaf_vector":"1"}},{"base_weights":[-1.8256435E-2,-4.629876E-3,-3.2612693E-1,-6.343865E-2,7.392595E-2,-3.343369E-3,-7.3669653E-4,-7.174299E-4,-2.4681302E-5,3.5393334E-4,-2.7236696E-3],"categories":[],"categories_nodes":[],"categories_segments":[],"categories_sizes":[],"default_left":[0,0,0,0,0,0,0,0,0,0,0],"id":79,"left_children":[1,3,5,7,9,-1,-1,-1,-1,-1,-1],"loss_changes":[1.0199316E1,1.0800864E1,6.8187656E0,9.113798E0,1.2788286E1,0E0,0E0,0E0,0E0,0E0,0E0],"parents":[2147483647,0,0,1,1,2,2,3,3,4,4],"right_children":[2,4,6,8,10,-1,-1,-1,-1,-1,-1],"split_conditions":[4.34E1,4.43E1,9E0,1.1E1,1.03E1,-3.343369E-3,-7.3669653E-4,-7.174299E-4,-2.4681302E-5,3.5393334E-4,-2.7236696E-3],"split_indices":[5,68,66,50,71,0,0,0,0,0,0],"split_type":[0,0,0,0,0,0,0,0,0,0,0],"sum_hessian":[2.4264797E3,2.3278496E3,9.863008E1,1.3319193E3,9.9593024E2,1.594189E1,8.2688194E1,4.2797446E2,9.039449E2,9.789743E2,1.695593E1],"tree_param":{"num_deleted":"0","num_feature":"107","num_nodes":"11","size_leaf_vector":"1"}},{"base_weights":[1.1384575E-2,-4.4943623E-2,1.07546635E-1,-2.7756453E-1,-1.4720273E-2,-1.670767E-3,1.2897635E-1,1.5797882E-4,-1.8836234E-3,-2.618466E-4,5.730893E-4,-3.262748E-4,7.363709E-4],"categories":[],"categories_nodes":[],"categories_segments":[],"categories_sizes":[],"default_left":[0,0,0,0,0,0,0,0,0,0,0,0,0],"id":80,"left_children":[1,3,5,7,9,-1,11,-1,-1,-1,-1,-1,-1],"loss_changes":[1.3111061E1,1.07148695E1,1.0461825E1,1.1374746E1,1.1378905E1,0E0,1.0811001E1,0E0,0E0,0E0,0E0,0E0,0E0],"parents":[2147483647,0,0,1,1,2,2,3,3,4,4,6,6],"right_children":[2,4,6,8,10,-1,12,-1,-1,-1,-1,-1,-1],"split_conditions":[5.2E0,6E0,-1.02E1,4.8E0,2.12E1,-1.670767E-3,1E1,1.5797882E-4,-1.8836234E-3,-2.618466E-4,5.730893E-4,-3.262748E-4,7.363709E-4],"split_indices":[73,53,77,21,74,0,88,0,0,0,0,0,0],"split_type":[0,0,0,0,0,0,0,0,0,0,0,0,0],"sum_hessian":[2.4106843E3,1.5214458E3,8.892387E2,1.7084111E2,1.3506046E3,3.1204077E1,8.580346E2,6.77505E1,1.0309061E2,1.0224839E3,3.2812076E2,1.854442E2,6.725904E2],"tree_param":{"num_deleted":"0","num_feature":"107","num_nodes":"13","size_leaf_vector":"1"}},{"base_weights":[1.358677E-2,5.851346E-2,-9.04647E-2,-2.0344885E-1,8.297398E-2,-1.7233472E-1,9.806929E-2,2.074458E-5,-1.8597472E-3,5.236209E-4,-2.2500184E-5,-1.2230707E-3,-1.2737917E-4,-4.8592017E-5,2.3705664E-3],"categories":[],"categories_nodes":[],"categories_segments":[],"categories_sizes":[],"default_left":[0,0,0,0,0,0,0,0,0,0,0,0,0,0,0],"id":81,"left_children":[1,3,5,7,9,11,13,-1,-1,-1,-1,-1,-1,-1,-1],"loss_changes":[1.1356895E1,1.0943609E1,1.1386208E1,8.277389E0,6.965061E0,9.940514E0,1.261492E1,0E0,0E0,0E0,0E0,0E0,0E0,0E0,0E0],"parents":[2147483647,0,0,1,1,2,2,3,3,4,4,5,5,6,6],"right_children":[2,4,6,8,10,12,14,-1,-1,-1,-1,-1,-1,-1,-1],"split_conditions":[2.2E1,3E0,2E1,1.7E1,2E1,1.2E1,2.7E1,2.074458E-5,-1.8597472E-3,5.236209E-4,-2.2500184E-5,-1.2230707E-3,-1.2737917E-4,-4.8592017E-5,2.3705664E-3],"split_indices":[92,30,27,35,35,50,97,0,0,0,0,0,0,0,0],"split_type":[0,0,0,0,0,0,0,0,0,0,0,0,0,0,0],"sum_hessian":[2.4189475E3,1.6909635E3,7.279839E2,1.4165605E2,1.5493075E3,5.0793152E2,2.2005235E2,8.224703E1,5.9409027E1,9.863403E2,5.629672E2,2.517212E2,2.5621033E2,1.839827E2,3.6069656E1],"tree_param":{"num_deleted":"0","num_feature":"107","num_nodes":"15","size_leaf_vector":"1"}},{"base_weights":[3.1016592E-3,-2.4538355E-1,1.8394006E-2,1.055039E-3,-1.6202215E-3,7.356823E-2,-6.1718717E-2,9.530157E-4,4.0779865E-5,2.105792E-3,-3.069554E-4],"categories":[],"categories_nodes":[],"categories_segments":[],"categories_sizes":[],"default_left":[0,0,0,0,0,0,0,0,0,0,0],"id":82,"left_children":[1,3,5,-1,-1,7,9,-1,-1,-1,-1],"loss_changes":[9.216146E0,1.2593344E1,1.01129675E1,0E0,0E0,1.4468641E1,9.409596E0,0E0,0E0,0E0,0E0],"parents":[2147483647,0,0,1,1,2,2,5,5,6,6],"right_children":[2,4,6,-1,-1,8,10,-1,-1,-1,-1],"split_conditions":[6E0,1.74E-1,1.78E1,1.055039E-3,-1.6202215E-3,1.013E2,6E0,9.530157E-4,4.0779865E-5,2.105792E-3,-3.069554E-4],"split_indices":[52,3,11,0,0,76,19,0,0,0,0],"split_type":[0,0,0,0,0,0,0,0,0,0,0],"sum_hessian":[2.4138743E3,1.3613164E2,2.2777424E3,3.2776382E1,1.03355255E2,1.3492223E3,9.285202E2,3.6324777E2,9.8597455E2,2.1288733E1,9.072315E2],"tree_param":{"num_deleted":"0","num_feature":"107","num_nodes":"11","size_leaf_vector":"1"}},{"base_weights":[1.905411E-2,-9.012539E-2,6.1706867E-2,-2.0670837E-3,-6.0163137E-2,1.05841905E-1,-7.122949E-2,-3.6275884E-5,-1.6026256E-3,-3.3886067E-4,5.409704E-4,-2.310804E-3,-1.4083354E-4],"categories":[],"categories_nodes":[],"categories_segments":[],"categories_sizes":[],"default_left":[0,0,0,0,0,0,0,0,0,0,0,0,0],"id":83,"left_children":[1,3,5,-1,7,9,11,-1,-1,-1,-1,-1,-1],"loss_changes":[1.1243808E1,8.747196E0,1.0214531E1,0E0,1.132901E1,8.083003E0,7.874989E0,0E0,0E0,0E0,0E0,0E0,0E0],"parents":[2147483647,0,0,1,1,2,2,4,4,5,5,6,6],"right_children":[2,4,6,-1,8,10,12,-1,-1,-1,-1,-1,-1],"split_conditions":[9E0,3.01E1,2.5E1,-2.0670837E-3,2.33E2,5E0,1.95E1,-3.6275884E-5,-1.6026256E-3,-3.3886067E-4,5.409704E-4,-2.310804E-3,-1.4083354E-4],"split_indices":[50,67,32,0,104,85,69,0,0,0,0,0,0],"split_type":[0,0,0,0,0,0,0,0,0,0,0,0,0],"sum_hessian":[2.4037334E3,6.737438E2,1.7299896E3,3.8680042E1,6.350637E2,1.299599E3,4.303907E2,5.5792914E2,7.7134544E1,1.8444115E2,1.1151578E3,2.320176E1,4.071889E2],"tree_param":{"num_deleted":"0","num_feature":"107","num_nodes":"13","size_leaf_vector":"1"}},{"base_weights":[-1.13793E-3,-2.925892E-2,1.4962265E-1,3.94849E-3,-1.8739901E-1,-3.1513044E-1,2.2424625E-1,-2.584335E-4,3.1370265E-4,9.737076E-5,-1.2086286E-3,8.271003E-4,-2.292122E-3,-1.2015192E-3,1.0892986E-3],"categories":[],"categories_nodes":[],"categories_segments":[],"categories_sizes":[],"default_left":[0,0,0,0,0,0,0,0,0,0,0,0,0,0,0],"id":84,"left_children":[1,3,5,7,9,11,13,-1,-1,-1,-1,-1,-1,-1,-1],"loss_changes":[1.0289509E1,1.07523775E1,1.3538143E1,9.014827E0,9.134893E0,8.262847E0,9.746674E0,0E0,0E0,0E0,0E0,0E0,0E0,0E0,0E0],"parents":[2147483647,0,0,1,1,2,2,3,3,4,4,5,5,6,6],"right_children":[2,4,6,8,10,12,14,-1,-1,-1,-1,-1,-1,-1,-1],"split_conditions":[2.6E1,1.94E1,5E0,7.69E-1,1.2E1,1.3E1,3.9E0,-2.584335E-4,3.1370265E-4,9.737076E-5,-1.2086286E-3,8.271003E-4,-2.292122E-3,-1.2015192E-3,1.0892986E-3],"split_indices":[88,63,40,65,40,35,20,0,0,0,0,0,0,0,0],"split_type":[0,0,0,0,0,0,0,0,0,0,0,0,0,0,0],"sum_hessian":[2.416839E3,2.0399432E3,3.7689578E2,1.6891957E3,3.5074753E2,5.0198242E1,3.2669754E2,8.805444E2,8.086513E2,1.2824425E2,2.2250328E2,1.7262793E1,3.2935448E1,2.7969778E1,2.9872778E2],"tree_param":{"num_deleted":"0","num_feature":"107","num_nodes":"15","size_leaf_vector":"1"}},{"base_weights":[-1.1404631E-2,-1.0227293E-1,2.3127623E-2,1.8258992E-3,-1.314273E-1,-9.831258E-2,6.304296E-2,-2.4835666E-4,-1.6056045E-3,8.654217E-5,-1.0918813E-3,6.404478E-4,-7.584683E-5],"categories":[],"categories_nodes":[],"categories_segments":[],"categories_sizes":[],"default_left":[0,0,0,0,0,0,0,0,0,0,0,0,0],"id":85,"left_children":[1,3,5,-1,7,9,11,-1,-1,-1,-1,-1,-1],"loss_changes":[7.5645914E0,1.1253031E1,8.495536E0,0E0,1.1897499E1,9.430868E0,1.088855E1,0E0,0E0,0E0,0E0,0E0,0E0],"parents":[2147483647,0,0,1,1,2,2,4,4,5,5,6,6],"right_children":[2,4,6,-1,8,10,12,-1,-1,-1,-1,-1,-1],"split_conditions":[9E0,1.955E2,8E0,1.8258992E-3,2.5E1,2E1,1.5E1,-2.4835666E-4,-1.6056045E-3,8.654217E-5,-1.0918813E-3,6.404478E-4,-7.584683E-5],"split_indices":[50,104,85,0,92,42,98,0,0,0,0,0,0],"split_type":[0,0,0,0,0,0,0,0,0,0,0,0,0],"sum_hessian":[2.4005173E3,6.5897504E2,1.7415422E3,2.9043482E1,6.299315E2,4.2910226E2,1.31244E3,5.101114E2,1.19820145E2,2.5925436E2,1.6984792E2,5.9050916E2,7.219308E2],"tree_param":{"num_deleted":"0","num_feature":"107","num_nodes":"13","size_leaf_vector":"1"}},{"base_weights":[-6.8476247E-3,1.0085646E-2,-2.923397E-1,4.426192E-2,-1.4990696E-1,-1.8980648E-1,-3.2683588E-3,-6.5861456E-4,3.0941292E-4,-8.6820754E-4,7.1908854E-4,-1.247682E-4,-2.4021983E-3],"categories":[],"categories_nodes":[],"categories_segments":[],"categories_sizes":[],"default_left":[0,0,0,0,0,0,0,0,0,0,0,0,0],"id":86,"left_children":[1,3,5,7,9,11,-1,-1,-1,-1,-1,-1,-1],"loss_changes":[1.1790756E1,1.2607298E1,6.899436E0,1.3989478E1,9.826933E0,7.9448643E0,0E0,0E0,0E0,0E0,0E0,0E0,0E0],"parents":[2147483647,0,0,1,1,2,2,3,3,4,4,5,5],"right_children":[2,4,6,8,10,12,-1,-1,-1,-1,-1,-1,-1],"split_conditions":[4.89E1,1.94E1,9.3E0,1.53E1,2.85E1,3.29E1,-3.2683588E-3,-6.5861456E-4,3.0941292E-4,-8.6820754E-4,7.1908854E-4,-1.247682E-4,-2.4021983E-3],"split_indices":[4,63,71,63,64,61,0,0,0,0,0,0,0],"split_type":[0,0,0,0,0,0,0,0,0,0,0,0,0],"sum_hessian":[2.427036E3,2.294916E3,1.3211967E2,1.8936572E3,4.0125888E2,1.1592225E2,1.619743E1,2.6310718E2,1.63055E3,3.317273E2,6.953159E1,8.7734245E1,2.8187998E1],"tree_param":{"num_deleted":"0","num_feature":"107","num_nodes":"13","size_leaf_vector":"1"}},{"base_weights":[-9.868997E-3,4.861179E-2,-6.78232E-2,1.0467222E-1,-1.22465596E-1,-8.065924E-2,1.9218988E-3,-2.0558028E-4,5.9671386E-4,5.1086675E-4,-1.1339949E-3,-5.9053255E-4,1.1920586E-4],"categories":[],"categories_nodes":[],"categories_segments":[],"categories_sizes":[],"default_left":[0,0,0,0,0,0,0,0,0,0,0,0,0],"id":87,"left_children":[1,3,5,7,9,11,-1,-1,-1,-1,-1,-1,-1],"loss_changes":[8.248749E0,1.1674694E1,8.926604E0,6.848071E0,1.2829607E1,9.31492E0,0E0,0E0,0E0,0E0,0E0,0E0,0E0],"parents":[2147483647,0,0,1,1,2,2,3,3,4,4,5,5],"right_children":[2,4,6,8,10,12,-1,-1,-1,-1,-1,-1,-1],"split_conditions":[1.6E1,8.5E0,6E0,1E1,1.5E1,1.9E1,1.9218988E-3,-2.0558028E-4,5.9671386E-4,5.1086675E-4,-1.1339949E-3,-5.9053255E-4,1.1920586E-4],"split_indices":[84,19,105,1,42,33,0,0,0,0,0,0,0],"split_type":[0,0,0,0,0,0,0,0,0,0,0,0,0],"sum_hessian":[2.4235151E3,1.2063757E3,1.2171395E3,9.09993E2,2.9638272E2,1.1933517E3,2.378789E1,2.107064E2,6.9928656E2,1.1804259E2,1.7834013E2,7.318327E2,4.6151892E2],"tree_param":{"num_deleted":"0","num_feature":"107","num_nodes":"13","size_leaf_vector":"1"}},{"base_weights":[-6.968184E-3,8.463328E-2,-4.683969E-2,-1.0493307E-1,1.8518083E-1,-2.0307167E-1,-3.8682127E-3,8.5031166E-4,-9.3854894E-4,9.818899E-4,-2.5052018E-4,-8.038342E-5,-1.532498E-3,-8.0328976E-4,1.4104413E-4],"categories":[],"categories_nodes":[],"categories_segments":[],"categories_sizes":[],"default_left":[0,0,0,0,0,0,0,0,0,0,0,0,0,0,0],"id":88,"left_children":[1,3,5,7,9,11,13,-1,-1,-1,-1,-1,-1,-1,-1],"loss_changes":[8.869644E0,1.4122883E1,1.1349909E1,1.1365965E1,7.8957977E0,1.2442194E1,1.0687405E1,0E0,0E0,0E0,0E0,0E0,0E0,0E0,0E0],"parents":[2147483647,0,0,1,1,2,2,3,3,4,4,5,5,6,6],"right_children":[2,4,6,8,10,12,14,-1,-1,-1,-1,-1,-1,-1,-1],"split_conditions":[1E1,1E1,7E0,8E0,2.5E1,8E0,9E0,8.5031166E-4,